\data\
ngram 1=4691
ngram 2=19274
ngram 3=27219

\1-grams:
-0.6480878	<unk>
-inf	<s>	-0.76886415
-1.8708102	</s>
-4.313068	wow	-0.11984056
-2.449189	this	-0.2443027
-2.1073933	is	-0.29725862
-2.6773608	so	-0.20148991
-2.710772	great	-0.14966717
-2.0661356	#	-0.29840416
-4.7772894	mannequinchallenge	-0.09152476
-4.7772894	whoa	-0.09152476
-1.8826854	url	-0.91451246
-4.104686	update	-0.09152476
-1.4605111	.	-2.0502927
-3.1875563	much	-0.22645955
-4.313068	faster	-0.09152476
-2.1726532	user	-0.35598055
-4.7772894	thx	-0.09152476
-1.5505605	!	-1.7924716
-2.7225058	not	-0.16347511
-3.739101	sure	-0.09152476
-2.9729097	how	-0.17254554
-3.0942323	got	-0.19240868
-3.543461	past	-0.11619851
-2.7225058	us	-0.17081489
-4.104686	fixed	-0.16071774
-2.540565	(	-0.1466691
-1.7724015	and	-0.21771763
-3.6303566	thanks	-0.19110839
-2.011937	for	-0.3027527
-3.739101	reporting	-0.091524795
-2.5103486	)	-0.46546522
-2.8955479	never	-0.1675229
-3.0174584	said	-0.20269771
-2.9729097	but	-0.14045604
-4.313068	seems	-0.09152476
-3.0174584	like	-0.14638965
-3.0415726	good	-0.21762918
-4.313068	advice	-0.09152476
-4.7772894	slipped	-0.09152476
-1.5264274	,	-0.3856392
-2.6364698	now	-0.22880413
-2.4012277	it	-0.32492888
-2.5103486	's	-0.1234957
-3.0942323	vote	-0.30885774
-4.7772894	ivoted	-0.09152476
-2.517708	hillary	-0.30828133
-4.313068	smith	-0.09152476
-4.313068	joins	-0.09152476
-3.1875563	square	-0.1364078
-2.540565	as	-0.15651135
-2.4959939	our	-0.20911163
-4.7772894	gc	-0.09152476
-4.7772894	🙄	-0.09152476
-2.5990999	``	-0.141274
-4.7772894	slavery	-0.09152476
-2.2535045	''	-0.40318322
-3.3548098	u.s.	-0.10075976
-4.7772894	inmates	-0.09152476
-4.7772894	strike	-0.09152476
-3.739101	voting	-0.17103088
-3.2631807	amazing	-0.13748372
-4.313068	cool	-0.09152476
-2.2455	that	-0.2932894
-2.5328114	was	-0.20713452
-3.3065832	done	-0.124744736
-2.5251942	all	-0.2848848
-2.4245467	from	-0.200731
-2.1594431	a	-0.21337807
-3.88451	phone	-0.13170488
-4.313068	👋🏼	-0.09152476
-3.123168	there	-0.21139498
-2.9522395	time	-0.20269771
-1.7956963	to	-0.32316294
-2.8149354	do	-0.27980763
-3.3065832	both	-0.10781718
-4.7772894	seamless	-0.09152476
-3.88451	vs	-0.09152476
-2.0096269	:	-0.4404014
-4.313068	caviar	-0.09152476
-3.4710867	took	-0.09152476
-1.8948946	the	-0.26218167
-4.313068	cake	-0.09152476
-2.6463373	we	-0.3396798
-3.3548098	also	-0.091524795
-4.104686	deliver	-0.09152476
-4.7772894	btw	-0.09152476
-2.5484593	i	-0.29781878
-4.7772894	'm	-0.091524795
-1.8592509	in	-0.27775028
-4.104686	🙏🏼	-0.1423589
-2.0406587	on	-0.30155462
-3.2631807	debate	-0.15135819
-4.7772894	…the	-0.09152476
-4.7772894	elegant	-0.09152476
-4.7772894	simplicity	-0.09152476
-1.8984469	of	-0.25792825
-2.913635	twitter	-0.21136957
-2.573042	me	-0.2662683
-4.7772894	unprecedented	-0.09152476
-3.123168	really	-0.091524795
-3.6303566	important	-0.09152476
-4.313068	—user	-0.1423589
-3.88451	final	-0.15013213
-3.123168	right	-0.19131243
-3.15417	here	-0.23299688
-2.8614874	tonight	-0.2984295
-4.7772894	whyiattendghc	-0.09152476
-2.913635	be	-0.1385136
-4.7772894	present	-0.09152476
-3.6303566	listen	-0.16071774
-4.313068	learn	-0.09152476
-4.7772894	emerging	-0.09152476
-3.4090683	leaders	-0.16144314
-4.7772894	builders	-0.09152476
-4.7772894	recruit	-0.09152476
-2.8781838	them	-0.21538362
-4.313068	course	-0.09152476
-4.7772894	ghc16	-0.09152476
-4.313068	⚡️	-0.09152476
-4.7772894	“imagined	-0.09152476
-4.104686	conversations	-0.09152476
-3.543461	between	-0.09152476
-4.104686	barack	-0.16071774
-2.8955479	obama	-0.18667383
-3.6303566	joe	-0.124744706
-4.7772894	biden”	-0.09152476
-4.7772894	awesome	-0.09152476
-4.7772894	📡	-0.09152476
-3.88451	anyone	-0.09152476
-2.8149354	can	-0.20207678
-4.313068	broadcast	-0.09152476
-3.4090683	any	-0.1133867
-4.313068	camera	-0.09152476
-2.7597384	or	-0.095716365
-4.7772894	stream	-0.09152476
-3.4090683	world	-0.12130602
-4.104686	've	-0.17103088
-3.0942323	made	-0.21722335
-3.543461	simple	-0.11619851
-2.8781838	get	-0.21565565
-3.543461	tap	-0.18646966
-4.7772894	button…	-0.09152476
-3.0671048	only	-0.10450941
-3.88451	matter	-0.09152476
-3.88451	tried	-0.09152476
-4.104686	moved	-0.16071774
-4.7772894	lighter	-0.09152476
-4.7772894	🆕	-0.09152476
-4.104686	're	-0.09152476
-3.3548098	working	-0.14728941
-2.2415524	with	-0.27944535
-3.543461	show	-0.09152476
-2.7597384	what	-0.2538133
-3.88451	happening	-0.1364078
-3.2631807	election	-0.15360156
-3.0671048	day	-0.28483525
-2.8781838	live	-0.27630463
-4.313068	nov	-0.19994181
-4.313068	8th	-0.11984056
-4.7772894	oops	-0.09152476
-3.2631807	ca	-0.9501581
-3.123168	n't	-0.15736203
-2.699347	have	-0.24346946
-4.7772894	fb	-0.09152476
-3.739101	account	-0.09152476
-2.4428961	will	-0.2860585
-3.2631807	love	-0.13675053
-3.2237246	watch	-0.16952698
-3.739101	constant	-0.09152476
-4.7772894	reminder	-0.09152476
-3.543461	stay	-0.09152476
-4.7772894	healthy	-0.09152476
-4.104686	daily	-0.09152476
-4.7772894	wrist	-0.09152476
-4.313068	mom	-0.09152476
-3.2631807	saying	-0.12507841
-3.88451	morning	-0.14235887
-4.313068	search	-0.09152476
-4.7772894	powerful…you	-0.09152476
-3.15417	see	-0.267782
-2.5484593	people	-0.2833005
-4.7772894	*think*	-0.09152476
-2.5815554	about	-0.23208982
-3.88451	anything	-0.09152476
-3.6303566	open	-0.124744706
-3.6303566	app	-0.11984056
-2.772894	just	-0.17556916
-3.3548098	getting	-0.16126168
-3.543461	started	-0.11619851
-2.4305775	?	-1.0963198
-4.7772894	👀	-0.09152476
-3.2631807	too	-0.13170488
-4.313068	def	-0.09152476
-4.7772894	competing	-0.09152476
-3.543461	w	-0.18367732
-4.7772894	newspaper/magazine	-0.09152476
-3.739101	network	-0.124744706
-3.4710867	makes	-0.09152476
-2.7345655	more	-0.13749416
-4.7772894	accessible	-0.09152476
-3.0415726	thank	-0.7452014
-2.449189	you	-0.193896
-4.7772894	twitter’s	-0.09152476
-4.313068	streaming	-0.09152476
-4.104686	audience	-0.09152476
-4.7772894	grew	-0.09152476
-3.739101	tv	-0.09152476
-4.7772894	slumped	-0.09152476
-2.913635	...	-0.25907066
-4.7772894	importantly	-0.09152476
-3.543461	talk	-0.14728941
-4.313068	wherever	-0.09152476
-2.7597384	they	-0.2540831
-4.7772894	we…	-0.09152476
-4.313068	agreed	-0.16071774
-3.1875563	everyone	-0.13979839
-3.88451	thinking	-0.09152476
-4.313068	real-time	-0.09152476
-4.7772894	debatenight	-0.091524795
-4.7772894	45m	-0.09152476
-3.4710867	must	-0.09994888
-3.2631807	before	-0.14596911
-2.2261112	by	-0.27671662
-4.7772894	number	-0.09152476
-4.7772894	retweets	-0.09152476
-2.8614874	would	-0.25357023
-3.3548098	say	-0.16658093
-4.313068	otherwise	-0.09152476
-3.2631807	why	-0.14267166
-4.104686	black	-0.09152476
-4.104686	lives	-0.1423589
-3.739101	read	-0.091524795
-4.313068	wise	-0.09152476
-3.543461	man	-0.18723938
-4.104686	available	-0.17598495
-2.7225058	today	-0.35856402
-2.8781838	an	-0.124082
-4.313068	informed	-0.09152476
-4.313068	discussion	-0.09152476
-3.0942323	because	-0.15198155
-4.313068	data	-0.09152476
-4.7772894	vpdebate	-0.09152476
-4.313068	congrats	-0.09152476
-4.313068	scandals	-0.09152476
-2.8299053	last	-0.3510462
-3.739101	week	-0.124744706
-3.2631807	john	-0.10545193
-4.7772894	oliver	-0.09152476
-4.7772894	hbo	-0.09152476
-4.7772894	imagination	-0.09152476
-2.9522395	than	-0.15851037
-4.7772894	knowledge	-0.09152476
-3.739101	tell	-0.124744706
-3.4090683	story	-0.1278946
-3.739101	tweets	-0.091524795
-3.543461	starting	-0.17103088
-4.313068	web	-0.09152476
-3.3548098	help	-0.124744736
-3.88451	someone	-0.091524795
-3.4710867	register	-0.17103088
-4.7772894	fast	-0.09152476
-4.7772894	merchants	-0.09152476
-3.739101	please	-0.09152476
-3.739101	turn	-0.20113339
-2.8149354	one	-0.16641006
-4.313068	flip	-0.09152476
-4.7772894	switch	-0.09152476
-4.7772894	voterregistrationday	-0.09152476
-3.2237246	take	-0.10231818
-3.543461	2	-0.09152476
-3.88451	minutes	-0.1423589
-4.313068	yes	-0.091524795
-2.8454094	new	-0.18449387
-4.104686	reader	-0.09152476
-4.7772894	australia	-0.09152476
-3.3548098	where	-0.13211188
-3.3548098	most	-0.09152476
-4.104686	payments	-0.09152476
-2.4889908	are	-0.20074558
-3.0174584	go	-0.19537638
-4.7772894	commentary	-0.09152476
-4.313068	reaction	-0.09152476
-4.7772894	chip	-0.09152476
-4.313068	card	-0.09152476
-4.7772894	transaction	-0.09152476
-2.9946132	down	-0.20842737
-3.88451	4	-0.09152476
-4.313068	seconds	-0.09152476
-4.104686	industry	-0.16071774
-4.104686	average	-0.091524795
-4.7772894	15s	-0.09152476
-3.6303566	less	-0.09152476
-4.313068	lines	-0.09152476
-4.7772894	geno	-0.09152476
-2.6268215	my	-0.18371244
-4.7772894	barber	-0.09152476
-3.739101	6	-0.091524795
-3.0174584	years	-0.34104243
-4.313068	finally	-0.09152476
-4.7772894	accepts	-0.09152476
-4.7772894	credit	-0.09152476
-4.313068	cards	-0.09152476
-3.88451	monday	-0.09152476
-4.313068	sellers	-0.09152476
-4.313068	add	-0.09152476
-4.7772894	link	-0.09152476
-2.8781838	their	-0.106944285
-4.7772894	receipts	-0.09152476
-4.313068	customers	-0.09152476
-4.7772894	podcast	-0.09152476
-4.104686	find	-0.09152476
-4.313068	🏈	-0.09152476
-2.5646923	has	-0.21787052
-3.3065832	been	-0.122714795
-4.7772894	requested	-0.09152476
-4.7772894	features	-0.09152476
-4.7772894	listening	-0.09152476
-4.104686	hear	-0.16071774
-2.8955479	were	-0.11050319
-3.4710867	taken	-0.09152476
-3.4090683	yesterday	-0.45570296
-3.15417	after	-0.10075976
-3.2237246	being	-0.13170488
-4.313068	reported	-0.09152476
-4.104686	correct	-0.09152476
-3.4710867	through	-0.11619851
-4.313068	human	-0.09152476
-4.104686	review	-0.09152476
-4.104686	process	-0.09152476
-4.7772894	rn	-0.09152476
-4.7772894	tech	-0.09152476
-2.3049023	&	-1.6531403
-4.7772894	amp	-0.09152476
-4.104686	;	-0.09152476
-4.7772894	product-based	-0.09152476
-4.313068	solutions	-0.09152476
-4.7772894	letter	-0.09152476
-4.7772894	regarding	-0.09152476
-4.7772894	climate	-0.09152476
-3.123168	change	-0.17454806
-4.7772894	concerned	-0.09152476
-3.6303566	members	-0.09152476
-3.15417	national	-0.17222615
-4.7772894	academy	-0.09152476
-4.7772894	sciences	-0.09152476
-4.7772894	dark	-0.09152476
-4.313068	sky	-0.09152476
-3.543461	best	-0.10545193
-4.7772894	hyperlocal	-0.09152476
-4.7772894	weather	-0.09152476
-4.313068	notifications	-0.09152476
-3.1875563	those	-0.13424912
-3.15417	two	-0.10122668
-3.88451	else	-0.09152476
-3.3065832	every	-0.14274986
-3.3065832	presidential	-0.21364053
-4.104686	jeff	-0.09152476
-2.9946132	support	-0.19877204
-2.8299053	over	-0.16000387
-4.7772894	“report	-0.09152476
-3.3548098	another	-0.09152476
-3.2237246	killed	-0.1351614
-4.7772894	officer-involved	-0.09152476
-4.313068	shooting	-0.09152476
-3.4090683	north	-0.40892783
-4.7772894	carolina”	-0.09152476
-4.7772894	“kaepernick	-0.09152476
-4.313068	follows	-0.09152476
-2.9325085	$	-0.15893306
-3.739101	1	-0.09152476
-3.3065832	million	-0.16115285
-4.313068	donation	-0.09152476
-4.7772894	amid	-0.09152476
-4.7772894	death	-0.09152476
-4.7772894	threats”	-0.09152476
-4.313068	stood	-0.09152476
-4.313068	hour	-0.09152476
-4.7772894	mountain	-0.09152476
-4.313068	lion	-0.09152476
-3.3065832	country	-0.17073706
-3.88451	waiting	-0.1423589
-4.7772894	galaxy	-0.09152476
-4.7772894	align	-0.09152476
-4.7772894	road	-0.09152476
-3.88451	worked	-0.09152476
-3.3548098	well	-0.1278946
-4.7772894	podcasts	-0.09152476
-4.313068	launched	-0.09152476
-4.7772894	tho	-0.09152476
-3.4090683	top	-0.124744706
-4.7772894	corner	-0.09152476
-3.2631807	under	-0.1505871
-4.7772894	v	-0.09152476
-4.313068	chicago	-0.091524795
-3.2631807	police	-0.2238316
-4.7772894	rolling	-0.09152476
-2.6463373	out	-0.29147783
-4.7772894	mandatory	-0.09152476
-4.7772894	'de-escalation	-0.09152476
-2.699347	'	-0.33220673
-4.313068	training	-0.09152476
-3.739101	happy	-0.15392254
-3.88451	birthday	-0.11619851
-3.88451	pm	-0.09152476
-4.7772894	pardonsnowden	-0.09152476
-4.7772894	🏈🏈🏈	-0.09152476
-4.104686	chance	-0.22681415
-3.2631807	even	-0.1133867
-3.88451	reason	-0.1423589
-4.313068	tour	-0.09152476
-4.7772894	staywokeandvote	-0.09152476
-3.739101	customer	-0.22681415
-3.543461	service	-0.09152476
-2.699347	your	-0.13145757
-3.3548098	business	-0.10932905
-3.0942323	want	-0.2781381
-3.739101	game	-0.09152476
-3.88451	follow	-0.091524795
-4.7772894	alert	-0.09152476
-2.9522395	when	-0.20468985
-2.8299053	his	-0.12055285
-4.313068	music	-0.09152476
-3.4090683	always	-0.09152476
-3.6303566	needs	-0.11984056
-4.7772894	refresh	-0.09152476
-4.7772894	😐	-0.09152476
-4.7772894	🕶	-0.09152476
-4.313068	request	-0.09152476
-3.88451	send	-0.09152476
-3.2237246	money	-0.14596911
-4.313068	siri	-0.09152476
-4.7772894	imessage	-0.09152476
-4.7772894	payroll	-0.09152476
-4.7772894	nearly	-0.09152476
-4.7772894	half	-0.09152476
-4.313068	businesses	-0.19994181
-4.7772894	🎂👟🏀	-0.09152476
-4.7772894	afvsgsu	-0.09152476
-4.7772894	“deskbound”	-0.09152476
-4.7772894	kelly	-0.09152476
-4.7772894	starrett	-0.09152476
-3.3548098	meeting	-0.22457287
-4.7772894	ahmed	-0.09152476
-4.7772894	🙏🏼🙏🏼🙏🏼	-0.09152476
-4.313068	hey	-0.09152476
-4.104686	10	-0.09152476
-4.7772894	💬💸	-0.09152476
-4.7772894	🙌🏼🙌🏼🙌🏼	-0.09152476
-4.104686	power	-0.09152476
-4.7772894	touchbistro	-0.09152476
-4.7772894	vend	-0.09152476
-3.739101	point	-0.13170488
-4.7772894	sale	-0.09152476
-4.313068	hardware	-0.09152476
-4.7772894	coffee	-0.09152476
-2.9325085	if	-0.28535476
-3.3548098	looking	-0.16658093
-4.7772894	try	-0.09152476
-3.739101	something	-0.091524795
-4.7772894	💯	-0.09152476
-4.104686	clear	-0.1423589
-3.3065832	could	-0.15013213
-3.543461	taking	-0.1133867
-4.7772894	feedback	-0.09152476
-3.0671048	make	-0.29117355
-3.2237246	better	-0.15712808
-4.104686	self	-0.09152476
-4.104686	control	-0.09152476
-4.313068	frank	-0.19994181
-4.7772894	ocean	-0.09152476
-4.313068	radio	-0.09152476
-4.7772894	nikes	-0.09152476
-4.7772894	blond	-0.09152476
-3.6303566	choice	-0.11984056
-4.7772894	“this	-0.09152476
-3.4710867	person	-0.11619851
-3.88451	knew	-0.091524795
-4.7772894	staircase	-0.09152476
-4.7772894	along”	-0.09152476
-3.739101	learning	-0.09152476
-4.7772894	spanish	-0.09152476
-4.7772894	sales	-0.09152476
-4.7772894	powered	-0.09152476
-3.3548098	everything	-0.09152476
-4.7772894	andrew	-0.09152476
-3.2631807	let	-0.19303147
-4.7772894	vraa	-0.09152476
-4.7772894	goodtrouble	-0.09152476
-3.6303566	same	-0.10545193
-3.3548098	house	-0.13472232
-3.0942323	american	-0.10075976
-3.15417	first	-0.12807794
-4.7772894	arrested	-0.09152476
-4.313068	felt	-0.09152476
-3.543461	free	-0.11984056
-4.313068	sharing	-0.09152476
-3.4710867	life	-0.1701967
-3.4710867	hope	-0.10781718
-4.7772894	unbelievably	-0.09152476
-3.2631807	strong	-0.10654197
-4.313068	dad	-0.09152476
-4.313068	restored	-0.09152476
-4.7772894	grandmother	-0.09152476
-4.104686	art	-0.09152476
-4.7772894	gallery	-0.09152476
-3.6303566	almost	-0.09152476
-4.104686	200	-0.09152476
-3.1875563	work	-0.18900366
-2.3049023	at	-0.29346132
-3.739101	st.	-0.300801
-4.313068	louis	-0.1423589
-4.104686	ok	-0.09152476
-3.4090683	these	-0.11984056
-4.7772894	nutrition	-0.09152476
-4.7772894	prevent	-0.09152476
-4.313068	reverse	-0.09152476
-4.313068	heart	-0.09152476
-4.7772894	disease	-0.09152476
-4.7772894	fav7films	-0.09152476
-4.7772894	willy	-0.09152476
-4.7772894	wonka	-0.09152476
-4.7772894	chocolate	-0.09152476
-4.7772894	factory	-0.09152476
-3.6303566	dead	-0.09152476
-4.7772894	poets	-0.09152476
-4.313068	society	-0.09152476
-4.7772894	princess	-0.09152476
-4.7772894	bride	-0.09152476
-4.7772894	midnight	-0.09152476
-4.7772894	paris	-0.09152476
-4.7772894	ratatouille	-0.09152476
-4.313068	lincoln	-0.09152476
-4.7772894	wall•e	-0.09152476
-4.7772894	duolingo	-0.09152476
-3.88451	remember	-0.11619851
-4.7772894	longest	-0.09152476
-4.104686	standing	-0.09152476
-3.4090683	during	-0.1133867
-4.7772894	walk	-0.09152476
-4.104686	bed	-0.09152476
-3.739101	tim	-0.30599537
-3.739101	talks	-0.13170488
-4.7772894	remembering	-0.09152476
-4.7772894	victor	-0.09152476
-4.7772894	valdez	-0.09152476
-4.7772894	marfa	-0.09152476
-3.88451	public	-0.124744706
-4.7772894	np	-0.09152476
-4.7772894	soundcloud	-0.09152476
-4.7772894	32	-0.09152476
-3.739101	hours	-0.091524795
-3.739101	congress	-0.13170488
-3.88451	pass	-0.13170488
-3.6303566	november	-0.10932905
-4.7772894	favorite	-0.09152476
-3.4090683	stories	-0.09152476
-4.104686	constitution	-0.091524795
-3.0174584	bill	-0.23278283
-3.739101	rights	-0.09152476
-3.739101	opening	-0.13170488
-2.772894	up	-0.17278145
-4.7772894	capital	-0.09152476
-3.6303566	outside	-0.124744706
-4.7772894	ferguson	-0.09152476
-4.313068	moments	-0.09152476
-4.313068	creation	-0.19994181
-4.7772894	“celebrating	-0.09152476
-4.7772894	51	-0.09152476
-4.7772894	act”	-0.09152476
-3.88451	restore	-0.1423589
-3.6303566	act	-0.09152476
-4.313068	protect	-0.09152476
-3.3548098	americans	-0.11470764
-3.0415726	no	-0.13437644
-3.88451	words	-0.091524795
-3.88451	ideas	-0.1423589
-4.104686	tx	-0.19994181
-4.313068	push	-0.09152476
-3.88451	company	-0.09152476
-4.7772894	holiday	-0.09152476
-4.7772894	unblock	-0.09152476
-3.4710867	voter	-0.2126186
-4.7772894	registration	-0.09152476
-4.7772894	advancement	-0.09152476
-4.7772894	enable	-0.09152476
-3.6303566	need	-0.12713528
-4.313068	ft.	-0.09152476
-4.7772894	xavier	-0.09152476
-4.7772894	omär	-0.09152476
-4.7772894	noname	-0.09152476
-3.739101	50	-0.13170488
-3.4090683	without	-0.1133867
-4.104686	full	-0.091524795
-4.7772894	protections	-0.09152476
-3.2631807	voters	-0.11984056
-4.7772894	color	-0.09152476
-4.313068	remove	-0.09152476
-4.104686	barriers	-0.16071774
-4.7772894	boo	-0.09152476
-3.3548098	team	-0.09152476
-4.7772894	element	-0.09152476
-4.313068	difficult	-0.09152476
-4.313068	step	-0.19994181
-3.88451	second	-0.09152476
-4.7772894	mothers	-0.09152476
-4.104686	movement	-0.12908176
-3.88451	idea	-0.09152476
-3.4710867	fix	-0.15392254
-4.313068	discrimination	-0.09152476
-4.104686	elections	-0.09152476
-4.7772894	…you	-0.09152476
-2.9729097	did	-0.2837358
-2.7469695	who	-0.17743373
-3.543461	thing	-0.09152476
-3.3548098	gave	-0.11115033
-4.7772894	confidence	-0.09152476
-4.7772894	dressing	-0.09152476
-4.7772894	fresh	-0.09152476
-4.7772894	“at	-0.09152476
-4.104686	least	-0.09152476
-4.313068	60	-0.09152476
-4.7772894	kabul	-0.09152476
-4.7772894	explosions”	-0.09152476
-3.4090683	false	-0.16144314
-3.88451	fair	-0.09152476
-3.543461	points	-0.11984056
-4.313068	ban	-0.09152476
-4.7772894	expressing	-0.09152476
-3.88451	thoughts	-0.17598495
-4.7772894	targeted	-0.09152476
-4.313068	abuse	-0.09152476
-4.7772894	inciting	-0.09152476
-2.9729097	against	-0.15197372
-4.7772894	however	-0.09152476
-3.4090683	allowed	-0.20720068
-4.313068	gender	-0.09152476
-4.313068	hi	-0.09152476
-4.7772894	leslie	-0.09152476
-4.7772894	following	-0.09152476
-3.739101	dm	-0.091524795
-3.739101	moment	-0.13170488
-4.7772894	rnc	-0.09152476
-4.7772894	einstein	-0.09152476
-4.313068	speaks	-0.09152476
-3.88451	race	-0.13170488
-3.4090683	|	-0.09152476
-4.313068	s.	-0.09152476
-4.7772894	james	-0.09152476
-4.313068	gates	-0.09152476
-4.313068	[	-0.09152476
-4.7772894	becoming	-0.09152476
-4.313068	]	-0.19994181
-4.7772894	studios	-0.09152476
-4.7772894	script	-0.09152476
-4.7772894	“a	-0.09152476
-4.7772894	rare	-0.09152476
-4.7772894	pokémon	-0.09152476
-4.7772894	sighting	-0.09152476
-4.7772894	causes	-0.09152476
-4.7772894	stir	-0.09152476
-4.7772894	central	-0.09152476
-4.7772894	park”	-0.09152476
-4.7772894	brené	-0.09152476
-4.7772894	brown	-0.09152476
-4.104686	—	-0.09152476
-4.313068	courage	-0.09152476
-4.7772894	vulnerable	-0.09152476
-4.7772894	“'attempted	-0.09152476
-3.6303566	military	-0.124744706
-4.7772894	coup	-0.09152476
-4.7772894	turkey”	-0.09152476
-4.7772894	thich	-0.09152476
-4.7772894	nhat	-0.09152476
-4.7772894	hanh	-0.09152476
-4.313068	peace	-0.09152476
-4.7772894	trauma	-0.09152476
-4.7772894	truck	-0.09152476
-3.3065832	attack	-0.2497394
-3.543461	nice	-0.16126168
-4.7772894	france”	-0.09152476
-3.123168	news	-0.28528386
-3.6303566	joining	-0.18269601
-3.739101	global	-0.091524795
-4.7772894	head	-0.09152476
-3.739101	welcome	-0.17103088
-4.7772894	renee	-0.09152476
-4.7772894	shoe	-0.09152476
-4.7772894	dog	-0.09152476
-4.7772894	recommended	-0.09152476
-4.7772894	touches	-0.09152476
-4.7772894	1968	-0.09152476
-4.7772894	olympics	-0.09152476
-3.88451	problem	-0.09152476
-4.7772894	solution	-0.09152476
-4.7772894	“bloomberg	-0.09152476
-3.739101	west	-0.17103088
-3.88451	”	-0.091524795
-4.7772894	“what’d	-0.09152476
-4.313068	miss	-0.09152476
-4.7772894	“with	-0.09152476
-3.739101	due	-0.3653386
-4.7772894	respect”	-0.09152476
-4.7772894	nowplaying	-0.09152476
-4.7772894	blacklivesmatter	-0.09152476
-4.7772894	spotify	-0.09152476
-4.313068	pray	-0.09152476
-4.313068	move	-0.09152476
-4.7772894	feet	-0.09152476
-4.7772894	legislator	-0.09152476
-4.7772894	accounts	-0.09152476
-3.543461	tweet	-0.09152476
-3.88451	dallas	-0.09152476
-3.739101	strength	-0.22681415
-4.7772894	world-changing	-0.09152476
-3.1875563	leadership	-0.19654416
-4.7772894	“black	-0.09152476
-4.7772894	protests	-0.09152476
-4.104686	held	-0.16071774
-3.739101	across	-0.3653386
-4.7772894	country”	-0.09152476
-4.7772894	alton	-0.09152476
-4.7772894	sterling	-0.09152476
-4.313068	eric	-0.09152476
-4.7772894	garner	-0.09152476
-4.313068	double	-0.09152476
-4.7772894	standard	-0.09152476
-4.7772894	side	-0.09152476
-4.7772894	hustle	-0.09152476
-2.119091	-	-0.2519651
-3.543461	washington	-0.13823022
-4.104686	post	-0.09152476
-4.313068	sick	-0.09152476
-3.88451	tired	-0.2684286
-4.7772894	killings	-0.09152476
-4.313068	young	-0.09152476
-4.313068	men	-0.09152476
-3.15417	women	-0.12908176
-4.104686	communities	-0.09152476
-3.88451	board	-0.13170488
-4.7772894	bret	-0.09152476
-4.313068	brings	-0.09152476
-4.313068	class	-0.09152476
-4.104686	experience	-0.34809813
-4.7772894	insight	-0.09152476
-4.313068	thoughtfulness	-0.09152476
-3.88451	around	-0.1423589
-4.104686	building	-0.09152476
-4.313068	social	-0.09152476
-4.7772894	services	-0.09152476
-4.7772894	👊🏼	-0.09152476
-4.7772894	“jesse	-0.09152476
-4.104686	williams	-0.09152476
-3.88451	own	-0.091524795
-4.7772894	holiday”	-0.09152476
-4.7772894	jessewilliamsappreciationday	-0.09152476
-4.7772894	jesse	-0.09152476
-3.6303566	–	-0.09152476
-3.6303566	2016	-0.11619851
-4.7772894	bet	-0.09152476
-4.7772894	humanitarian	-0.09152476
-4.7772894	award	-0.09152476
-2.9729097	speech	-0.21384518
-4.7772894	copaamerica	-0.09152476
-4.7772894	usavcol	-0.09152476
-4.7772894	loveislove	-0.09152476
-4.7772894	“jr	-0.09152476
-4.7772894	takes	-0.09152476
-3.0415726	off	-0.23477422
-4.7772894	shirt	-0.09152476
-4.313068	puts	-0.09152476
-2.9946132	back	-0.12927128
-4.7772894	on”	-0.09152476
-4.7772894	lou	-0.09152476
-4.7772894	reed	-0.09152476
-4.7772894	yeezus	-0.09152476
-4.7772894	radiohead	-0.09152476
-4.7772894	encourage	-0.09152476
-3.3065832	use	-0.18565327
-4.7772894	phones	-0.09152476
-4.7772894	concerts	-0.09152476
-4.104686	ask	-0.1423589
-4.104686	fans	-0.09152476
-3.543461	periscope	-0.16144314
-4.104686	performance	-0.09152476
-4.7772894	consequence	-0.09152476
-4.104686	sound	-0.09152476
-4.104686	untitled	-0.09152476
-4.104686	founder	-0.16071774
-4.7772894	fugees	-0.09152476
-4.7772894	teaching	-0.09152476
-4.313068	play	-0.09152476
-3.88451	woman	-0.09152476
-4.7772894	cry	-0.09152476
-3.739101	oh	-0.11619851
-2.9522395	going	-0.36906686
-4.313068	.user	-0.09152476
-4.7772894	140	-0.09152476
-4.104686	videos	-0.09152476
-4.313068	vine	-0.09152476
-4.313068	creators	-0.09152476
-4.7772894	value	-0.09152476
-4.313068	deep	-0.19994181
-4.313068	research	-0.09152476
-3.88451	keep	-0.14786473
-3.2631807	doing	-0.17094223
-3.739101	part	-0.13170488
-3.88451	share	-0.09152476
-4.7772894	learnings	-0.09152476
-4.104686	community	-0.09152476
-4.7772894	helps	-0.09152476
-4.313068	goal	-0.09152476
-3.2631807	making	-0.13170488
-3.3548098	place	-0.124744706
-4.313068	blown	-0.09152476
-3.3065832	away	-0.1278946
-4.7772894	accomplished	-0.09152476
-4.7772894	example	-0.09152476
-4.7772894	magic	-0.09152476
-4.7772894	pony	-0.09152476
-4.7772894	technology	-0.09152476
-3.88451	small	-0.11984056
-4.7772894	mighty	-0.09152476
-4.104686	machine	-0.09152476
-4.7772894	london	-0.09152476
-3.3065832	email	-0.17103088
-3.3065832	senator	-0.124744706
-4.7772894	disarmhate	-0.09152476
-4.7772894	clickbait	-0.09152476
-4.7772894	live📡	-0.09152476
-4.7772894	photo	-0.09152476
-4.104686	bigger	-0.09152476
-3.15417	win	-0.23175326
-4.313068	likely	-0.09152476
-2.9946132	many	-0.13813867
-4.7772894	clevgsw	-0.09152476
-4.7772894	sugar	-0.09152476
-3.4090683	tax	-0.11115033
-4.7772894	generated	-0.09152476
-4.7772894	jazz	-0.09152476
-3.543461	mr.	-0.20083518
-4.7772894	p.c	-0.09152476
-4.7772894	mono	-0.09152476
-4.7772894	version	-0.09152476
-4.7772894	coltrane	-0.09152476
-4.7772894	“fans	-0.09152476
-3.6303566	create	-0.17103088
-3.88451	kanye	-0.13170488
-4.7772894	birthday”	-0.09152476
-4.313068	blocked	-0.09152476
-4.7772894	shots	-0.09152476
-4.7772894	sportswriter	-0.09152476
-4.7772894	dominates	-0.09152476
-4.313068	nyc	-0.19994181
-4.7772894	clean	-0.09152476
-3.4090683	think	-0.17441837
-4.7772894	أهنئ	-0.09152476
-4.7772894	كل	-0.09152476
-4.7772894	المسلمين	-0.09152476
-4.7772894	حول	-0.09152476
-4.7772894	العالم	-0.09152476
-4.7772894	بمناسبة	-0.09152476
-4.7772894	حلول	-0.09152476
-4.7772894	شهر	-0.09152476
-4.7772894	رمضان	-0.09152476
-4.7772894	المبارك	-0.09152476
-4.7772894	رمضان_كريم	-0.09152476
-4.313068	champions	-0.09152476
-4.7772894	desiigner	-0.09152476
-4.313068	travis	-0.09152476
-4.7772894	scott	-0.09152476
-2.9325085	big	-0.11499121
-4.7772894	sean	-0.09152476
-4.7772894	gucci	-0.09152476
-4.7772894	mane	-0.09152476
-4.7772894	celebrating	-0.09152476
-4.7772894	muhammad	-0.09152476
-4.313068	ali	-0.09152476
-4.7772894	crowdrise	-0.09152476
-4.313068	fundraiser	-0.09152476
-4.313068	greatest	-0.09152476
-4.7772894	fights	-0.09152476
-4.7772894	espn	-0.09152476
-3.6303566	others	-0.09152476
-4.7772894	rent	-0.09152476
-3.3548098	pay	-0.18045561
-3.88451	room	-0.091524795
-4.7772894	earth	-0.09152476
-4.7772894	rip	-0.09152476
-4.7772894	thegreatest	-0.09152476
-3.739101	robert	-0.13170488
-4.7772894	irwin	-0.09152476
-4.7772894	gswvcle	-0.09152476
-4.7772894	dubnation	-0.09152476
-3.739101	facts	-0.13170488
-4.7772894	reading	-0.09152476
-4.7772894	neural	-0.09152476
-4.104686	reveals	-0.09152476
-3.6303566	city	-0.11619851
-3.3065832	secret	-0.25040716
-4.7772894	patterns	-0.09152476
-4.313068	+	-0.09152476
-4.7772894	design	-0.09152476
-4.7772894	moderation	-0.09152476
-4.7772894	strengthinnumbers	-0.09152476
-4.7772894	boxer	-0.09152476
-4.7772894	remastered	-0.09152476
-4.104686	bob	-0.09152476
-4.7772894	dylan	-0.09152476
-3.739101	supreme	-0.3653386
-4.7772894	“tribe	-0.09152476
-4.7772894	homecoming	-0.09152476
-4.7772894	belonging	-0.09152476
-4.7772894	unabridged	-0.09152476
-4.7772894	moon	-0.09152476
-4.7772894	view	-0.09152476
-4.7772894	telescope	-0.09152476
-4.7772894	astronomy	-0.09152476
-4.313068	scene	-0.09152476
-3.6303566	plane	-0.09152476
-4.7772894	crash	-0.09152476
-4.7772894	hudson	-0.09152476
-4.7772894	river	-0.09152476
-4.7772894	clevtor	-0.09152476
-4.7772894	periscopes	-0.09152476
-4.313068	forever	-0.09152476
-4.7772894	okcvgsw	-0.09152476
-3.4710867	put	-0.09152476
-4.7772894	definitely	-0.09152476
-4.7772894	intentional	-0.09152476
-3.2237246	@	-0.09152476
-4.313068	emerged	-0.09152476
-4.7772894	hack	-0.09152476
-3.0942323	job	-0.117894314
-4.7772894	yeah	-0.09152476
-4.313068	hidden	-0.09152476
-4.313068	rules	-0.09152476
-4.7772894	unexpected	-0.09152476
-3.3065832	things	-0.10781718
-4.104686	fixing	-0.09152476
-4.7772894	*replies*	-0.09152476
-3.88451	still	-0.09152476
-4.7772894	narrowcasted	-0.09152476
-4.7772894	organic	-0.09152476
-4.7772894	mentions	-0.09152476
-4.104686	few	-0.1423589
-4.313068	changes	-0.09152476
-4.313068	easier	-0.09152476
-4.7772894	removing	-0.09152476
-4.7772894	characters	-0.09152476
-4.7772894	images	-0.09152476
-3.88451	check	-0.09152476
-4.7772894	appstore	-0.09152476
-4.7772894	store	-0.09152476
-4.313068	supposed	-0.19994181
-3.88451	three	-0.09152476
-4.7772894	okay	-0.09152476
-4.7772894	humanity	-0.09152476
-4.7772894	hunter	-0.09152476
-4.7772894	thompson	-0.09152476
-4.7772894	finding	-0.09152476
-4.104686	purpose	-0.09152476
-4.7772894	friend’s	-0.09152476
-4.313068	42	-0.09152476
-4.313068	project	-0.09152476
-4.7772894	peer	-0.09152476
-4.313068	based	-0.09152476
-4.7772894	bars	-0.09152476
-3.3065832	hard	-0.16658093
-4.313068	/	-0.09152476
-4.7772894	ai	-0.09152476
-4.7772894	gosh	-0.09152476
-4.7772894	darn	-0.09152476
-3.4710867	close	-0.11619851
-4.7772894	gswvokc	-0.09152476
-4.313068	chair	-0.09152476
-4.7772894	nominating/governance	-0.09152476
-4.313068	committee	-0.09152476
-4.313068	months	-0.09152476
-4.7772894	added	-0.09152476
-4.7772894	announcing	-0.09152476
-3.739101	lead	-0.11984056
-4.7772894	independent	-0.09152476
-4.104686	director	-0.09152476
-4.7772894	aiweiwei	-0.09152476
-4.7772894	singing	-0.09152476
-4.7772894	chapitre2	-0.09152476
-4.7772894	👋🏼🇫🇷	-0.09152476
-4.7772894	merci	-0.09152476
-4.7772894	pour	-0.09152476
-4.7772894	votre	-0.09152476
-4.7772894	presence	-0.09152476
-4.7772894	bientot	-0.09152476
-4.7772894	hosting	-0.09152476
-4.7772894	mother	-0.09152476
-4.313068	excited	-0.19994181
-4.313068	album	-0.19994181
-4.7772894	colour	-0.09152476
-4.7772894	♫	-0.09152476
-4.7772894	1976	-0.09152476
-2.8955479	%	-0.21551052
-3.2237246	know	-0.11424995
-3.543461	save	-0.1423589
-4.7772894	title	-0.09152476
-4.104686	sf	-0.09152476
-4.7772894	birds	-0.09152476
-4.7772894	tidal	-0.09152476
-4.7772894	itunes	-0.09152476
-4.104686	🏀	-0.11619851
-4.7772894	houvgsw	-0.09152476
-4.7772894	👟	-0.09152476
-4.7772894	hardrocklover	-0.09152476
-4.104686	prince	-0.09152476
-3.739101	mention	-0.124744706
-4.7772894	tunes	-0.09152476
-4.7772894	2hrs	-0.09152476
-4.7772894	beats1	-0.09152476
-4.7772894	peer-to-peer	-0.09152476
-4.313068	payment	-0.09152476
-3.543461	system	-0.12209718
-4.7772894	sweet	-0.09152476
-4.7772894	setup	-0.09152476
-3.3065832	stop	-0.12908176
-3.88451	wo	-0.4730369
-4.104686	leave	-0.09152476
-4.7772894	auto	-0.09152476
-4.7772894	updates	-0.09152476
-4.7772894	“draymond	-0.09152476
-4.104686	green	-0.09152476
-4.7772894	teaches	-0.09152476
-4.7772894	trash	-0.09152476
-4.7772894	gswvhou	-0.09152476
-2.5484593	she	-0.31696057
-4.313068	md	-0.09152476
-4.313068	china	-0.09152476
-3.6303566	stand	-0.24166927
-4.7772894	teamironman	-0.09152476
-4.7772894	tweetme	-0.09152476
-3.88451	apple	-0.09152476
-4.7772894	android	-0.09152476
-4.7772894	coachella	-0.09152476
-4.7772894	vendor	-0.09152476
-4.7772894	additions	-0.09152476
-3.4090683	soon	-0.20491548
-4.7772894	ones	-0.09152476
-3.6303566	bring	-0.1278946
-4.7772894	diversity	-0.09152476
-4.313068	represent	-0.09152476
-4.313068	matters	-0.09152476
-4.7772894	🍿🏀🏀👋🏼	-0.09152476
-4.7772894	gswvsas	-0.09152476
-4.313068	saving	-0.09152476
-4.7772894	bunch	-0.09152476
-4.313068	billion	-0.09152476
-4.313068	devices	-0.09152476
-3.88451	meet	-0.22681415
-4.7772894	correspondents	-0.09152476
-3.543461	talking	-0.2680802
-4.7772894	thirdmonthmania	-0.09152476
-4.7772894	“charles	-0.09152476
-4.7772894	barkley	-0.09152476
-4.7772894	urges	-0.09152476
-3.739101	nba	-0.091524795
-4.7772894	anti-lgbt	-0.09152476
-4.7772894	law”	-0.09152476
-4.313068	ahead	-0.09152476
-4.7772894	cs229	-0.09152476
-4.7772894	stanford	-0.09152476
-4.7772894	exploring	-0.09152476
-4.7772894	itunesu	-0.09152476
-3.739101	private	-0.09152476
-4.104686	conversation	-0.09152476
-4.104686	quickly	-0.09152476
-4.7772894	✉️	-0.09152476
-3.543461	next	-0.09152476
-4.7772894	❤️	-0.09152476
-4.104686	20	-0.1423589
-4.104686	weeks	-0.09152476
-4.7772894	parental	-0.09152476
-3.739101	thursday	-0.17598495
-3.3548098	night	-0.1400945
-4.104686	games	-0.09152476
-4.7772894	twitter…right	-0.09152476
-4.7772894	🏈🐦📺	-0.09152476
-4.7772894	hmmmmmmmmmm	-0.09152476
-4.7772894	ios	-0.09152476
-4.7772894	9.3	-0.09152476
-4.7772894	amazingly	-0.09152476
-4.7772894	convenient	-0.09152476
-4.7772894	insane	-0.09152476
-4.7772894	nationalchampionship	-0.09152476
-4.7772894	🏀twitter	-0.09152476
-4.7772894	ncaachampionship	-0.09152476
-4.7772894	minute	-0.09152476
-4.7772894	“live	-0.09152476
-4.7772894	villanova	-0.09152476
-4.313068	vs.	-0.09152476
-4.7772894	“elon	-0.09152476
-4.7772894	musk	-0.09152476
-4.7772894	shares	-0.09152476
-4.104686	details	-0.09152476
-4.7772894	model	-0.09152476
-4.7772894	3”	-0.09152476
-4.7772894	ride	-0.09152476
-4.7772894	model3	-0.09152476
-4.7772894	developers	-0.09152476
-3.88451	build	-0.124744706
-4.7772894	custom	-0.09152476
-3.88451	including	-0.09152476
-4.7772894	waaaay	-0.09152476
-4.104686	late	-0.09152476
-4.7772894	slime	-0.09152476
-4.313068	season	-0.09152476
-4.104686	3	-0.09152476
-4.7772894	api	-0.09152476
-3.739101	online	-0.091524795
-4.7772894	apps	-0.09152476
-4.313068	offline	-0.09152476
-4.7772894	nope	-0.09152476
-4.7772894	wasatgsw	-0.09152476
-3.543461	year	-0.1364078
-3.6303566	friends	-0.09152476
-4.7772894	nominate	-0.09152476
-4.7772894	performed	-0.09152476
-4.7772894	extraordinary	-0.09152476
-4.7772894	kindness	-0.09152476
-4.7772894	hannah	-0.09152476
-4.7772894	a1	-0.09152476
-3.739101	since	-0.091524795
-4.7772894	codecamp	-0.09152476
-4.7772894	🎧	-0.09152476
-4.7772894	tweetjohn	-0.09152476
-4.7772894	broadcasts	-0.09152476
-4.7772894	offers	-0.09152476
-4.7772894	flexible	-0.09152476
-4.7772894	loans	-0.09152476
-4.313068	bank	-0.09152476
-4.104686	visit	-0.16071774
-4.7772894	senseless	-0.09152476
-4.7772894	heartbreaking	-0.09152476
-4.7772894	lahoreblast	-0.09152476
-4.7772894	pakistan	-0.09152476
-4.7772894	gereng	-0.09152476
-4.7772894	🚲✌🏼️	-0.09152476
-4.7772894	yearone	-0.09152476
-4.104686	asking	-0.09152476
-4.7772894	striking	-0.09152476
-4.104686	positive	-0.09152476
-3.88451	impact	-0.09152476
-4.7772894	⚡️⚡️⚡️	-0.09152476
-4.7772894	…twitter	-0.09152476
-4.7772894	democratizes	-0.09152476
-4.7772894	shakes	-0.09152476
-4.7772894	genteel	-0.09152476
-4.7772894	inertia	-0.09152476
-4.7772894	modern	-0.09152476
-3.4090683	political	-0.09152476
-4.7772894	dialogue	-0.09152476
-3.3548098	worse	-0.27438956
-4.7772894	hearts	-0.09152476
-4.7772894	belgium	-0.09152476
-3.88451	victims	-0.24437949
-3.4090683	terrible	-0.10932905
-3.543461	families	-0.13170488
-4.7772894	ikwilhelpen	-0.09152476
-4.7772894	🇧🇪	-0.09152476
-3.3065832	massive	-0.11470764
-4.7772894	rainbow	-0.09152476
-4.7772894	lovetwitter	-0.09152476
-4.7772894	satya	-0.09152476
-4.7772894	blacktwitter	-0.09152476
-4.7772894	human-written	-0.09152476
-4.313068	sent	-0.09152476
-4.7772894	onward	-0.09152476
-4.7772894	marks	-0.09152476
-3.6303566	created	-0.09152476
-4.313068	chris	-0.09152476
-4.7772894	lot	-0.09152476
-4.313068	gratitude	-0.09152476
-4.104686	journalists	-0.09152476
-4.104686	especially	-0.09152476
-4.313068	citizen	-0.09152476
-4.313068	creating	-0.09152476
-4.7772894	defining	-0.09152476
-4.313068	stance	-0.09152476
-4.7772894	built	-0.09152476
-4.7772894	smartest	-0.09152476
-4.7772894	creative	-0.09152476
-4.313068	teams	-0.09152476
-4.313068	understand	-0.09152476
-4.7772894	discovering	-0.09152476
-4.104686	supporter	-0.09152476
-4.7772894	generous	-0.09152476
-4.313068	voice	-0.16071774
-4.104686	turning	-0.09152476
-3.1875563	into	-0.17061359
-4.7772894	scalable	-0.09152476
-3.739101	care	-0.091524795
-4.313068	throughout	-0.09152476
-3.88451	start	-0.09152476
-4.7772894	ff	-0.09152476
-4.7772894	sorcery	-0.09152476
-4.7772894	needed	-0.09152476
-3.88451	2008	-0.1423589
-4.7772894	creativity	-0.09152476
-4.313068	curiosity	-0.09152476
-4.7772894	trends	-0.09152476
-4.7772894	summize	-0.09152476
-4.313068	introducing	-0.09152476
-4.7772894	rt	-0.09152476
-4.7772894	retweet	-0.09152476
-4.7772894	giving	-0.09152476
-4.7772894	machines	-0.09152476
-4.7772894	systems	-0.09152476
-3.88451	scale	-0.09152476
-4.313068	engineering	-0.09152476
-4.313068	commitment	-0.09152476
-4.7772894	coolest	-0.09152476
-4.313068	scientist	-0.09152476
-4.313068	bringing	-0.09152476
-4.313068	pair	-0.19994181
-4.7772894	programming	-0.09152476
-4.7772894	agility	-0.09152476
-4.7772894	org	-0.09152476
-4.313068	hashtag	-0.09152476
-3.88451	name	-0.09152476
-4.104686	brother	-0.09152476
-3.88451	code	-0.1423589
-3.88451	helped	-0.09152476
-4.7772894	tab	-0.09152476
-4.7772894	enabling	-0.09152476
-4.7772894	mentorship	-0.09152476
-4.7772894	engineers	-0.09152476
-4.313068	odeo	-0.09152476
-4.7772894	activism	-0.09152476
-4.7772894	brilliance	-0.09152476
-4.7772894	organization	-0.09152476
-4.104686	early	-0.09152476
-3.4710867	real	-0.09152476
-4.7772894	jokes	-0.09152476
-3.739101	official	-0.091524795
-4.7772894	employee	-0.09152476
-4.7772894	inc	-0.09152476
-4.7772894	reminders	-0.09152476
-4.104686	mentor	-0.09152476
-4.7772894	constantly	-0.09152476
-4.7772894	encouraging	-0.09152476
-4.313068	focus	-0.09152476
-3.88451	driving	-0.09152476
-4.7772894	humor	-0.09152476
-4.7772894	inspiration	-0.09152476
-4.7772894	principles	-0.09152476
-4.313068	brand	-0.09152476
-4.7772894	culture	-0.09152476
-4.104686	writing	-0.09152476
-4.313068	majority	-0.09152476
-4.7772894	hamburg	-0.09152476
-4.313068	drive	-0.09152476
-4.7772894	passion	-0.09152476
-4.7772894	naming	-0.09152476
-4.313068	luck	-0.09152476
-4.7772894	10th	-0.09152476
-4.7772894	tm	-0.09152476
-4.104686	ready	-0.2684286
-4.7772894	“washington	-0.09152476
-4.313068	scotus	-0.09152476
-3.3065832	fight	-0.23507749
-4.7772894	twitter”	-0.09152476
-4.7772894	oppose	-0.09152476
-4.104686	forms	-0.16071774
-4.7772894	veto	-0.09152476
-4.7772894	757.	-0.09152476
-3.4090683	proud	-0.44451985
-4.7772894	lgbtqally	-0.09152476
-3.543461	using	-0.18723938
-4.7772894	iconic	-0.09152476
-4.7772894	pigeons	-0.09152476
-4.7772894	wearing	-0.09152476
-4.7772894	tiny	-0.09152476
-4.7772894	backpacks	-0.09152476
-3.543461	air	-0.37294218
-4.7772894	pollution	-0.09152476
-4.7772894	toasted	-0.09152476
-4.7772894	saint	-0.09152476
-4.7772894	150	-0.09152476
-4.313068	growing	-0.09152476
-4.7772894	recommends	-0.09152476
-3.739101	8	-0.13170488
-4.7772894	equivalent	-0.09152476
-4.313068	sleeping	-0.09152476
-4.7772894	richard	-0.09152476
-4.7772894	linklater	-0.09152476
-4.7772894	baseball	-0.09152476
-4.313068	college	-0.09152476
-4.7772894	film	-0.09152476
-4.7772894	29-time	-0.09152476
-4.7772894	sec	-0.09152476
-4.7772894	tournament	-0.09152476
-4.7772894	jada	-0.09152476
-4.7772894	imani	-0.09152476
-4.104686	m	-0.09152476
-4.7772894	treasures	-0.09152476
-4.7772894	buildgala	-0.09152476
-4.7772894	boulettes	-0.09152476
-4.7772894	larder	-0.09152476
-4.313068	hell	-0.09152476
-4.7772894	talmbout	-0.09152476
-4.7772894	instrumental	-0.09152476
-4.7772894	wondaland	-0.09152476
-4.313068	records	-0.09152476
-4.7772894	strange	-0.09152476
-4.7772894	surprising	-0.09152476
-3.3065832	history	-0.22731005
-4.7772894	daylight	-0.09152476
-4.7772894	geographic	-0.09152476
-4.7772894	block	-0.09152476
-4.313068	el-p	-0.09152476
-4.7772894	remix	-0.09152476
-4.7772894	redux	-0.09152476
-4.104686	camp	-0.09152476
-4.7772894	nou	-0.09152476
-4.313068	storms	-0.09152476
-4.7772894	gauge	-0.09152476
-4.313068	damage	-0.09152476
-4.7772894	disasters	-0.09152476
-4.7772894	study	-0.09152476
-3.3548098	says	-0.09152476
-4.7772894	wsj	-0.09152476
-4.7772894	pleasure	-0.09152476
-2.9522395	america	-0.22919947
-4.7772894	classrooms	-0.09152476
-4.313068	deserve	-0.09152476
-4.104686	funding	-0.09152476
-4.7772894	projects	-0.09152476
-3.739101	home	-0.09152476
-3.2631807	state	-0.2333182
-4.104686	missouri	-0.16071774
-3.3065832	join	-0.35124686
-4.7772894	bestschoolday	-0.09152476
-4.7772894	ha	-0.09152476
-4.104686	forward	-0.34809813
-4.7772894	phenomenal	-0.09152476
-4.7772894	iwd2016	-0.09152476
-4.7772894	sheinspiresme	-0.09152476
-4.7772894	gswvorl	-0.09152476
-4.7772894	🇦🇺	-0.09152476
-4.7772894	02	-0.09152476
-4.7772894	06.23.2014.	-0.09152476
-3.739101	curry	-0.11984056
-4.7772894	cheat	-0.09152476
-4.7772894	2k	-0.09152476
-4.7772894	lalvgsw	-0.09152476
-4.7772894	everywhere	-0.09152476
-4.7772894	bananas	-0.09152476
-4.7772894	boys	-0.09152476
-4.313068	basketball	-0.09152476
-4.313068	goes	-0.09152476
-4.313068	4th	-0.09152476
-4.7772894	ot	-0.09152476
-4.7772894	full-court	-0.09152476
-3.543461	shot	-0.1423589
-3.3548098	won	-0.26786587
-4.7772894	buzzer-beating	-0.09152476
-4.7772894	01	-0.09152476
-4.7772894	l	-0.09152476
-4.7772894	08.19.2014.	-0.09152476
-3.2631807	look	-0.19131243
-3.543461	winning	-0.1423589
-3.739101	may	-0.13170488
-4.104686	t	-0.09152476
-4.7772894	wifi	-0.09152476
-4.104686	spirit	-0.09152476
-4.7772894	broadly	-0.09152476
-4.313068	companies	-0.19994181
-4.7772894	+19	-0.09152476
-4.104686	lift	-0.16071774
-4.7772894	satisfaction	-0.09152476
-3.543461	seen	-0.18367732
-4.7772894	fastest	-0.09152476
-4.313068	ways	-0.09152476
-4.313068	huge	-0.09152476
-4.313068	provide	-0.09152476
-4.7772894	dms	-0.09152476
-4.7772894	seemingly	-0.09152476
-4.7772894	tormented	-0.09152476
-4.104686	inner	-0.16071774
-4.7772894	monologue	-0.09152476
-4.7772894	park	-0.09152476
-4.7772894	cpt	-0.09152476
-4.7772894	watts	-0.09152476
-4.313068	5	-0.09152476
-3.88451	line	-0.09152476
-4.7772894	stephgonnasteph	-0.09152476
-4.7772894	pop	-0.09152476
-3.1875563	does	-0.44997948
-4.7772894	5-point	-0.09152476
-3.543461	via	-0.24166927
-4.7772894	option	-0.09152476
-3.4090683	some	-0.15392254
-3.88451	cash	-0.091524795
-4.7772894	instantly	-0.09152476
-4.7772894	debit	-0.09152476
-4.7772894	whenever	-0.09152476
-4.7772894	spacex	-0.09152476
-4.7772894	launch	-0.09152476
-3.3065832	watching	-0.17089161
-4.7772894	oscars	-0.09152476
-4.7772894	justiceforflint	-0.09152476
-4.7772894	africatv	-0.09152476
-4.7772894	launch/landing	-0.09152476
-4.7772894	kids	-0.09152476
-4.104686	sell	-0.09152476
-4.7772894	lemonade	-0.09152476
-2.9729097	he	-0.1881885
-4.7772894	starts	-0.09152476
-4.7772894	chain	-0.09152476
-4.7772894	york	-0.09152476
-3.3548098	times	-0.09152476
-4.7772894	lede	-0.09152476
-4.313068	steph	-0.19994181
-4.7772894	ruthless	-0.09152476
-4.7772894	hyper-coordinated	-0.09152476
-4.7772894	cyborg	-0.09152476
-4.7772894	designed	-0.09152476
-4.7772894	wreak	-0.09152476
-4.7772894	havoc	-0.09152476
-3.6303566	long	-0.09152476
-4.7772894	distances	-0.09152476
-4.7772894	🤖🏀☄	-0.09152476
-4.313068	headline	-0.09152476
-4.7772894	uncorks	-0.09152476
-4.7772894	game-winner	-0.09152476
-4.7772894	sets	-0.09152476
-3.6303566	record	-0.11619851
-4.7772894	crushes	-0.09152476
-4.7772894	thunder’s	-0.09152476
-4.7772894	soul	-0.09152476
-4.7772894	peers	-0.09152476
-4.7772894	awe	-0.09152476
-4.7772894	nbatwitter	-0.09152476
-4.7772894	visual	-0.09152476
-4.7772894	gswatokc	-0.09152476
-4.7772894	weezy	-0.09152476
-4.7772894	meets	-0.09152476
-3.2631807	ever	-0.11984056
-4.7772894	stephencurry	-0.09152476
-4.7772894	february	-0.09152476
-4.7772894	halfway	-0.09152476
-4.313068	tied	-0.09152476
-4.7772894	lupita	-0.09152476
-4.7772894	nyong’o	-0.09152476
-4.7772894	trevor	-0.09152476
-4.7772894	noah	-0.09152476
-4.7772894	meaningful	-0.09152476
-4.7772894	roles	-0.09152476
-4.7772894	⚽️	-0.09152476
-4.7772894	premier	-0.09152476
-4.313068	league	-0.09152476
-4.313068	upcoming	-0.09152476
-4.7772894	tapping/clicking	-0.09152476
-4.7772894	bpl	-0.09152476
-4.7772894	tip	-0.09152476
-4.7772894	fml	-0.09152476
-4.7772894	vines	-0.09152476
-4.7772894	🔥	-0.09152476
-4.7772894	listen/watch	-0.09152476
-4.7772894	trapcover	-0.09152476
-4.7772894	doc	-0.09152476
-4.7772894	rivers	-0.09152476
-4.7772894	pregame	-0.09152476
-3.739101	press	-0.11619851
-4.104686	conference	-0.09152476
-4.7772894	clippers	-0.09152476
-4.7772894	nuggets	-0.09152476
-4.7772894	◻️	-0.09152476
-4.7772894	newest	-0.09152476
-4.313068	ruth	-0.09152476
-4.7772894	simmons	-0.09152476
-4.104686	joined	-0.09152476
-3.3548098	run	-0.18045561
-4.7772894	winners	-0.09152476
-4.313068	fortunately	-0.09152476
-4.7772894	archive	-0.09152476
-3.88451	continues	-0.4730369
-4.7772894	developer	-0.09152476
-4.7772894	tools	-0.09152476
-4.104686	delivered	-0.09152476
-4.7772894	settings	-0.09152476
-4.7772894	personalized	-0.09152476
-4.7772894	welcoming	-0.09152476
-4.104686	vp	-0.09152476
-4.7772894	communications	-0.09152476
-4.7772894	warmup	-0.09152476
-3.2631807	him	-0.15548128
-4.7772894	🎂	-0.09152476
-3.88451	issue	-0.09152476
-3.4710867	give	-0.1133867
-4.7772894	nps/csat	-0.09152476
-3.4710867	ratings	-0.16115285
-4.7772894	visiting	-0.09152476
-2.8955479	president	-0.30869266
-4.7772894	madam	-0.09152476
-4.7772894	lady	-0.09152476
-4.313068	works	-0.09152476
-4.7772894	copy	-0.09152476
-4.7772894	pasting	-0.09152476
-4.7772894	gifs	-0.09152476
-4.7772894	tweetbox	-0.09152476
-3.739101	states	-0.1505871
-3.88451	king	-0.09152476
-3.88451	hit	-0.22681415
-4.7772894	grammy	-0.09152476
-4.7772894	tl	-0.09152476
-3.739101	zero	-0.091524795
-4.104686	reno	-0.16071774
-4.104686	nevada	-0.18646966
-3.2631807	nothing	-0.16108032
-4.7772894	quest	-0.09152476
-3.88451	safe	-0.09152476
-3.0942323	again	-0.3768271
-4.7772894	americafirst…	-0.09152476
-2.8299053	tomorrow	-0.40590706
-4.7772894	minnesota	-0.09152476
-4.104686	•	-0.09152476
-4.7772894	2pm	-0.09152476
-3.6303566	michigan	-0.20083518
-3.6303566	6pm	-0.1701967
-3.2631807	virginia	-0.22461446
-4.7772894	9:30p…	-0.09152476
-4.7772894	draintheswamp	-0.09152476
-2.7225058	clinton	-0.17356533
-4.104686	aides	-0.09152476
-4.7772894	bemoan	-0.09152476
-3.0174584	campaign	-0.1706625
-4.7772894	‘all	-0.09152476
-4.7772894	tactics	-0.09152476
-4.313068	’	-0.09152476
-4.313068	vision	-0.09152476
-4.7772894	‘must	-0.09152476
-4.7772894	immediately’	-0.09152476
-4.104686	charity	-0.09152476
-4.7772894	lawyer	-0.09152476
-3.6303566	told	-0.09152476
-4.7772894	execs	-0.09152476
-4.313068	breaking	-0.09152476
-3.2237246	law	-0.46666786
-4.313068	coach	-0.09152476
-3.4710867	mike	-0.22218339
-4.7772894	ditka-	-0.09152476
-4.313068	guy	-0.09152476
-4.313068	8pme	-0.09152476
-4.7772894	wattersworld	-0.09152476
-4.313068	wilmington	-0.19994181
-4.313068	carolina	-0.10545193
-3.2237246	days	-0.1729296
-4.313068	entire	-0.09152476
-3.6303566	…	-0.64912814
-3.4090683	incredible	-0.21805382
-3.88451	tampa	-0.22681415
-3.3548098	florida	-0.25983393
-4.7772894	icymi-	-0.09152476
-4.104686	denver	-0.1423589
-3.4090683	colorado	-0.18335
-4.7772894	9:30pm	-0.09152476
-4.7772894	new-	-0.09152476
-4.313068	scranton	-0.19994181
-3.4710867	pennsylvania	-0.2035534
-4.7772894	5:30pm	-0.09152476
-4.313068	hershey	-0.19994181
-4.7772894	maga	-0.09152476
-4.7772894	rallyforriley	-0.09152476
-4.313068	icymi	-0.1423589
-4.7772894	here…	-0.09152476
-4.7772894	tickets	-0.09152476
-4.7772894	makeamericagreatagain	-0.09152476
-3.4710867	corrupt	-0.21805382
-4.313068	force	-0.09152476
-4.313068	enough	-0.09152476
-4.7772894	us.…	-0.09152476
-3.3065832	ohio	-0.17187169
-4.104686	replace	-0.1423589
-3.2631807	obamacare	-0.22430135
-4.313068	healthcare	-0.09152476
-3.6303566	family	-0.09152476
-3.739101	united	-0.13170488
-4.7772894	straightening	-0.09152476
-3.88451	trying	-0.3653386
-4.104686	elect	-0.09152476
-4.7772894	'ice	-0.09152476
-3.6303566	officers	-0.09152476
-4.313068	warn	-0.09152476
-3.543461	immigration	-0.10781718
-3.3548098	plan	-0.16819385
-4.7772894	unleash	-0.09152476
-4.7772894	gangs	-0.09152476
-4.7772894	cartels	-0.09152476
-3.88451	drug	-0.09152476
-3.6303566	violence	-0.124744706
-4.7772894	nationwide'…	-0.09152476
-4.313068	nh	-0.09152476
-3.6303566	end	-0.1423589
-3.4090683	illegal	-0.2679409
-4.313068	drugs	-0.09152476
-4.313068	deport	-0.09152476
-3.543461	criminal	-0.15013213
-4.7772894	aliens	-0.09152476
-4.7772894	watc…	-0.09152476
-4.7772894	‘definitely’	-0.09152476
-4.7772894	releasing	-0.09152476
-3.739101	hrc	-0.124744706
-3.2237246	emails	-0.18646954
-3.4710867	justice	-0.17103088
-4.7772894	4pm	-0.09152476
-4.7772894	tomorrow-	-0.09152476
-4.7772894	10am	-0.09152476
-4.7772894	challenge	-0.09152476
-4.313068	dream	-0.09152476
-4.313068	reach	-0.09152476
-4.7772894	selma	-0.09152476
-4.7772894	4:00pm	-0.09152476
-4.7772894	crookedhillary	-0.09152476
-4.313068	unfit	-0.19994181
-4.313068	serve	-0.09152476
-4.7772894	concord	-0.09152476
-3.88451	d.c.	-0.124744706
-4.7772894	t…	-0.09152476
-3.6303566	beautiful	-0.1133867
-4.104686	wife	-0.16071774
-3.543461	melania	-0.17103088
-3.88451	speak	-0.09152476
-2.8299053	very	-0.18495087
-4.7772894	proud.…	-0.09152476
-4.7772894	mia	-0.09152476
-4.313068	campaigning	-0.09152476
-3.739101	instead	-0.44451985
-2.8454094	jobs	-0.34731066
-3.739101	total	-0.1351614
-3.3548098	disaster	-0.27279195
-3.4090683	wants	-0.37722462
-4.313068	expensive	-0.09152476
-3.6303566	repeal	-0.33302122
-3.739101	speaking	-0.13170488
-4.104686	afternoon	-0.091524795
-3.88451	exciting	-0.124744706
-3.543461	crowds	-0.11619851
-4.7772894	arlene	-0.09152476
-4.7772894	imwithyou	-0.09152476
-4.7772894	6days	-0.09152476
-4.7772894	orlando	-0.09152476
-4.313068	six	-0.09152476
-4.104686	delivering	-0.09152476
-4.7772894	forgotten	-0.09152476
-4.7772894	ch…	-0.09152476
-4.7772894	decades	-0.09152476
-3.2631807	lies	-0.2962947
-3.739101	scandal	-0.18367732
-2.5815554	crooked	-0.67908496
-3.739101	corruption	-0.22681415
-4.7772894	closing	-0.09152476
-4.7772894	fumed	-0.09152476
-4.7772894	surrogate	-0.09152476
-3.1875563	supporters	-0.20914355
-4.313068	planned	-0.09152476
-4.313068	betray	-0.09152476
-4.313068	labor	-0.09152476
-3.6303566	tpp	-0.124744706
-4.7772894	post-election	-0.09152476
-4.313068	pays	-0.09152476
-3.88451	high	-0.091524795
-4.7772894	places-	-0.09152476
-4.313068	department	-0.124744706
-4.7772894	clearly	-0.09152476
-4.7772894	clintons	-0.09152476
-3.88451	miami	-0.13170488
-4.7772894	white…	-0.09152476
-4.313068	praying	-0.19994181
-3.543461	iowa	-0.23092619
-4.7772894	ambushed	-0.09152476
-4.7772894	evangelical	-0.09152476
-4.7772894	trumptower	-0.09152476
-4.7772894	billygraham	-0.09152476
-3.88451	grand	-0.19994181
-4.313068	daughter	-0.09152476
-4.7772894	supportstrump	-0.09152476
-4.7772894	cissy	-0.09152476
-4.313068	graham	-0.09152476
-4.7772894	lynch	-0.09152476
-3.88451	deleted	-0.28265977
-3.88451	33,000	-0.09152476
-3.2237246	e-mails	-0.20511428
-4.7772894	subpoenaed	-0.09152476
-3.88451	guilty	-0.1423589
-3.3548098	rigged	-0.21200636
-3.88451	am	-0.09843253
-4.7772894	costs	-0.09152476
-4.7772894	triple	-0.09152476
-4.7772894	mistake	-0.09152476
-4.7772894	miami•12pm	-0.09152476
-4.7772894	orlando•4pm	-0.09152476
-4.7772894	pensacola•7p…	-0.09152476
-3.739101	wisconsin	-0.1364078
-3.2237246	governor	-0.5790604
-3.88451	wikileaks	-0.09152476
-4.7772894	reveal	-0.09152476
-4.104686	podesta	-0.09152476
-4.7772894	urging	-0.09152476
-4.7772894	'dump	-0.09152476
-4.7772894	'podesta	-0.09152476
-4.313068	urged	-0.09152476
-4.7772894	hand	-0.09152476
-4.104686	server	-0.09152476
-4.7772894	mika	-0.09152476
-4.7772894	brzezinski	-0.09152476
-3.88451	dem	-0.09152476
-4.7772894	criticism	-0.09152476
-4.104686	comey	-0.09152476
-4.7772894	reinforcing	-0.09152476
-4.7772894	‘there’s	-0.09152476
-4.7772894	there'	-0.09152476
-4.313068	advisers	-0.09152476
-3.6303566	wanted	-0.30599537
-2.4753141	her	-0.15949512
-4.7772894	avoid	-0.09152476
-4.313068	supporting	-0.09152476
-3.739101	israel	-0.11984056
-3.543461	democrats	-0.1278946
-2.6463373	trump	-0.218612
-4.313068	promises	-0.09152476
-3.3065832	special	-0.1278946
-4.7772894	session	-0.09152476
-4.7772894	'kept	-0.09152476
-4.313068	jail	-0.09152476
-4.313068	doj	-0.09152476
-4.104686	involved	-0.34809813
-4.7772894	probe	-0.09152476
-4.7772894	represented	-0.09152476
-4.313068	chairman	-0.09152476
-4.7772894	congressional	-0.09152476
-4.7772894	seat	-0.09152476
-4.7772894	california	-0.09152476
-4.313068	valley	-0.09152476
-4.7772894	forge	-0.09152476
-3.739101	report	-0.09152476
-3.4090683	questions	-0.10932905
-4.104686	donna	-0.34809813
-4.7772894	brazile	-0.09152476
-4.104686	front	-0.09152476
-4.104686	page	-0.09152476
-3.0942323	should	-0.21171379
-4.7772894	subpoena	-0.09152476
-4.104686	leading	-0.1423589
-4.7772894	/user	-0.09152476
-2.8781838	poll	-0.23125105
-4.7772894	46	-0.09152476
-4.7772894	45.	-0.09152476
-4.104686	gone	-0.09152476
-3.739101	12	-0.091524795
-4.7772894	mostly	-0.09152476
-4.7772894	blow-up	-0.09152476
-3.1875563	way	-0.21805382
-4.313068	handling	-0.09152476
-3.739101	e-mail	-0.09152476
-3.88451	case	-0.09152476
-3.6303566	mess	-0.16071779
-2.7597384	bad	-0.26152527
-4.104686	judgement	-0.091524795
-4.104686	warren	-0.2684286
-4.7772894	drain	-0.09152476
-4.313068	swamp	-0.09152476
-4.7772894	obamacarefail	-0.09152476
-4.7772894	hillarycarefail	-0.09152476
-4.313068	rapids	-0.16071774
-4.104686	25	-0.09152476
-4.7772894	million+	-0.09152476
-4.104686	raised	-0.09152476
-3.739101	set	-0.091524795
-4.313068	contribute	-0.09152476
-4.7772894	gt	-0.09152476
-4.7772894	legendary	-0.09152476
-4.313068	bobby	-0.09152476
-4.7772894	knight	-0.09152476
-4.7772894	900+	-0.09152476
-4.313068	wins	-0.09152476
-4.7772894	championships	-0.09152476
-4.7772894	gold	-0.09152476
-4.7772894	medal	-0.09152476
-4.7772894	introducing…	-0.09152476
-4.7772894	'hillary	-0.09152476
-4.7772894	favors	-0.09152476
-4.7772894	morocco	-0.09152476
-4.7772894	resulted	-0.09152476
-4.7772894	28	-0.09152476
-4.104686	foundation	-0.09152476
-4.313068	12pm	-0.09152476
-4.104686	3pm	-0.09152476
-3.0174584	rally	-0.30565184
-4.313068	albuquerque	-0.19994181
-3.543461	mexico	-0.16819385
-3.6303566	evening	-0.27627718
-4.313068	mr.trump	-0.09152476
-3.4710867	rallies	-0.15328084
-4.7772894	lion-hearted	-0.09152476
-4.7772894	warrior	-0.09152476
-4.7772894	inspires	-0.09152476
-4.104686	greeley	-0.34809813
-4.7772894	co	-0.09152476
-4.313068	means	-0.09152476
-4.7772894	restoring	-0.09152476
-4.313068	honesty	-0.09152476
-4.104686	govt	-0.1423589
-4.313068	las	-0.19994181
-4.7772894	vegas	-0.09152476
-4.313068	nevada-	-0.1423589
-4.313068	departing	-0.13170488
-4.104686	mi	-0.09152476
-4.7772894	noon	-0.09152476
-4.7772894	google	-0.09152476
-3.88451	facebook	-0.091524795
-4.7772894	burying	-0.09152476
-3.3065832	fbi	-0.102961496
-4.104686	investigation	-0.09152476
-3.4710867	dishonest	-0.19358441
-3.0174584	media	-0.16079545
-3.6303566	dems	-0.09152476
-4.313068	loved	-0.09152476
-4.104686	praised	-0.09152476
-4.104686	ago	-0.17598495
-4.7772894	original	-0.09152476
-4.313068	evidence	-0.09152476
-4.7772894	overwhelming	-0.09152476
-4.7772894	delayed	-0.09152476
-3.15417	polls	-0.16716987
-4.104686	announcement	-0.09152476
-3.739101	friday	-0.17103088
-3.3548098	arizona	-0.19036405
-4.104686	phoenix	-0.2684286
-4.104686	powerful	-0.09152476
-4.313068	imagine	-0.09152476
-4.7772894	accomplish	-0.09152476
-4.7772894	100…	-0.09152476
-4.7772894	tower	-0.09152476
-4.313068	golden	-0.09152476
-4.7772894	co.	-0.09152476
-3.88451	unbelievable	-0.11619851
-4.7772894	overflow	-0.09152476
-4.7772894	nv-	-0.09152476
-4.7772894	11a	-0.09152476
-4.7772894	co-	-0.09152476
-4.7772894	4p	-0.09152476
-4.7772894	nm-	-0.09152476
-4.7772894	7p	-0.09152476
-4.104686	mind	-0.09152476
-3.543461	donaldtrump	-0.09152476
-4.7772894	philrobertson	-0.09152476
-4.7772894	duckdynasty	-0.09152476
-4.7772894	phil	-0.09152476
-3.739101	maine	-0.15013213
-4.7772894	hampshire	-0.09152476
-3.739101	to…	-0.5699469
-4.7772894	bombshell	-0.09152476
-4.7772894	reopening	-0.09152476
-3.543461	its	-0.09152476
-4.104686	hillaryclinton	-0.09152476
-4.7772894	discovery	-0.09152476
-4.7772894	landed	-0.09152476
-4.313068	scheme	-0.09152476
-4.7772894	oval	-0.09152476
-3.739101	office	-0.13170488
-4.7772894	neera	-0.09152476
-4.7772894	tanden	-0.09152476
-4.313068	adviser	-0.09152476
-4.7772894	“israel	-0.09152476
-4.7772894	depressing.”	-0.09152476
-4.7772894	inspiring	-0.09152476
-4.104686	heading	-0.2684286
-4.313068	known	-0.09152476
-4.313068	fire	-0.09152476
-3.739101	respect	-0.091524795
-4.313068	instincts	-0.09152476
-4.104686	cedar	-0.34809813
-4.104686	7pm	-0.11619851
-4.313068	outraged	-0.09152476
-4.7772894	hands	-0.09152476
-4.313068	r	-0.09152476
-4.313068	regard	-0.09152476
-3.88451	geneva	-0.4730369
-3.739101	elected	-0.19994181
-3.3548098	radical	-0.45570296
-4.313068	islamic	-0.09152476
-3.739101	terrorists	-0.091524795
-4.7772894	countr…	-0.09152476
-4.313068	ohio-	-0.13170488
-4.313068	3rd	-0.09152476
-4.7772894	americafirst	-0.09152476
-4.7772894	career	-0.09152476
-4.7772894	letting	-0.09152476
-4.7772894	hook	-0.09152476
-4.7772894	draintheswamp…	-0.09152476
-4.7772894	taste	-0.09152476
-4.7772894	116	-0.09152476
-3.739101	increase	-0.13170488
-4.313068	premiums	-0.09152476
-4.313068	interviewed	-0.13170488
-4.7772894	8:00	-0.09152476
-3.739101	p.m.	-0.2680802
-3.543461	enjoy	-0.5694586
-3.6303566	charlotte	-0.11984056
-4.104686	appreciate	-0.1423589
-3.88451	lets	-0.3113263
-4.7772894	maga…	-0.09152476
-4.104686	toledo	-0.34809813
-4.7772894	7:00pm	-0.09152476
-4.7772894	agree-	-0.09152476
-4.7772894	11/8.…	-0.09152476
-4.104686	springfield	-0.34809813
-4.7772894	votetrumppence16	-0.09152476
-4.313068	inside	-0.09152476
-4.7772894	‘bill	-0.09152476
-4.7772894	inc.’	-0.09152476
-4.104686	hacked	-0.09152476
-4.7772894	memo	-0.09152476
-4.7772894	intersection	-0.09152476
-4.313068	personal	-0.09152476
-4.313068	income	-0.09152476
-4.7772894	manchester	-0.09152476
-4.7772894	lisbon	-0.09152476
-4.104686	ia	-0.09152476
-4.104686	agree	-0.124744706
-3.4090683	w/	-0.091524795
-4.7772894	11/8	-0.09152476
-4.7772894	foundation’s	-0.09152476
-4.313068	fundraisers	-0.09152476
-4.7772894	pressed	-0.09152476
-4.313068	donors	-0.09152476
-4.7772894	steer	-0.09152476
-3.739101	former	-0.124744706
-4.7772894	ron	-0.09152476
-4.7772894	fournier	-0.09152476
-3.739101	used	-0.091524795
-4.7772894	circleofenrichment”	-0.09152476
-4.7772894	'wikileaks	-0.09152476
-4.7772894	drip-drop	-0.09152476
-4.7772894	releases	-0.09152476
-4.313068	prove	-0.09152476
-4.313068	nov.	-0.09152476
-4.7772894	deadline	-0.09152476
-4.7772894	dishonesty	-0.09152476
-4.7772894	scandals'	-0.09152476
-4.7772894	call-ins	-0.09152476
-4.7772894	flipping	-0.09152476
-4.7772894	booths	-0.09152476
-3.88451	texas	-0.18723938
-4.7772894	vote…	-0.09152476
-4.7772894	kinston	-0.09152476
-4.7772894	urban	-0.09152476
-4.7772894	renewal	-0.09152476
-4.7772894	sniper	-0.09152476
-3.2631807	while	-0.09152476
-4.7772894	surrounded	-0.09152476
-4.7772894	usss	-0.09152476
-4.313068	turned	-0.09152476
-3.543461	lie	-0.20083518
-4.7772894	fit	-0.09152476
-4.7772894	springfield-1pm	-0.09152476
-4.7772894	toledo-4pm	-0.09152476
-4.7772894	geneva-7pm…	-0.09152476
-4.104686	tallahassee	-0.16071774
-4.104686	sanford	-0.09152476
-4.7772894	trumppence16	-0.09152476
-4.7772894	afternoons	-0.09152476
-4.7772894	obamacareinthreewords	-0.09152476
-4.104686	met	-0.09152476
-3.739101	spent	-0.091524795
-4.7772894	remembrance	-0.09152476
-4.313068	everyday	-0.09152476
-4.7772894	ballots	-0.09152476
-3.0942323	--	-0.10231818
-4.7772894	'obama	-0.09152476
-4.313068	warned	-0.09152476
-4.313068	rates	-0.09152476
-4.7772894	explode	-0.09152476
-4.7772894	obamacarefailed	-0.09152476
-3.6303566	truly	-0.11984056
-3.739101	honored	-0.20113339
-4.7772894	receive	-0.09152476
-3.6303566	endorsement	-0.11984056
-4.104686	bay	-0.09152476
-4.7772894	pigs	-0.09152476
-3.739101	veterans	-0.13170488
-4.7772894	association	-0.09152476
-4.313068	beginning	-0.09152476
-4.7772894	key	-0.09152476
-4.313068	jump	-0.09152476
-4.7772894	skyrocket	-0.09152476
-3.88451	h	-0.1133867
-4.7772894	looms	-0.09152476
-3.2237246	crowd	-0.18524581
-4.104686	florida-	-0.091524795
-4.7772894	america…	-0.09152476
-4.7772894	bowden	-0.09152476
-4.7772894	intro	-0.09152476
-4.7772894	contract	-0.09152476
-4.7772894	accountability	-0.09152476
-4.104686	peter	-0.09152476
-4.7772894	navarro	-0.09152476
-4.313068	'trump	-0.091524795
-4.313068	bull	-0.09152476
-4.313068	bear	-0.09152476
-4.7772894	'democratic	-0.09152476
-4.313068	operative	-0.09152476
-3.88451	caught	-0.09152476
-4.7772894	personally	-0.09152476
-4.7772894	ordered	-0.09152476
-3.88451	'donald	-0.2684286
-4.7772894	duck	-0.09152476
-4.7772894	troll	-0.09152476
-4.7772894	broke	-0.09152476
-4.7772894	law'	-0.09152476
-4.7772894	augustine	-0.09152476
-3.123168	together	-0.26769373
-4.7772894	ag…	-0.09152476
-3.123168	had	-0.2255709
-4.313068	gun	-0.09152476
-4.7772894	planted	-0.09152476
-3.88451	town	-0.22681415
-4.7772894	hall	-0.09152476
-4.104686	leaving	-0.09152476
-4.7772894	palm	-0.09152476
-3.88451	beach	-0.4730369
-4.7772894	'the	-0.09152476
-4.7772894	questionable	-0.09152476
-3.4710867	foreign	-0.18723938
-4.7772894	donations'	-0.09152476
-4.7772894	paytoplay	-0.09152476
-4.313068	farmers	-0.09152476
-4.7772894	round	-0.09152476
-4.7772894	table	-0.09152476
-4.7772894	boynton	-0.09152476
-4.313068	vote-	-0.09152476
-4.104686	fl	-0.1423589
-3.543461	county	-0.32607213
-4.7772894	11/8/2016-	-0.09152476
-4.313068	rasmussen	-0.09152476
-4.7772894	43	-0.09152476
-4.313068	41	-0.19994181
-4.7772894	refusing	-0.09152476
-4.104686	fool	-0.09152476
-4.7772894	you-	-0.09152476
-3.739101	nobody	-0.124744706
-3.739101	asked	-0.091524795
-3.3065832	kaine	-0.10932905
-3.739101	horrible	-0.09152476
-4.7772894	views	-0.09152476
-4.7772894	emanated	-0.09152476
-4.7772894	catholics	-0.09152476
-4.7772894	tank	-0.09152476
-3.88451	major	-0.09152476
-3.88451	phony	-0.091524795
-3.88451	order	-0.09152476
-4.7772894	suppress	-0.09152476
-4.104686	came	-0.34809813
-4.313068	tape	-0.09152476
-4.7772894	syrians	-0.09152476
-4.313068	possible	-0.09152476
-3.739101	happen	-0.091524795
-3.0174584	isis	-0.240233
-4.7772894	'clinton	-0.09152476
-4.7772894	ally	-0.09152476
-4.7772894	aided	-0.09152476
-4.7772894	official’s	-0.09152476
-4.7772894	56	-0.09152476
-4.7772894	nations	-0.09152476
-4.7772894	anti-women	-0.09152476
-4.313068	gays	-0.09152476
-3.88451	naples	-0.2684286
-4.7772894	rally…	-0.09152476
-4.104686	mosul	-0.09152476
-4.104686	notice	-0.09152476
-3.543461	dumb	-0.11115033
-4.7772894	6:00pm	-0.09152476
-4.313068	prosecutor	-0.09152476
-4.7772894	‘they	-0.09152476
-4.104686	touch	-0.09152476
-4.104686	turns	-0.09152476
-4.7772894	molten	-0.09152476
-4.7772894	lead’	-0.09152476
-4.7772894	journal	-0.09152476
-4.313068	editorial	-0.09152476
-3.6303566	iran	-0.09152476
-4.7772894	fortune	-0.09152476
-3.739101	release	-0.13170488
-4.313068	certainly	-0.09152476
-3.88451	white	-0.2684286
-3.6303566	statement	-0.1423589
-4.7772894	mrs.	-0.09152476
-4.7772894	turnout	-0.09152476
-4.104686	tonight-	-0.09152476
-3.543461	cleveland	-0.27438956
-4.7772894	'clinton-kaine	-0.09152476
-4.104686	lied	-0.09152476
-4.104686	timing	-0.09152476
-4.7772894	veep	-0.09152476
-4.7772894	pick'	-0.09152476
-4.7772894	lays	-0.09152476
-3.4710867	policies	-0.11619851
-3.6303566	100	-0.44451985
-4.7772894	house'	-0.09152476
-4.7772894	'huma	-0.09152476
-4.7772894	abedin	-0.09152476
-4.313068	caused	-0.09152476
-4.7772894	problems'	-0.09152476
-4.7772894	arrived	-0.09152476
-4.7772894	'architect	-0.09152476
-4.7772894	failure'	-0.09152476
-4.7772894	ohio.…	-0.09152476
-3.4090683	government	-0.1278946
-4.7772894	introduced	-0.09152476
-3.6303566	economy	-0.09152476
-4.7772894	safe.…	-0.09152476
-3.739101	come	-0.11619851
-4.104686	broken	-0.09152476
-4.7772894	tops	-0.09152476
-4.104686	middle	-0.1423589
-4.7772894	east	-0.09152476
-4.7772894	forum’s	-0.09152476
-4.7772894	‘islamist	-0.09152476
-4.7772894	list'	-0.09152476
-4.313068	gettysburg	-0.09152476
-4.7772894	landing	-0.09152476
-4.7772894	makeamericagreatagain…	-0.09152476
-4.7772894	florida-tomorrow	-0.09152476
-3.88451	voted	-0.4730369
-4.7772894	☉	-0.09152476
-4.7772894	bordercontrol	-0.09152476
-4.7772894	trade…	-0.09152476
-4.7772894	dncleak	-0.09152476
-4.313068	landslide	-0.09152476
-3.739101	refuses	-0.5699469
-4.104686	biggest	-0.09152476
-4.7772894	happens	-0.09152476
-4.7772894	returned	-0.09152476
-4.7772894	newtown	-0.09152476
-4.7772894	11/8/16	-0.09152476
-4.7772894	sending	-0.09152476
-4.7772894	intelligence	-0.09152476
-4.104686	info	-0.09152476
-4.313068	podesta’s	-0.09152476
-4.7772894	‘unquestionably	-0.09152476
-4.7772894	opsec	-0.09152476
-4.7772894	violation’	-0.09152476
-4.7772894	camp’s	-0.09152476
-4.7772894	‘very	-0.09152476
-4.7772894	friendly	-0.09152476
-4.7772894	malleable	-0.09152476
-4.7772894	reporters’	-0.09152476
-4.7772894	shreds	-0.09152476
-4.313068	acting	-0.09152476
-3.543461	dnc	-0.091524795
-4.7772894	'people	-0.09152476
-4.313068	despair	-0.09152476
-4.7772894	{	-0.09152476
-4.7772894	}	-0.09152476
-3.543461	knows	-0.1364078
-4.7772894	harry	-0.09152476
-4.7772894	reid	-0.09152476
-4.7772894	smear	-0.09152476
-4.7772894	dept	-0.09152476
-4.7772894	watchdog'	-0.09152476
-4.7772894	ironic	-0.09152476
-4.7772894	2010	-0.09152476
-3.543461	video	-0.11984056
-4.7772894	lectured	-0.09152476
-4.7772894	underlings	-0.09152476
-4.7772894	cybersecurity	-0.09152476
-4.7772894	guarding	-0.09152476
-4.7772894	‘sensitive	-0.09152476
-4.7772894	information’	-0.09152476
-4.313068	johnstown	-0.19994181
-4.7772894	pennsylvania-	-0.09152476
-4.313068	pa.	-0.09152476
-4.7772894	afternoon…	-0.09152476
-4.7772894	“500	-0.09152476
-4.7772894	different	-0.09152476
-4.7772894	examples”	-0.09152476
-4.313068	conflicts	-0.19994181
-4.313068	interest	-0.09152476
-4.7772894	“was	-0.09152476
-3.4090683	center	-0.17666112
-4.7772894	negotiating	-0.09152476
-4.7772894	12m	-0.09152476
-4.7772894	mohammed	-0.09152476
-4.7772894	vi	-0.09152476
-4.7772894	morocco”	-0.09152476
-4.7772894	fdn	-0.09152476
-4.313068	fletcher	-0.19994181
-4.7772894	carolina-	-0.09152476
-4.7772894	8th…	-0.09152476
-3.88451	results	-0.091524795
-4.7772894	unanimous	-0.09152476
-4.7772894	huma	-0.09152476
-3.6303566	calls	-0.09152476
-4.7772894	rest	-0.09152476
-3.4090683	call	-0.11115033
-4.7772894	catches	-0.09152476
-4.7772894	repealobamacare	-0.09152476
-4.7772894	addition	-0.09152476
-3.88451	health	-0.09152476
-4.7772894	coverage-	-0.09152476
-3.88451	disastrous	-0.09152476
-4.104686	seeing	-0.09152476
-4.313068	premium	-0.09152476
-4.7772894	incr…	-0.09152476
-4.104686	promised	-0.09152476
-4.7772894	200k	-0.09152476
-4.7772894	ny	-0.09152476
-3.2237246	failed	-0.1764356
-4.104686	'll	-0.09152476
-4.7772894	25m	-0.09152476
-3.4710867	millions	-0.43093413
-4.7772894	oppressive	-0.09152476
-4.104686	countries	-0.1423589
-4.313068	probably	-0.09152476
-3.739101	forget	-0.09152476
-4.7772894	slog…	-0.09152476
-4.313068	third	-0.09152476
-4.7772894	debate'	-0.09152476
-4.104686	nc	-0.09152476
-3.88451	saturday	-0.09152476
-4.7772894	access	-0.09152476
-4.104686	cost	-0.09152476
-4.313068	delaware	-0.09152476
-4.7772894	remember-	-0.09152476
-4.7772894	either	-0.09152476
-4.104686	lose	-0.09152476
-4.104686	potus	-0.13170488
-3.88451	terrorism	-0.13170488
-4.313068	announce	-0.16071774
-4.7772894	inappropriately	-0.09152476
-3.88451	given	-0.09152476
-4.7772894	secretly	-0.09152476
-3.543461	donald	-0.32607213
-4.7772894	40	-0.09152476
-4.7772894	america-	-0.09152476
-3.1875563	totally	-0.1339262
-4.7772894	chokes	-0.09152476
-4.7772894	truth	-0.09152476
-3.739101	highly	-0.09152476
-4.7772894	77	-0.09152476
-4.7772894	18,290	-0.09152476
-4.7772894	17	-0.09152476
-4.7772894	4,100	-0.09152476
-3.543461	once	-0.27695715
-4.7772894	maga🇺🇸	-0.09152476
-4.7772894	page-	-0.09152476
-3.739101	debates	-0.11619851
-4.7772894	era	-0.09152476
-4.7772894	division	-0.09152476
-3.543461	coming	-0.18723938
-3.543461	future	-0.15013213
-4.7772894	americanunity	-0.09152476
-3.6303566	four	-0.21896519
-3.88451	that’s	-0.16071774
-4.7772894	you’ll	-0.09152476
-4.7772894	bigleaguetruth	-0.09152476
-4.104686	i’m	-0.1423589
-4.7772894	infiltrated	-0.09152476
-4.7772894	europe	-0.09152476
-4.7772894	posing	-0.09152476
-3.6303566	refugees	-0.124744706
-4.313068	allow	-0.09152476
-4.7772894	h…	-0.09152476
-4.7772894	futures	-0.09152476
-3.88451	usa	-0.09152476
-4.7772894	hacks	-0.09152476
-4.313068	negotiate	-0.09152476
-3.739101	deals	-0.11115033
-4.104686	defeat	-0.09152476
-4.104686	rise	-0.09152476
-4.104686	claims	-0.16071774
-4.313068	laughable	-0.19994181
-4.7772894	opposed	-0.09152476
-3.739101	iraq	-0.13170488
-4.104686	supported	-0.09152476
-2.8955479	bernie	-0.32688913
-4.313068	sanders	-0.10122668
-4.7772894	❌libya	-0.09152476
-4.7772894	❌syria	-0.09152476
-4.7772894	❌iran	-0.09152476
-4.7772894	❌iraq	-0.09152476
-4.7772894	❌asia	-0.09152476
-4.7772894	pivot	-0.09152476
-4.7772894	❌russian	-0.09152476
-4.7772894	reset	-0.09152476
-4.7772894	❌benghazi…	-0.09152476
-3.4090683	lost	-0.10932905
-4.7772894	mosul-	-0.09152476
-4.7772894	crooked’s	-0.09152476
-4.7772894	mired	-0.09152476
-4.313068	interests	-0.09152476
-4.7772894	enterprise	-0.09152476
-4.313068	moderator	-0.09152476
-4.7772894	“respectfully	-0.09152476
-4.313068	won’t	-0.09152476
-3.88451	answer	-0.13170488
-4.313068	pay-to-play	-0.09152476
-4.7772894	question.”	-0.09152476
-4.104686	loves	-0.09152476
-3.88451	30	-0.2684286
-4.7772894	incited	-0.09152476
-4.7772894	incidents	-0.09152476
-4.7772894	spontaneous	-0.09152476
-4.7772894	claimed	-0.09152476
-4.104686	benghazi	-0.09152476
-3.2237246	wall	-0.38207364
-4.313068	street	-0.09152476
-4.7772894	puppet	-0.09152476
-4.104686	brought	-0.1423589
-4.313068	campaign-	-0.09152476
-4.7772894	illinois	-0.09152476
-4.7772894	stagnant	-0.09152476
-4.7772894	we’ve	-0.09152476
-4.313068	don’t	-0.09152476
-3.88451	anymore	-0.09152476
-4.313068	b/c	-0.09152476
-3.88451	hillary’s	-0.091524795
-4.104686	husband	-0.20113339
-4.7772894	signed	-0.09152476
-4.7772894	blessed	-0.09152476
-4.7772894	c…	-0.09152476
-4.7772894	thirty	-0.09152476
-4.7772894	.where	-0.09152476
-4.313068	gives	-0.09152476
-4.7772894	“a”	-0.09152476
-3.4710867	economic	-0.09152476
-4.313068	recovery	-0.09152476
-4.7772894	slowest	-0.09152476
-4.7772894	wwii	-0.09152476
-4.7772894	bigleaguetruth…	-0.09152476
-4.7772894	renegotiate	-0.09152476
-3.739101	nafta	-0.24437949
-4.7772894	can’t	-0.09152476
-3.2237246	deal	-0.1729296
-4.104686	we’re	-0.16071774
-4.7772894	tear	-0.09152476
-3.4710867	running	-0.1701967
-4.313068	expect	-0.09152476
-3.739101	taxes	-0.1423589
-3.4710867	spending	-0.14235887
-4.7772894	bigleagetruth	-0.09152476
-4.7772894	hikes	-0.09152476
-4.7772894	crush	-0.09152476
-3.88451	cut	-0.1423589
-4.313068	upstate	-0.19994181
-3.6303566	policy	-0.09152476
-4.7772894	makeamericastrongagain	-0.09152476
-4.7772894	debate…	-0.09152476
-4.313068	regulation	-0.09152476
-3.4710867	called	-0.17666112
-4.104686	550	-0.34809813
-4.104686	syrian	-0.16071774
-4.313068	immigrants	-0.09152476
-4.7772894	“radical	-0.09152476
-4.7772894	terrorists.”	-0.09152476
-3.88451	paid	-0.1423589
-4.7772894	225,000	-0.09152476
-4.7772894	brazilian	-0.09152476
-4.7772894	“open	-0.09152476
-4.7772894	borders.”	-0.09152476
-4.313068	quote	-0.09152476
-3.4710867	weak	-0.15392254
-3.4710867	border	-0.124744706
-4.7772894	security-no	-0.09152476
-4.7772894	credibility.she	-0.09152476
-4.104686	worst	-0.1133867
-4.313068	plain	-0.09152476
-4.104686	admit	-0.09152476
-4.7772894	values	-0.09152476
-4.7772894	acts	-0.09152476
-4.7772894	lords	-0.09152476
-3.88451	then	-0.11115033
-4.7772894	secure	-0.09152476
-4.104686	dollars	-0.09152476
-4.104686	amnesty	-0.09152476
-4.313068	thousands	-0.19994181
-4.7772894	illegals	-0.09152476
-4.7772894	put…	-0.09152476
-4.7772894	pouring	-0.09152476
-4.104686	ice	-0.09152476
-4.104686	endorsed	-0.16071774
-4.7772894	secondamendment	-0.09152476
-4.313068	2a	-0.09152476
-4.7772894	imperative	-0.09152476
-4.313068	justices	-0.09152476
-4.313068	lists	-0.09152476
-4.7772894	litany	-0.09152476
-3.739101	plans	-0.17598495
-4.7772894	restrict	-0.09152476
-4.7772894	survive	-0.09152476
-3.88451	presidency	-0.13170488
-3.88451	2nd	-0.22681415
-4.313068	amendment	-0.09152476
-4.7772894	siege	-0.09152476
-4.313068	judges	-0.09152476
-4.7772894	uphold	-0.09152476
-4.313068	liberal	-0.09152476
-4.313068	court	-0.091524795
-4.7772894	movement-	-0.09152476
-4.7772894	november8th	-0.09152476
-4.313068	tune	-0.16071774
-4.104686	word	-0.09152476
-4.313068	spread	-0.09152476
-4.7772894	the…	-0.09152476
-4.7772894	handing	-0.09152476
-4.313068	deplorables	-0.09152476
-4.7772894	contractor	-0.09152476
-4.7772894	voter-fraud	-0.09152476
-4.7772894	felon	-0.09152476
-4.104686	visited	-0.16071774
-4.7772894	342	-0.09152476
-4.7772894	'over	-0.09152476
-4.7772894	250,000	-0.09152476
-4.313068	insurance	-0.09152476
-4.7772894	battleground	-0.09152476
-4.7772894	obamacare'	-0.09152476
-4.7772894	8:30pme	-0.09152476
-4.313068	lifetime	-0.09152476
-4.104686	senior	-0.09152476
-4.104686	executive	-0.09152476
-4.7772894	branch	-0.09152476
-4.104686	officials	-0.09152476
-4.7772894	lobbying	-0.09152476
-4.7772894	behalf	-0.09152476
-4.7772894	expand	-0.09152476
-4.7772894	definition	-0.09152476
-4.313068	lobbyist	-0.09152476
-4.7772894	loopholes	-0.09152476
-4.7772894	increasing	-0.09152476
-4.7772894	33	-0.09152476
-4.7772894	complete	-0.09152476
-4.7772894	repealed	-0.09152476
-4.7772894	replaced	-0.09152476
-4.7772894	technician'	-0.09152476
-4.7772894	12:30pm	-0.09152476
-4.7772894	'top	-0.09152476
-4.7772894	mocked	-0.09152476
-4.7772894	plotted	-0.09152476
-3.543461	attacks	-0.11984056
-4.7772894	pro-sanders	-0.09152476
-4.7772894	civil	-0.09152476
-4.104686	leader	-0.09152476
-4.7772894	'dem	-0.09152476
-4.313068	oversaw	-0.09152476
-4.7772894	agitators	-0.09152476
-4.7772894	'state	-0.09152476
-4.313068	illegally	-0.09152476
-4.7772894	'scandals	-0.09152476
-4.7772894	surround	-0.09152476
-4.7772894	gatekeeper	-0.09152476
-4.7772894	state'	-0.09152476
-4.7772894	'shadow	-0.09152476
-4.313068	anti-catholic	-0.09152476
-4.7772894	‘food	-0.09152476
-4.7772894	groups’	-0.09152476
-4.7772894	organized	-0.09152476
-4.313068	potential	-0.09152476
-4.7772894	vps	-0.09152476
-4.7772894	11/8/2016	-0.09152476
-4.7772894	safe…	-0.09152476
-4.7772894	limit	-0.09152476
-3.88451	classified	-0.1423589
-4.7772894	disrupter	-0.09152476
-4.7772894	payroll'	-0.09152476
-4.7772894	springs	-0.09152476
-4.7772894	count…	-0.09152476
-4.7772894	ks	-0.09152476
-3.88451	mn	-0.09152476
-4.313068	nj	-0.16071774
-4.7772894	wv	-0.09152476
-4.7772894	mail	-0.09152476
-4.7772894	reg	-0.09152476
-4.7772894	at…	-0.09152476
-4.7772894	2017	-0.09152476
-4.7772894	independence	-0.09152476
-4.7772894	collusion	-0.09152476
-4.7772894	cover-ups	-0.09152476
-4.7772894	bribery	-0.09152476
-4.7772894	honest	-0.09152476
-3.2631807	believe	-0.2112931
-4.313068	dc	-0.09152476
-4.313068	stolen	-0.09152476
-4.7772894	widespread	-0.09152476
-3.88451	fraud	-0.3113263
-4.7772894	politico	-0.09152476
-4.104686	wi	-0.09152476
-4.7772894	believes	-0.09152476
-4.7772894	peo…	-0.09152476
-4.7772894	j.	-0.09152476
-4.7772894	ethics	-0.09152476
-4.104686	reform	-0.09152476
-4.7772894	d.c	-0.09152476
-4.7772894	exclusive	-0.09152476
-4.313068	agents	-0.09152476
-4.7772894	‘stood	-0.09152476
-4.7772894	way’	-0.09152476
-4.7772894	rich	-0.09152476
-4.313068	quick	-0.09152476
-4.7772894	guide	-0.09152476
-3.739101	yet	-0.11619851
-4.7772894	media-rigged	-0.09152476
-4.7772894	8:00pm	-0.09152476
-4.7772894	anderson	-0.09152476
-4.7772894	cooper	-0.09152476
-4.7772894	doubt	-0.09152476
-4.313068	sign	-0.09152476
-4.7772894	choices	-0.09152476
-4.7772894	lower	-0.09152476
-4.7772894	announces	-0.09152476
-4.7772894	statewide	-0.09152476
-3.739101	ad	-0.091524795
-4.104686	strategy	-0.09152476
-4.7772894	1:00pm	-0.09152476
-4.7772894	colluded	-0.09152476
-4.7772894	w/fbi	-0.09152476
-4.7772894	covering	-0.09152476
-4.7772894	riggedsystem	-0.09152476
-4.7772894	d…	-0.09152476
-4.7772894	deceived	-0.09152476
-4.7772894	putting	-0.09152476
-4.313068	made-up	-0.09152476
-4.7772894	shower	-0.09152476
-4.7772894	accused	-0.09152476
-4.7772894	offering	-0.09152476
-4.7772894	'quid	-0.09152476
-4.313068	pro	-0.19994181
-4.313068	quo	-0.09152476
-3.4090683	numbers	-0.13823022
-4.7772894	48	-0.09152476
-4.7772894	44	-0.09152476
-4.313068	proves	-0.09152476
-4.7772894	mishandled	-0.09152476
-3.88451	gets	-0.09152476
-4.7772894	charged	-0.09152476
-4.104686	large	-0.09152476
-3.543461	republican	-0.10654197
-4.7772894	deny	-0.09152476
-4.7772894	naive	-0.09152476
-4.7772894	thiel	-0.09152476
-4.7772894	chooses	-0.09152476
-4.7772894	1.25mil	-0.09152476
-4.313068	accuser	-0.09152476
-4.7772894	recently	-0.09152476
-4.313068	april	-0.09152476
-4.313068	hoax	-0.19994181
-4.7772894	biden	-0.09152476
-4.7772894	grabbing	-0.09152476
-4.7772894	kissing	-0.09152476
-4.7772894	groping	-0.09152476
-4.7772894	cringing	-0.09152476
-4.7772894	phoney	-0.09152476
-3.739101	already	-0.091524795
-3.6303566	proven	-0.18367732
-4.104686	pushed	-0.09152476
-4.7772894	orange	-0.09152476
-4.7772894	animals	-0.09152476
-4.7772894	representing	-0.09152476
-4.7772894	firebombed	-0.09152476
-3.543461	interview	-0.09152476
-3.88451	released	-0.124744706
-4.104686	wikileakes	-0.09152476
-3.739101	shows	-0.091524795
-4.7772894	quid	-0.09152476
-4.7772894	probe.such	-0.09152476
-3.739101	paul	-0.5699469
-4.7772894	ryan	-0.09152476
-4.7772894	zilch	-0.09152476
-4.313068	abc	-0.09152476
-4.7772894	news/washington	-0.09152476
-4.7772894	11	-0.09152476
-4.7772894	47-43	-0.09152476
-4.7772894	focusing	-0.09152476
-4.313068	budget	-0.09152476
-4.7772894	vets	-0.09152476
-4.313068	etc	-0.09152476
-3.88451	pushing	-0.20113339
-3.6303566	fighting	-0.11984056
-4.104686	nominee	-0.091524795
-4.313068	tuesday	-0.09152476
-4.7772894	bay-	-0.09152476
-4.7772894	springs-	-0.09152476
-4.7772894	1pm…	-0.09152476
-4.7772894	“the	-0.09152476
-4.313068	vast	-0.16071774
-4.313068	prosecuted	-0.09152476
-4.313068	thought	-0.09152476
-3.739101	absolutely	-0.09152476
-4.313068	distorted	-0.09152476
-4.313068	polling	-0.09152476
-4.7772894	places	-0.09152476
-3.4710867	sad	-0.25040716
-4.7772894	wondered	-0.09152476
-4.7772894	avoided	-0.09152476
-4.7772894	prosecution	-0.09152476
-4.7772894	found	-0.09152476
-4.313068	staff	-0.09152476
-4.7772894	might	-0.09152476
-4.313068	blow	-0.09152476
-4.313068	trust	-0.09152476
-4.7772894	security	-0.09152476
-4.313068	funded	-0.09152476
-4.104686	wild	-0.09152476
-4.7772894	gang	-0.09152476
-3.2631807	crime	-0.2537948
-3.6303566	looks	-0.30599537
-4.7772894	cover-up	-0.09152476
-4.7772894	coordinated	-0.09152476
-4.7772894	effort	-0.09152476
-3.739101	happened	-0.1133867
-4.313068	events	-0.09152476
-4.7772894	rigging	-0.09152476
-3.88451	watched	-0.11984056
-4.7772894	me.time	-0.09152476
-4.7772894	retire	-0.09152476
-3.6303566	boring	-0.09152476
-4.7772894	unfunny	-0.09152476
-4.7772894	alec	-0.09152476
-4.7772894	baldwin	-0.09152476
-4.7772894	portrayal	-0.09152476
-4.7772894	stinks	-0.09152476
-3.543461	behind	-0.09152476
-4.7772894	amy	-0.09152476
-3.6303566	fantastic	-0.11619851
-3.88451	energy	-0.124744706
-4.104686	bangor	-0.34809813
-4.7772894	11/8/16-	-0.09152476
-4.313068	a…	-0.19994181
-3.6303566	failing	-0.30599537
-4.7772894	reporters	-0.09152476
-4.104686	write	-0.16071774
-4.104686	whatever	-0.09152476
-3.6303566	sources	-0.11984056
-4.104686	along	-0.16071774
-4.7772894	nonsense	-0.09152476
-4.7772894	steal	-0.09152476
-4.7772894	portsmouth	-0.09152476
-4.7772894	7k	-0.09152476
-4.7772894	lifetime…	-0.09152476
-4.7772894	weapon	-0.09152476
-4.104686	3pm-	-0.1423589
-4.7772894	unsubstantiated	-0.09152476
-3.88451	charges	-0.20113339
-4.7772894	outright	-0.09152476
-4.7772894	fabricated	-0.09152476
-4.313068	strongly	-0.09152476
-4.7772894	poison	-0.09152476
-4.7772894	minds	-0.09152476
-3.739101	victory	-0.13170488
-4.7772894	all…	-0.09152476
-4.104686	registered	-0.16071774
-4.7772894	afford	-0.09152476
-3.88451	failure	-0.09152476
-4.313068	greensboro	-0.19994181
-4.7772894	campaign’s	-0.09152476
-4.7772894	bigotry	-0.09152476
-4.7772894	navy	-0.09152476
-4.104686	protecting	-0.09152476
-4.104686	war	-0.19994181
-3.88451	cincinnati	-0.2684286
-4.7772894	trumprally	-0.09152476
-4.7772894	2:00pm	-0.09152476
-3.88451	gov	-0.4730369
-4.313068	announced	-0.09152476
-4.104686	affordable	-0.09152476
-4.313068	longer	-0.09152476
-4.7772894	years-	-0.09152476
-3.739101	event	-0.091524795
-4.7772894	columbus-	-0.09152476
-4.313068	out-	-0.16071774
-4.7772894	nbc/wsj/marist	-0.09152476
-3.543461	left	-0.11984056
-4.104686	7:30pm	-0.16071774
-4.7772894	3pm…	-0.09152476
-4.7772894	fabrication	-0.09152476
-4.104686	written	-0.09152476
-4.7772894	discredited	-0.09152476
-4.313068	writer	-0.09152476
-4.7772894	twelve	-0.09152476
-4.104686	old	-0.091524795
-4.7772894	article	-0.09152476
-4.313068	magazine	-0.09152476
-4.7772894	incident	-0.09152476
-4.7772894	7:30pm-	-0.09152476
-4.7772894	ohiovotesearly	-0.09152476
-4.7772894	lakeland	-0.09152476
-4.7772894	extended	-0.09152476
-4.7772894	10/18	-0.09152476
-4.7772894	asap	-0.09152476
-4.313068	cuba	-0.09152476
-4.7772894	struggled	-0.09152476
-4.7772894	orders	-0.09152476
-4.7772894	concessions	-0.09152476
-4.7772894	towards	-0.09152476
-4.104686	until	-0.09152476
-4.7772894	freedoms	-0.09152476
-3.739101	politics	-0.124744706
-3.3548098	little	-0.09152476
-4.7772894	pick-up	-0.09152476
-4.313068	information	-0.09152476
-4.7772894	provided	-0.09152476
-4.313068	likes	-0.09152476
-4.7772894	advance	-0.09152476
-3.2631807	cnn	-0.13211188
-4.7772894	ou…	-0.09152476
-4.7772894	deadlines	-0.09152476
-4.7772894	attention	-0.09152476
-4.7772894	haiti	-0.09152476
-4.7772894	earthquake	-0.09152476
-4.313068	disgraceful	-0.09152476
-4.7772894	behavior	-0.09152476
-4.7772894	exposed	-0.09152476
-4.7772894	foul	-0.09152476
-4.7772894	mouthed	-0.09152476
-4.7772894	sen.	-0.09152476
-4.7772894	mccain	-0.09152476
-4.7772894	begged	-0.09152476
-3.88451	primary	-0.1423589
-4.7772894	dropped	-0.09152476
-4.313068	locker	-0.19994181
-4.313068	remarks	-0.09152476
-4.7772894	disloyal	-0.09152476
-3.4710867	far	-0.22218339
-4.7772894	sides	-0.09152476
-4.7772894	teach	-0.09152476
-4.7772894	exception	-0.09152476
-4.313068	cheating	-0.09152476
-4.7772894	nom	-0.09152476
-4.313068	loyal	-0.19994181
-4.313068	each	-0.19994181
-3.3548098	other	-0.14638965
-3.88451	republicans	-0.091524795
-4.7772894	shackles	-0.09152476
-4.7772894	ineffective	-0.09152476
-3.88451	went	-0.1423589
-4.7772894	disloyalty	-0.09152476
-4.104686	despite	-0.09152476
-4.104686	group	-0.09152476
-3.88451	pathetic	-0.09152476
-3.543461	biased	-0.20083518
-4.7772894	spend	-0.09152476
-4.7772894	balancing	-0.09152476
-4.104686	waste	-0.16071774
-4.313068	comments	-0.09152476
-4.7772894	pro-growth	-0.09152476
-4.7772894	econ	-0.09152476
-4.7772894	✅eliminate	-0.09152476
-4.7772894	excessive	-0.09152476
-4.7772894	regulations	-0.09152476
-4.7772894	✅lean	-0.09152476
-4.7772894	✅lower	-0.09152476
-4.7772894	hypocrite	-0.09152476
-4.7772894	single	-0.09152476
-4.7772894	beneficiary	-0.09152476
-4.104686	citizens	-0.09152476
-4.104686	growth	-0.09152476
-4.7772894	1929	-0.09152476
-4.7772894	“how	-0.09152476
-4.313068	unite	-0.09152476
-4.7772894	you’ve	-0.09152476
-4.313068	tens	-0.19994181
-4.7772894	-president	-0.09152476
-4.313068	she’ll	-0.09152476
-3.88451	fact	-0.091524795
-4.7772894	✔️	-0.09152476
-4.7772894	“red	-0.09152476
-4.7772894	line”	-0.09152476
-3.88451	syria	-0.09152476
-4.7772894	wasn’t	-0.09152476
-4.7772894	drawn	-0.09152476
-4.7772894	aug	-0.09152476
-4.7772894	’12	-0.09152476
-4.7772894	secy	-0.09152476
-4.7772894	til	-0.09152476
-4.7772894	feb	-0.09152476
-4.7772894	’13	-0.09152476
-3.88451	administration	-0.19994181
-4.104686	treated	-0.16071774
-4.104686	equally	-0.16071774
-4.313068	protected	-0.09152476
-4.104686	evil	-0.09152476
-3.88451	continue	-0.1423589
-4.7772894	debates2016	-0.09152476
-4.313068	ransom	-0.09152476
-4.7772894	⬇	-0.09152476
-4.7772894	peaceful	-0.09152476
-4.7772894	prosperous	-0.09152476
-4.7772894	strongest	-0.09152476
-4.7772894	accomplishments	-0.09152476
-4.7772894	rattledhillary	-0.09152476
-4.7772894	lesson	-0.09152476
-4.313068	there’s	-0.09152476
-4.313068	difference	-0.09152476
-4.7772894	abraham	-0.09152476
-4.7772894	nickname	-0.09152476
-4.7772894	hone…	-0.09152476
-4.7772894	raising	-0.09152476
-4.7772894	lowering	-0.09152476
-4.7772894	position	-0.09152476
-4.7772894	“public	-0.09152476
-4.7772894	stance”	-0.09152476
-4.7772894	discussions	-0.09152476
-4.313068	banks	-0.19994181
-4.313068	msm	-0.09152476
-4.7772894	runs	-0.09152476
-4.7772894	“interruption	-0.09152476
-4.7772894	counters”	-0.09152476
-4.7772894	consider	-0.09152476
-4.7772894	moderators	-0.09152476
-4.7772894	interrupted	-0.09152476
-4.7772894	com…	-0.09152476
-4.7772894	extreme	-0.09152476
-4.313068	vetting	-0.09152476
-4.313068	narrative	-0.09152476
-4.7772894	􏰀	-0.09152476
-4.7772894	above	-0.09152476
-4.7772894	“clarified”	-0.09152476
-4.7772894	meant	-0.09152476
-4.104686	calling	-0.09152476
-4.7772894	“disaster.”	-0.09152476
-4.313068	actually	-0.09152476
-4.7772894	“disaster”	-0.09152476
-4.7772894	pretty	-0.09152476
-4.7772894	competitive	-0.09152476
-4.7772894	comprehensive	-0.09152476
-4.7772894	attn	-0.09152476
-4.313068	five	-0.09152476
-4.7772894	staffers	-0.09152476
-4.7772894	immunity	-0.09152476
-4.7772894	daughter’s	-0.09152476
-4.313068	wedding	-0.09152476
-4.7772894	basically	-0.09152476
-3.6303566	true	-0.124744706
-4.7772894	win-i	-0.09152476
-4.7772894	instruct	-0.09152476
-4.7772894	ag	-0.09152476
-4.7772894	situation	-0.09152476
-4.7772894	bc	-0.09152476
-4.7772894	empowering	-0.09152476
-4.7772894	abusive	-0.09152476
-4.7772894	clinton.my	-0.09152476
-4.7772894	unfortunate-the	-0.09152476
-4.7772894	clintons’	-0.09152476
-4.7772894	actions	-0.09152476
-4.104686	serious	-0.09152476
-3.88451	problems	-0.19994181
-4.313068	it’s	-0.09152476
-4.7772894	“make	-0.09152476
-4.7772894	again.”	-0.09152476
-4.7772894	facebooklive	-0.09152476
-4.7772894	conclude	-0.09152476
-4.7772894	preparations	-0.09152476
-4.313068	palestinian	-0.09152476
-4.104686	terror	-0.09152476
-4.7772894	reminds	-0.09152476
-4.7772894	grievous	-0.09152476
-4.7772894	perils	-0.09152476
-4.7772894	facing	-0.09152476
-4.313068	israeli	-0.09152476
-4.7772894	.continued	-0.09152476
-4.7772894	video–broaddrick	-0.09152476
-4.7772894	willey	-0.09152476
-4.7772894	jones	-0.09152476
-4.7772894	defenders	-0.09152476
-4.7772894	‘these	-0.09152476
-4.313068	crimes	-0.09152476
-4.7772894	‘terrified’	-0.09152476
-4.7772894	‘enabler’	-0.09152476
-4.313068	la	-0.09152476
-4.7772894	times-	-0.09152476
-4.7772894	usc	-0.09152476
-4.7772894	dornsife	-0.09152476
-4.7772894	sunday	-0.09152476
-4.7772894	retains	-0.09152476
-4.7772894	self-righteous	-0.09152476
-4.7772894	hypocrites	-0.09152476
-4.313068	democrat	-0.09152476
-4.313068	train	-0.09152476
-3.88451	gop	-0.09152476
-4.7772894	traitors	-0.09152476
-3.88451	u	-0.09152476
-4.7772894	destroying	-0.09152476
-3.88451	politicians	-0.1423589
-4.7772894	count	-0.09152476
-4.7772894	j	-0.09152476
-4.7772894	dtmag	-0.09152476
-4.7772894	juanita	-0.09152476
-4.7772894	broaddrick	-0.09152476
-4.7772894	relives	-0.09152476
-4.7772894	brutal	-0.09152476
-4.7772894	rapes	-0.09152476
-3.739101	tremendous	-0.11984056
-4.104686	except	-0.16071774
-4.104686	heard	-0.1423589
-4.104686	enthusiasm	-0.09152476
-4.313068	unreal	-0.09152476
-4.7772894	establishment	-0.09152476
-3.6303566	badly	-0.091524795
-4.7772894	drop	-0.09152476
-4.104686	interesting	-0.09152476
-4.313068	24	-0.09152476
-3.88451	prayers	-0.16071779
-4.7772894	path	-0.09152476
-4.313068	hurricane	-0.09152476
-4.7772894	matthew	-0.09152476
-4.7772894	neighbors	-0.09152476
-4.7772894	listen…	-0.09152476
-4.7772894	exact	-0.09152476
-4.7772894	tone	-0.09152476
-4.7772894	waterville	-0.09152476
-4.7772894	12/1	-0.09152476
-4.7772894	realized	-0.09152476
-4.7772894	gon	-0.09152476
-4.7772894	na	-0.09152476
-4.7772894	tennessee	-0.09152476
-4.7772894	volunteer	-0.09152476
-4.7772894	observer	-0.09152476
-4.7772894	hoping	-0.09152476
-4.7772894	dissipates	-0.09152476
-4.7772894	careful	-0.09152476
-4.104686	poll-	-0.16071774
-4.7772894	whole	-0.09152476
-4.7772894	s…	-0.09152476
-4.7772894	mon-	-0.09152476
-4.7772894	ambridge	-0.09152476
-4.7772894	wilkes-barre	-0.09152476
-3.739101	nation	-0.091524795
-4.7772894	customs	-0.09152476
-4.313068	enforcement	-0.124744706
-4.7772894	first-ever	-0.09152476
-3.4710867	such	-0.17103088
-3.6303566	honor	-0.20083518
-4.313068	reuters	-0.09152476
-4.313068	south	-0.19994181
-4.7772894	underway	-0.09152476
-4.7772894	az	-0.09152476
-4.7772894	w/local	-0.09152476
-4.7772894	'small	-0.09152476
-4.104686	pick	-0.09152476
-4.7772894	president'	-0.09152476
-4.7772894	kind	-0.09152476
-4.7772894	ptsd	-0.09152476
-4.7772894	'crazy	-0.09152476
-4.313068	'does	-0.19994181
-4.313068	sense	-0.09152476
-4.7772894	telling	-0.09152476
-4.104686	henderson	-0.16071774
-4.7772894	nv	-0.09152476
-4.313068	begin	-0.09152476
-4.7772894	morning-	-0.09152476
-4.7772894	interruptions	-0.09152476
-3.6303566	pence	-0.10545193
-4.313068	often	-0.09152476
-4.7772894	interrupts	-0.09152476
-4.7772894	obvious	-0.09152476
-4.7772894	..kaine	-0.09152476
-4.7772894	awful	-0.09152476
-4.7772894	ticket..no	-0.09152476
-4.313068	clinton’s	-0.09152476
-4.7772894	conflict	-0.09152476
-4.7772894	liberty	-0.09152476
-4.7772894	’s	-0.09152476
-4.313068	careless	-0.09152476
-4.7772894	risk	-0.09152476
-4.313068	korea	-0.09152476
-4.313068	ties	-0.09152476
-3.88451	putin	-0.091524795
-4.7772894	scrutiny	-0.09152476
-4.7772894	sanctions	-0.09152476
-4.313068	relief	-0.09152476
-4.7772894	clinton-obama	-0.09152476
-4.104686	nuclear	-0.09152476
-3.543461	wrong	-0.1133867
-4.104686	defense	-0.09152476
-4.104686	ran	-0.16071774
-4.7772894	anti-defense	-0.09152476
-4.7772894	flailing	-0.09152476
-4.7772894	judged	-0.09152476
-4.7772894	“dominating”	-0.09152476
-4.7772894	sneers	-0.09152476
-4.313068	prepared	-0.09152476
-4.7772894	homework	-0.09152476
-4.7772894	outperform	-0.09152476
-4.104686	unemployment	-0.16071774
-4.7772894	179,249	-0.09152476
-4.7772894	decreased	-0.09152476
-3.88451	indiana	-0.09152476
-4.7772894	113,826.…	-0.09152476
-4.7772894	loving	-0.09152476
-4.313068	likeable	-0.09152476
-4.7772894	sensible	-0.09152476
-4.104686	thinks	-0.09152476
-4.7772894	fired	-0.09152476
-4.7772894	wasting	-0.09152476
-4.7772894	contest	-0.09152476
-4.7772894	crook	-0.09152476
-4.7772894	batman	-0.09152476
-4.7772894	movies	-0.09152476
-3.88451	angry	-0.09152476
-4.313068	defend	-0.09152476
-4.7772894	cbsnews	-0.09152476
-4.7772894	pence💕	-0.09152476
-4.7772894	marines	-0.09152476
-4.7772894	scared	-0.09152476
-4.104686	liar	-0.16071774
-4.7772894	bengazi	-0.09152476
-4.7772894	sorry	-0.09152476
-4.7772894	inform	-0.09152476
-4.7772894	kellyanne	-0.09152476
-4.7772894	live-tweeting	-0.09152476
-3.4090683	v.p	-0.8252194
-3.88451	negative	-0.13170488
-4.7772894	panel	-0.09152476
-4.313068	joke	-0.09152476
-4.7772894	shake	-0.09152476
-4.7772894	childcare	-0.09152476
-4.313068	freedom	-0.09152476
-4.7772894	means…	-0.09152476
-4.313068	tweeting	-0.09152476
-4.7772894	8:30pm	-0.09152476
-4.7772894	est	-0.09152476
-4.7772894	3:30pm	-0.09152476
-3.88451	wednesday	-0.15013213
-4.7772894	reno-sparks	-0.09152476
-3.2631807	convention	-0.11984056
-4.7772894	directly	-0.09152476
-4.313068	hard-working	-0.09152476
-4.313068	pueblo	-0.19994181
-4.7772894	11:30am	-0.09152476
-4.7772894	preparing	-0.09152476
-4.7772894	battle	-0.09152476
-4.7772894	reclaim	-0.09152476
-4.7772894	mission	-0.09152476
-4.313068	harder	-0.09152476
-4.7772894	extend	-0.09152476
-4.313068	warmest	-0.09152476
-4.7772894	greetings	-0.09152476
-4.7772894	observing	-0.09152476
-4.7772894	rosh	-0.09152476
-4.7772894	hashanah	-0.09152476
-4.7772894	pull	-0.09152476
-4.7772894	decieved	-0.09152476
-4.104686	attacked	-0.09152476
-4.7772894	pulse	-0.09152476
-4.7772894	prosperity	-0.09152476
-4.7772894	complex	-0.09152476
-4.104686	laws	-0.09152476
-4.7772894	failinguser	-0.09152476
-3.88451	saw	-0.09152476
-4.7772894	product	-0.09152476
-4.7772894	builds	-0.09152476
-4.7772894	so-called	-0.09152476
-4.7772894	commission	-0.09152476
-4.7772894	admitted	-0.09152476
-4.7772894	djt	-0.09152476
-4.7772894	audio	-0.09152476
-4.7772894	level	-0.09152476
-4.7772894	decide	-0.09152476
-4.313068	one-sided	-0.09152476
-4.7772894	spin	-0.09152476
-4.313068	followed	-0.09152476
-4.7772894	microphone	-0.09152476
-4.313068	nasty	-0.09152476
-4.313068	closed	-0.09152476
-4.104686	doors	-0.09152476
-3.88451	owned	-0.4730369
-4.7772894	st	-0.09152476
-4.7772894	reflects	-0.09152476
-4.7772894	working-clas…	-0.09152476
-4.313068	novi	-0.19994181
-4.7772894	trumptrain	-0.09152476
-4.7772894	knocking	-0.09152476
-4.7772894	o'clock	-0.09152476
-4.7772894	awake	-0.09152476
-4.104686	maybe	-0.13170488
-4.7772894	of…	-0.09152476
-3.739101	smart	-0.091524795
-4.7772894	cancelling	-0.09152476
-4.7772894	subscriptions	-0.09152476
-4.7772894	papers	-0.09152476
-4.7772894	readers	-0.09152476
-4.313068	exist	-0.19994181
-3.88451	disgusting	-0.09152476
-4.7772894	sex	-0.09152476
-4.313068	alicia	-0.19994181
-3.6303566	become	-0.24437949
-4.7772894	paragon	-0.09152476
-4.7772894	virtue	-0.09152476
-4.7772894	suffers	-0.09152476
-4.313068	con	-0.09152476
-4.7772894	duped	-0.09152476
-4.313068	u.	-0.09152476
-4.7772894	floated	-0.09152476
-4.7772894	angel	-0.09152476
-4.7772894	checking	-0.09152476
-4.104686	which	-0.09152476
-4.7772894	anytime	-0.09152476
-4.7772894	profits	-0.09152476
-4.7772894	phrase	-0.09152476
-4.7772894	followthemoney…	-0.09152476
-4.7772894	followthemoney	-0.09152476
-4.104686	transcript	-0.16071774
-4.7772894	manheim	-0.09152476
-4.104686	condolences	-0.34809813
-4.7772894	accident	-0.09152476
-4.313068	deepest	-0.09152476
-4.7772894	responders	-0.09152476
-4.7772894	5:00pm	-0.09152476
-4.7772894	bedford	-0.09152476
-4.7772894	hampshire-	-0.09152476
-4.7772894	3:00pm	-0.09152476
-4.7772894	wait	-0.09152476
-4.104686	waukesha	-0.34809813
-4.104686	council	-0.16071774
-4.7772894	bluffs	-0.09152476
-4.7772894	just…	-0.09152476
-4.7772894	polish	-0.09152476
-4.7772894	shimon	-0.09152476
-4.7772894	peres	-0.09152476
-4.104686	iowa-	-0.09152476
-4.313068	on-line	-0.09152476
-4.7772894	drudge	-0.09152476
-4.7772894	etc.	-0.09152476
-3.88451	fox	-0.091524795
-4.7772894	18	-0.09152476
-4.7772894	shatter	-0.09152476
-4.7772894	melbourne	-0.09152476
-4.7772894	15,000	-0.09152476
-4.7772894	supporters-	-0.09152476
-4.7772894	additional	-0.09152476
-4.7772894	12,000	-0.09152476
-4.7772894	tha…	-0.09152476
-4.7772894	mid-america	-0.09152476
-4.7772894	disclosure	-0.09152476
-4.7772894	'cnbc	-0.09152476
-4.7772894	havana	-0.09152476
-4.313068	hispanic	-0.09152476
-4.7772894	hrs	-0.09152476
-4.7772894	13m	-0.09152476
-4.313068	donations	-0.09152476
-4.104686	nbc	-0.09152476
-4.313068	forum	-0.09152476
-4.7772894	imwithyou…	-0.09152476
-4.7772894	'u.s	-0.09152476
-4.7772894	murders	-0.09152476
-4.313068	increased	-0.09152476
-4.7772894	10.8	-0.09152476
-4.7772894	2015	-0.09152476
-4.7772894	trumpwon	-0.09152476
-4.7772894	'true	-0.09152476
-4.7772894	blue-collar	-0.09152476
-4.7772894	billionaire	-0.09152476
-4.7772894	trend	-0.09152476
-4.7772894	nights	-0.09152476
-4.7772894	'how	-0.09152476
-4.313068	bar	-0.09152476
-4.7772894	undecideds	-0.09152476
-4.7772894	democrats'	-0.09152476
-4.313068	enjoyed	-0.16071774
-4.7772894	night.crooked	-0.09152476
-4.7772894	things.why	-0.09152476
-4.7772894	7:00	-0.09152476
-4.104686	discuss	-0.09152476
-4.7772894	again…	-0.09152476
-4.7772894	80	-0.09152476
-4.7772894	cnbc	-0.09152476
-4.7772894	400,000	-0.09152476
-4.104686	votes	-0.34809813
-4.7772894	61	-0.09152476
-4.7772894	39	-0.09152476
-4.7772894	800,000	-0.09152476
-4.7772894	historic	-0.09152476
-4.7772894	agreement	-0.09152476
-4.7772894	paved	-0.09152476
-4.313068	400	-0.16071774
-4.104686	threat	-0.09152476
-3.6303566	russia	-0.1133867
-4.7772894	warheads	-0.09152476
-4.313068	n	-0.09152476
-4.7772894	testing	-0.09152476
-4.7772894	nukes	-0.09152476
-4.7772894	sweetheart	-0.09152476
-4.7772894	theirs	-0.09152476
-4.7772894	candidate	-0.09152476
-3.88451	stage	-0.091524795
-4.7772894	trafficked	-0.09152476
-4.7772894	rumors	-0.09152476
-3.88451	heritage	-0.09152476
-4.7772894	typical	-0.09152476
-4.313068	politician	-0.09152476
-4.313068	action	-0.16071774
-4.7772894	habit	-0.09152476
-3.4090683	=	-0.1133867
-4.7772894	wealth	-0.09152476
-4.7772894	magnet	-0.09152476
-4.7772894	innovation	-0.09152476
-4.7772894	creati…	-0.09152476
-4.7772894	channels	-0.09152476
-4.7772894	kerry	-0.09152476
-3.543461	trade	-0.20083518
-4.313068	debt	-0.09152476
-4.7772894	9trillion	-0.09152476
-4.7772894	managing	-0.09152476
-4.313068	evenings	-0.09152476
-4.313068	bloomberg	-0.09152476
-4.7772894	trumptrain…	-0.09152476
-4.7772894	arnold	-0.09152476
-4.7772894	palmer	-0.09152476
-4.313068	died	-0.09152476
-4.7772894	no-one	-0.09152476
-4.7772894	champion	-0.09152476
-4.7772894	missed	-0.09152476
-4.313068	eastern	-0.09152476
-4.313068	immigrant	-0.09152476
-4.7772894	weekend	-0.09152476
-4.313068	overdoses	-0.09152476
-4.7772894	n.c.	-0.09152476
-4.7772894	riots	-0.09152476
-4.7772894	readout	-0.09152476
-4.7772894	prime	-0.09152476
-4.313068	minister	-0.09152476
-4.313068	benjamin	-0.19994181
-4.7772894	netanyahu	-0.09152476
-4.7772894	10:00	-0.09152476
-4.104686	a.m	-0.34809813
-4.104686	nomination	-0.09152476
-4.313068	gotten	-0.09152476
-4.313068	roanoke	-0.16071774
-4.313068	dopey	-0.09152476
-4.313068	mark	-0.09152476
-4.7772894	cuban	-0.09152476
-4.7772894	benefactor	-0.09152476
-4.313068	fame	-0.09152476
-4.313068	sit	-0.09152476
-4.7772894	row	-0.09152476
-4.104686	perhaps	-0.091524795
-4.7772894	gennifer	-0.09152476
-4.7772894	flowers	-0.09152476
-4.7772894	alongside	-0.09152476
-4.7772894	berglund	-0.09152476
-4.7772894	headed	-0.09152476
-4.7772894	professor	-0.09152476
-4.7772894	predicted	-0.09152476
-4.7772894	outcomes	-0.09152476
-3.4090683	wonderful	-0.10654197
-4.313068	surprise	-0.19994181
-4.7772894	greatly	-0.09152476
-4.7772894	knock	-0.09152476
-4.313068	forced	-0.09152476
-4.7772894	grandstand	-0.09152476
-3.88451	pols	-0.09152476
-4.7772894	center-	-0.09152476
-4.7772894	coliseum	-0.09152476
-4.7772894	~	-0.09152476
-4.7772894	stimulate	-0.09152476
-4.7772894	economy'	-0.09152476
-4.7772894	sm	-0.09152476
-4.7772894	biz	-0.09152476
-4.7772894	estates	-0.09152476
-4.7772894	65	-0.09152476
-3.6303566	spoke	-0.09152476
-3.739101	tough	-0.124744706
-4.7772894	circumstances	-0.09152476
-4.7772894	gals	-0.09152476
-4.313068	d	-0.09152476
-4.104686	s	-0.09152476
-4.7772894	hopefully	-0.09152476
-4.7772894	unrest	-0.09152476
-4.7772894	immediate	-0.09152476
-4.313068	injured	-0.09152476
-4.313068	unity	-0.09152476
-4.7772894	situations	-0.09152476
-4.7772894	tulsa	-0.09152476
-4.7772894	tragic	-0.09152476
-4.313068	changing	-0.09152476
-4.7772894	saf…	-0.09152476
-4.7772894	kenansville	-0.09152476
-4.7772894	gravy	-0.09152476
-4.7772894	neglected	-0.09152476
-4.7772894	together…	-0.09152476
-4.313068	sleep	-0.09152476
-4.7772894	belong	-0.09152476
-4.7772894	copying	-0.09152476
-4.7772894	airplane	-0.09152476
-4.7772894	georgia	-0.09152476
-4.7772894	philly	-0.09152476
-4.7772894	fop	-0.09152476
-4.7772894	chief	-0.09152476
-4.7772894	‘blew	-0.09152476
-4.104686	weakness	-0.09152476
-3.739101	secretary	-0.3653386
-4.7772894	emboldened	-0.09152476
-4.7772894	world..cont	-0.09152476
-3.88451	terrorist	-0.091524795
-4.313068	destroy	-0.091524795
-4.7772894	people-	-0.09152476
-4.7772894	thru	-0.09152476
-4.7772894	embrace	-0.09152476
-4.7772894	10k	-0.09152476
-4.7772894	plus	-0.09152476
-4.7772894	lots	-0.09152476
-4.7772894	males	-0.09152476
-4.7772894	poorly	-0.09152476
