\data\
ngram 1=8028
ngram 2=38032
ngram 3=58558

\1-grams:
-0.71688676	<unk>
-inf	<s>	-0.83955497
-2.2006643	</s>
-4.573497	wow	-0.1452627
-2.3744066	this	-0.3018638
-2.105061	is	-0.34320894
-2.6631749	so	-0.26696476
-2.9025524	great	-0.17681962
-2.00427	#	-0.33009538
-5.068526	mannequinchallenge	-0.097247235
-3.9174955	update	-0.097247235
-1.4310536	.	-2.0647132
-3.36007	much	-0.17303404
-4.573497	faster	-0.097247235
-1.7111529	url	-1.1815511
-2.1351697	user	-0.46722218
-2.8846772	not	-0.18933491
-3.7606778	sure	-0.13933037
-3.0166812	how	-0.2267367
-3.2072575	got	-0.23856772
-3.6993985	past	-0.11661278
-2.7502096	us	-0.22829987
-4.3763285	fixed	-0.097247235
-2.7252429	(	-0.14994407
-1.8081218	and	-0.2563553
-3.36007	thanks	-0.29513112
-1.9774394	for	-0.4028462
-4.0239797	reporting	-0.097247235
-2.6792421	)	-0.42127746
-3.041087	never	-0.1676547
-3.1892335	said	-0.21383141
-2.9935744	but	-0.21367541
-4.0239797	seems	-0.097247235
-2.7976844	like	-0.2564267
-3.0669463	good	-0.20610556
-4.573497	advice	-0.097247235
-5.068526	slipped	-0.097247235
-1.5501169	,	-0.45298675
-2.7566822	now	-0.26707947
-2.379849	it	-0.3622562
-2.3909428	's	-0.16772465
-2.769924	hillary	-0.32954928
-4.573497	smith	-0.097247235
-4.573497	joins	-0.097247235
-3.3870552	square	-0.16412848
-2.5324893	as	-0.28196204
-2.3663688	our	-0.27818143
-5.068526	gc	-0.097247235
-1.6916333	!	-1.7507076
-2.7766995	``	-0.14847913
-5.068526	slavery	-0.097247235
-2.4846349	''	-0.3732573
-3.6457064	u.s.	-0.10544127
-5.068526	inmates	-0.097247235
-5.068526	strike	-0.097247235
-3.2457175	amazing	-0.15974098
-3.7606778	cool	-0.097247235
-2.2505503	that	-0.28921464
-2.6088784	was	-0.24827343
-3.4158292	done	-0.16448253
-2.6135433	all	-0.28548878
-2.3909428	from	-0.2594473
-2.1760018	a	-0.2537635
-3.7606778	phone	-0.13688232
-3.1892335	there	-0.2728379
-2.9117734	time	-0.3440298
-1.786639	to	-0.40274152
-2.9716349	do	-0.30246985
-3.4798167	both	-0.124844834
-5.068526	seamless	-0.097247235
-3.9174955	vs	-0.097247235
-2.0935786	:	-0.5014133
-4.573497	caviar	-0.097247235
-3.4466455	took	-0.22809428
-1.9253963	the	-0.29188788
-4.573497	cake	-0.097247235
-2.577556	we	-0.3583887
-3.4798167	also	-0.097247235
-4.3763285	deliver	-0.097247235
-5.068526	btw	-0.097247235
-2.0466328	on	-0.3944764
-3.3870552	debate	-0.17265292
-5.068526	…the	-0.097247235
-4.573497	elegant	-0.097247235
-5.068526	simplicity	-0.097247235
-1.864481	of	-0.33821747
-3.1892335	twitter	-0.19900893
-2.6527843	me	-0.29310232
-4.573497	unprecedented	-0.097247235
-3.2457175	really	-0.11717901
-3.4158292	important	-0.10876265
-4.573497	—user	-0.15814443
-4.3763285	🙏🏼	-0.097247235
-3.6457064	final	-0.14285174
-3.0287127	right	-0.32576594
-2.982466	here	-0.29504633
-2.6579485	tonight	-0.5426588
-5.068526	whyiattendghc	-0.097247235
-3.0287127	be	-0.16446644
-4.573497	present	-0.097247235
-3.9174955	listen	-0.23385595
-4.16536	learn	-0.097247235
-5.068526	emerging	-0.097247235
-3.4158292	leaders	-0.17106465
-5.068526	builders	-0.097247235
-5.068526	recruit	-0.097247235
-2.9716349	them	-0.29064807
-4.3763285	course	-0.097247235
-5.068526	ghc16	-0.097247235
-4.573497	⚡️	-0.097247235
-5.068526	“imagined	-0.097247235
-4.16536	conversations	-0.097247235
-3.6457064	between	-0.11841688
-4.3763285	barack	-0.18050131
-3.1392574	obama	-0.18426993
-3.9174955	joe	-0.13688232
-5.068526	biden”	-0.097247235
-4.16536	awesome	-0.1452627
-5.068526	📡	-0.097247235
-3.8320467	anyone	-0.25033957
-2.8675086	can	-0.23818561
-4.3763285	broadcast	-0.097247235
-3.36007	any	-0.117474675
-4.3763285	camera	-0.097247235
-2.8935227	or	-0.11428919
-4.573497	stream	-0.097247235
-3.4158292	world	-0.1274095
-3.9174955	've	-0.16728659
-3.1552856	made	-0.21074004
-3.5979278	simple	-0.113792844
-2.9406736	get	-0.30540228
-3.7606778	tap	-0.19925423
-5.068526	button…	-0.097247235
-3.171928	only	-0.12326476
-4.16536	matter	-0.097247235
-3.8320467	tried	-0.13099386
-4.0239797	moved	-0.1452627
-5.068526	lighter	-0.097247235
-5.068526	🆕	-0.097247235
-4.3763285	're	-0.12289762
-3.3346636	working	-0.20792736
-2.1916947	with	-0.38371736
-3.1892335	show	-0.17004223
-2.8273413	what	-0.32426402
-4.0239797	happening	-0.1452627
-3.2879176	election	-0.24070598
-2.9935744	day	-0.3564598
-2.9716349	live	-0.33397108
-4.3763285	nov	-0.18050131
-4.3763285	8th	-0.12662934
-5.068526	oops	-0.097247235
-3.310662	ca	-0.95401525
-3.3870552	n't	-0.18817954
-2.743832	have	-0.28692317
-5.068526	fb	-0.097247235
-4.0239797	account	-0.097247235
-2.5097458	will	-0.30854383
-2.502422	i	-0.3780647
-3.041087	love	-0.23021586
-3.3870552	watch	-0.16742374
-4.0239797	constant	-0.097247235
-4.3763285	reminder	-0.097247235
-3.6457064	stay	-0.16998982
-5.068526	healthy	-0.097247235
-4.3763285	daily	-0.097247235
-5.068526	wrist	-0.097247235
-4.0239797	mom	-0.14067157
-3.4798167	saying	-0.15193255
-3.7606778	morning	-0.16057247
-4.3763285	search	-0.097247235
-5.068526	powerful…you	-0.097247235
-3.36007	see	-0.24215172
-2.6579485	people	-0.31227484
-5.068526	*think*	-0.097247235
-2.604263	about	-0.29639027
-3.8320467	anything	-0.11841688
-3.3870552	open	-0.16639851
-1.8022884	in	-0.36396796
-3.9174955	app	-0.13099386
-2.7132778	just	-0.19474612
-3.3346636	getting	-0.16363208
-3.6457064	started	-0.13688232
-3.2879176	too	-0.21281825
-4.573497	def	-0.097247235
-5.068526	competing	-0.097247235
-3.6993985	w	-0.15273938
-5.068526	newspaper/magazine	-0.097247235
-4.0239797	network	-0.13688232
-3.3870552	makes	-0.1547166
-2.6527843	more	-0.1981736
-4.573497	accessible	-0.097247235
-5.068526	twitter’s	-0.097247235
-4.573497	streaming	-0.097247235
-4.3763285	audience	-0.097247235
-5.068526	grew	-0.097247235
-3.8320467	tv	-0.12326473
-5.068526	slumped	-0.097247235
-2.586277	...	-0.53829443
-5.068526	importantly	-0.097247235
-3.6457064	talk	-0.17182639
-4.3763285	wherever	-0.097247235
-2.835083	they	-0.27323046
-4.573497	we…	-0.22899535
-3.2260618	everyone	-0.19501157
-3.7606778	thinking	-0.15814443
-4.573497	real-time	-0.097247235
-5.068526	debatenight	-0.097247235
-5.068526	45m	-0.097247235
-3.36007	must	-0.13258946
-3.0944433	before	-0.22835492
-2.3431113	by	-0.29859623
-2.3937612	you	-0.28880247
-2.560622	?	-1.0343335
-3.9174955	number	-0.13688232
-5.068526	retweets	-0.097247235
-2.9406736	would	-0.29331526
-3.2663052	say	-0.17378277
-4.573497	otherwise	-0.097247235
-3.2457175	why	-0.21490845
-3.9174955	black	-0.097247235
-3.5979278	lives	-0.14890434
-3.6993985	read	-0.097247206
-4.573497	wise	-0.097247235
-3.5979278	man	-0.17480968
-3.9174955	available	-0.25093865
-2.560622	today	-0.5357678
-2.8935227	an	-0.1700554
-4.3763285	informed	-0.097247235
-4.3763285	discussion	-0.097247235
-3.1088736	because	-0.258197
-4.573497	data	-0.097247235
-5.068526	vpdebate	-0.097247235
-4.3763285	scandals	-0.15814443
-2.9117734	last	-0.36038
-3.4158292	week	-0.26408294
-3.2879176	john	-0.18186516
-5.068526	oliver	-0.097247235
-5.068526	hbo	-0.097247235
-5.068526	imagination	-0.097247235
-3.0669463	than	-0.16919853
-5.068526	knowledge	-0.097247235
-3.6993985	tell	-0.14067157
-3.4798167	story	-0.12662934
-4.0239797	tweets	-0.097247235
-3.7606778	starting	-0.15951523
-4.573497	web	-0.097247235
-3.3870552	help	-0.13935532
-3.6993985	someone	-0.11841688
-3.7606778	register	-0.16020223
-3.2879176	vote	-0.30473414
-3.9174955	fast	-0.13688232
-5.068526	merchants	-0.097247235
-4.0239797	please	-0.115092054
-3.6993985	turn	-0.15439531
-2.8935227	one	-0.25521356
-4.3763285	flip	-0.18050131
-5.068526	switch	-0.097247235
-5.068526	voterregistrationday	-0.097247235
-3.2457175	take	-0.16728659
-3.1552856	2	-0.14770062
-3.6993985	minutes	-0.20288022
-2.8935227	new	-0.18376322
-4.3763285	reader	-0.097247235
-4.573497	australia	-0.097247235
-3.4158292	where	-0.17128989
-3.4158292	most	-0.12529245
-3.7606778	payments	-0.21450935
-2.4916625	are	-0.22571456
-3.0669463	go	-0.21759632
-5.068526	commentary	-0.097247235
-4.573497	reaction	-0.097247235
-4.3763285	chip	-0.097247235
-4.3763285	card	-0.097247235
-5.068526	transaction	-0.097247235
-2.9935744	down	-0.29124546
-3.6457064	4	-0.11661278
-4.3763285	seconds	-0.097247235
-3.8320467	industry	-0.12662934
-3.8320467	average	-0.12326473
-5.068526	15s	-0.097247235
-3.5157325	less	-0.113792844
-3.9174955	lines	-0.1833928
-5.068526	geno	-0.097247235
-2.528615	my	-0.2361872
-4.573497	barber	-0.097247235
-3.6457064	6	-0.11841688
-2.982466	years	-0.47827768
-3.6993985	finally	-0.115092054
-5.068526	accepts	-0.097247235
-4.0239797	credit	-0.097247235
-4.573497	cards	-0.097247235
-3.7606778	monday	-0.097247235
-4.573497	sellers	-0.097247235
-4.573497	add	-0.097247235
-4.573497	link	-0.097247235
-2.8935227	their	-0.11547363
-5.068526	receipts	-0.097247235
-4.573497	customers	-0.097247235
-5.068526	podcast	-0.097247235
-3.8320467	find	-0.11661278
-4.3763285	🏈	-0.097247235
-2.6376505	has	-0.264448
-3.4158292	been	-0.14894117
-5.068526	requested	-0.097247235
-4.3763285	features	-0.097247235
-3.6993985	hear	-0.16878594
-3.0166812	were	-0.113792844
-3.6457064	taken	-0.097247206
-3.5548885	yesterday	-0.4447093
-3.1392574	after	-0.15779975
-3.2072575	being	-0.16123311
-4.3763285	reported	-0.097247235
-4.16536	correct	-0.097247235
-3.3346636	through	-0.1698651
-4.573497	human	-0.097247235
-3.9174955	review	-0.097247235
-3.8320467	process	-0.22798176
-5.068526	rn	-0.097247235
-3.9174955	tech	-0.1833928
-2.1988556	&	-1.7979256
-5.068526	amp	-0.097247235
-3.6993985	;	-0.0991066
-5.068526	product-based	-0.097247235
-3.8320467	solutions	-0.18050127
-4.3763285	letter	-0.097247235
-4.573497	regarding	-0.097247235
-5.068526	climate	-0.097247235
-3.310662	change	-0.18674773
-5.068526	concerned	-0.097247235
-3.6993985	members	-0.15273938
-3.171928	national	-0.23966904
-4.573497	academy	-0.097247235
-5.068526	sciences	-0.097247235
-4.573497	agreed	-0.097247235
-4.16536	dark	-0.097247235
-4.573497	sky	-0.097247235
-3.3346636	best	-0.12940165
-5.068526	hyperlocal	-0.097247235
-4.16536	weather	-0.097247235
-4.573497	notifications	-0.097247235
-3.1892335	those	-0.23188867
-3.1552856	two	-0.12823223
-4.16536	else	-0.097247235
-3.0669463	every	-0.24451616
-3.5157325	presidential	-0.21135476
-3.1892335	thank	-0.624402
-4.3763285	jeff	-0.097247235
-3.1552856	support	-0.25179708
-2.8675086	over	-0.22562535
-5.068526	“report	-0.097247235
-3.36007	another	-0.11082686
-3.4798167	killed	-0.1620605
-5.068526	officer-involved	-0.097247235
-4.573497	shooting	-0.097247235
-3.5157325	north	-0.43505305
-5.068526	carolina”	-0.097247235
-5.068526	“kaepernick	-0.097247235
-4.573497	follows	-0.097247235
-3.0669463	$	-0.14750946
-3.4158292	1	-0.15068963
-3.2879176	million	-0.1927914
-4.573497	donation	-0.097247235
-5.068526	amid	-0.097247235
-4.573497	death	-0.097247235
-5.068526	threats”	-0.097247235
-4.3763285	stood	-0.097247235
-4.16536	hour	-0.097247235
-4.573497	mountain	-0.097247235
-5.068526	lion	-0.097247235
-3.4158292	country	-0.21609136
-4.0239797	waiting	-0.20288022
-4.573497	galaxy	-0.097247235
-5.068526	align	-0.097247235
-4.573497	road	-0.097247235
-4.0239797	worked	-0.097247235
-3.5157325	well	-0.14067157
-5.068526	podcasts	-0.097247235
-4.573497	launched	-0.097247235
-4.573497	tho	-0.097247235
-3.5157325	top	-0.13275203
-4.3763285	corner	-0.097247235
-3.1892335	under	-0.20210189
-5.068526	v	-0.097247235
-4.573497	chicago	-0.097247235
-3.4798167	police	-0.21909998
-4.3763285	rolling	-0.18050131
-2.57326	out	-0.38532892
-5.068526	mandatory	-0.097247235
-5.068526	'de-escalation	-0.097247235
-2.5134547	'	-0.3907142
-4.16536	training	-0.097247235
-3.6457064	happy	-0.14503957
-3.5157325	birthday	-0.13522547
-3.8320467	pm	-0.15814443
-4.16536	chance	-0.18242678
-3.36007	even	-0.1315452
-4.16536	reason	-0.13688232
-3.5157325	tour	-0.1886946
-5.068526	staywokeandvote	-0.097247235
-4.0239797	customer	-0.20288022
-3.5548885	service	-0.14878823
-2.6847327	your	-0.15762086
-3.4158292	business	-0.18939024
-3.1892335	want	-0.32122475
-3.5548885	game	-0.15917215
-4.0239797	follow	-0.097247235
-5.068526	alert	-0.097247235
-2.9507508	when	-0.2803445
-2.8591726	his	-0.14573611
-3.4798167	music	-0.2165432
-3.2879176	always	-0.1160779
-3.5548885	needs	-0.18281291
-5.068526	refresh	-0.097247235
-4.3763285	request	-0.18050131
-3.7606778	send	-0.12326473
-3.4158292	money	-0.17569797
-4.573497	siri	-0.097247235
-5.068526	imessage	-0.097247235
-4.573497	payroll	-0.097247235
-3.8320467	nearly	-0.097247235
-4.573497	half	-0.22899535
-4.0239797	businesses	-0.16758539
-5.068526	🎂👟🏀	-0.097247235
-5.068526	afvsgsu	-0.097247235
-5.068526	“deskbound”	-0.097247235
-4.3763285	kelly	-0.18050131
-5.068526	starrett	-0.097247235
-3.3346636	meeting	-0.22064885
-5.068526	ahmed	-0.097247235
-4.3763285	hey	-0.097247235
-3.6457064	10	-0.097247235
-3.5979278	power	-0.113792844
-5.068526	touchbistro	-0.097247235
-5.068526	vend	-0.097247235
-3.7606778	point	-0.15814443
-4.3763285	sale	-0.097247235
-4.573497	hardware	-0.097247235
-4.573497	coffee	-0.097247235
-3.041087	if	-0.35895863
-3.4798167	looking	-0.22255047
-3.9174955	try	-0.22798176
-3.5979278	something	-0.097247206
-3.6457064	clear	-0.1421081
-3.3346636	could	-0.25347668
-3.4798167	taking	-0.20015427
-5.068526	feedback	-0.097247235
-3.0804772	make	-0.3039103
-3.36007	better	-0.17012492
-4.0239797	self	-0.097247235
-3.8320467	control	-0.15273938
-4.573497	frank	-0.22899535
-4.573497	ocean	-0.097247235
-3.9174955	radio	-0.12326473
-5.068526	nikes	-0.097247235
-5.068526	blond	-0.097247235
-5.068526	“this	-0.097247235
-3.4798167	person	-0.15527456
-3.9174955	knew	-0.15814443
-5.068526	staircase	-0.097247235
-5.068526	along”	-0.097247235
-3.9174955	learning	-0.097247235
-5.068526	spanish	-0.097247235
-5.068526	sales	-0.097247235
-4.16536	powered	-0.22899535
-3.5157325	everything	-0.14878823
-5.068526	andrew	-0.097247235
-3.2663052	let	-0.2753764
-5.068526	vraa	-0.097247235
-5.068526	goodtrouble	-0.097247235
-4.0239797	same	-0.12059174
-3.2879176	house	-0.21860532
-3.0538242	american	-0.13290182
-3.171928	first	-0.1598581
-5.068526	arrested	-0.097247235
-4.16536	felt	-0.097247235
-3.4466455	free	-0.15814443
-4.3763285	sharing	-0.097247235
-3.2663052	life	-0.26359677
-3.5548885	hope	-0.16247104
-5.068526	unbelievably	-0.097247235
-3.310662	strong	-0.13370174
-4.0239797	dad	-0.097247235
-4.573497	restored	-0.097247235
-5.068526	grandmother	-0.097247235
-4.16536	art	-0.097247235
-5.068526	gallery	-0.097247235
-3.8320467	almost	-0.097247235
-4.16536	200	-0.097247235
-3.0538242	work	-0.2556395
-2.2135415	at	-0.40997887
-4.0239797	st.	-0.23385595
-4.3763285	louis	-0.1452627
-3.0944433	these	-0.15330143
-5.068526	nutrition	-0.097247235
-4.573497	prevent	-0.097247235
-4.573497	reverse	-0.097247235
-3.9174955	heart	-0.097247235
-5.068526	disease	-0.097247235
-5.068526	fav7films	-0.097247235
-5.068526	willy	-0.097247235
-5.068526	wonka	-0.097247235
-4.3763285	chocolate	-0.097247235
-4.16536	factory	-0.097247235
-3.6993985	dead	-0.12059174
-5.068526	poets	-0.097247235
-4.0239797	society	-0.1452627
-5.068526	princess	-0.097247235
-5.068526	bride	-0.097247235
-4.3763285	midnight	-0.097247235
-4.573497	paris	-0.097247235
-5.068526	ratatouille	-0.097247235
-4.0239797	lincoln	-0.16998982
-5.068526	wall•e	-0.097247235
-5.068526	duolingo	-0.097247235
-3.6993985	remember	-0.13933037
-5.068526	longest	-0.097247235
-3.6993985	standing	-0.14685997
-3.4158292	during	-0.11082686
-4.16536	walk	-0.097247235
-4.3763285	bed	-0.097247235
-4.0239797	tim	-0.2820615
-3.9174955	talks	-0.13688232
-4.573497	remembering	-0.097247235
-5.068526	victor	-0.097247235
-5.068526	valdez	-0.097247235
-5.068526	marfa	-0.097247235
-3.6993985	public	-0.115092054
-5.068526	np	-0.097247235
-5.068526	soundcloud	-0.097247235
-5.068526	32	-0.097247235
-3.3870552	hours	-0.14878823
-3.36007	congress	-0.19967337
-3.6993985	pass	-0.1421081
-3.9174955	november	-0.15314458
-5.068526	favorite	-0.097247235
-3.5979278	stories	-0.11841688
-4.16536	constitution	-0.13370174
-3.0804772	bill	-0.27778614
-3.7606778	rights	-0.15951523
-3.5548885	opening	-0.16758539
-2.6527843	up	-0.35957772
-4.573497	capital	-0.097247235
-3.6993985	outside	-0.15273938
-4.0239797	moments	-0.097247235
-4.3763285	creation	-0.18050131
-5.068526	“celebrating	-0.097247235
-5.068526	51	-0.097247235
-3.8320467	voting	-0.25711226
-5.068526	act”	-0.097247235
-3.8320467	restore	-0.14067157
-3.4798167	act	-0.14794303
-4.0239797	protect	-0.15527456
-3.1392574	americans	-0.18072593
-3.041087	no	-0.18124954
-3.5979278	words	-0.15005432
-3.7606778	ideas	-0.15814443
-4.0239797	tx	-0.18050131
-4.16536	push	-0.097247235
-3.6993985	company	-0.097247235
-4.0239797	holiday	-0.20288022
-5.068526	unblock	-0.097247235
-3.7606778	voter	-0.19214243
-5.068526	registration	-0.097247235
-5.068526	advancement	-0.097247235
-5.068526	enable	-0.097247235
-3.4798167	need	-0.20835371
-4.573497	ft.	-0.097247235
-5.068526	xavier	-0.097247235
-5.068526	omär	-0.097247235
-5.068526	noname	-0.097247235
-3.8320467	50	-0.16758539
-3.3870552	without	-0.124844834
-3.5157325	full	-0.14253484
-4.573497	protections	-0.097247235
-3.3870552	voters	-0.13275203
-4.573497	color	-0.22899535
-4.3763285	remove	-0.097247235
-4.16536	barriers	-0.23385595
-5.068526	boo	-0.097247235
-3.3346636	team	-0.13851798
-5.068526	element	-0.097247235
-4.573497	difficult	-0.097247235
-4.16536	step	-0.15814443
-3.9174955	second	-0.12662934
-4.16536	mothers	-0.097247235
-3.9174955	movement	-0.16878594
-3.6457064	fix	-0.17302221
-4.573497	discrimination	-0.097247235
-4.3763285	elections	-0.097247235
-5.068526	…you	-0.097247235
-3.0804772	did	-0.30845875
-2.7905762	who	-0.23062707
-3.5979278	thing	-0.15896639
-3.4466455	gave	-0.1562353
-4.3763285	confidence	-0.18050131
-5.068526	dressing	-0.097247235
-4.573497	fresh	-0.097247235
-5.068526	“at	-0.097247235
-4.3763285	least	-0.097247235
-4.573497	60	-0.097247235
-5.068526	kabul	-0.097247235
-5.068526	explosions”	-0.097247235
-3.7606778	fair	-0.15314458
-3.7606778	points	-0.12662934
-4.3763285	ban	-0.097247235
-5.068526	expressing	-0.097247235
-4.16536	thoughts	-0.2322297
-5.068526	targeted	-0.097247235
-4.16536	abuse	-0.097247235
-5.068526	inciting	-0.097247235
-3.1088736	against	-0.1577094
-5.068526	however	-0.097247235
-3.6993985	allowed	-0.19849683
-3.9174955	listening	-0.5919932
-4.573497	gender	-0.097247235
-4.3763285	hi	-0.097247235
-5.068526	leslie	-0.097247235
-5.068526	following	-0.097247235
-3.9174955	dm	-0.13688232
-3.6457064	moment	-0.19995305
-5.068526	rnc	-0.097247235
-5.068526	einstein	-0.097247235
-4.573497	speaks	-0.097247235
-4.0239797	race	-0.14685997
-3.6993985	|	-0.097247235
-4.573497	s.	-0.097247235
-4.573497	james	-0.097247235
-4.3763285	gates	-0.097247235
-4.573497	[	-0.097247235
-5.068526	becoming	-0.097247235
-4.573497	]	-0.22899535
-5.068526	studios	-0.097247235
-5.068526	script	-0.097247235
-5.068526	“a	-0.097247235
-4.3763285	rare	-0.097247235
-5.068526	pokémon	-0.097247235
-5.068526	sighting	-0.097247235
-4.573497	causes	-0.097247235
-5.068526	stir	-0.097247235
-4.16536	central	-0.097247235
-5.068526	park”	-0.097247235
-5.068526	brené	-0.097247235
-5.068526	brown	-0.097247235
-3.5157325	—	-0.3124402
-4.0239797	courage	-0.13688232
-4.573497	vulnerable	-0.097247235
-5.068526	“'attempted	-0.097247235
-3.6457064	military	-0.25229788
-4.573497	coup	-0.097247235
-5.068526	turkey”	-0.097247235
-5.068526	thich	-0.097247235
-5.068526	nhat	-0.097247235
-5.068526	hanh	-0.097247235
-3.7606778	peace	-0.20288022
-5.068526	trauma	-0.097247235
-5.068526	truck	-0.097247235
-3.4798167	attack	-0.33578715
-3.7606778	nice	-0.16942036
-5.068526	france”	-0.097247235
-3.3346636	news	-0.28586757
-3.5548885	joining	-0.30433053
-3.8320467	global	-0.097247235
-4.3763285	head	-0.18050131
-3.5979278	welcome	-0.21215603
-5.068526	renee	-0.097247235
-4.573497	shoe	-0.097247235
-4.0239797	dog	-0.097247235
-5.068526	recommended	-0.097247235
-5.068526	touches	-0.097247235
-5.068526	1968	-0.097247235
-5.068526	olympics	-0.097247235
-3.9174955	problem	-0.13099386
-4.573497	solution	-0.097247235
-5.068526	“bloomberg	-0.097247235
-3.9174955	west	-0.14685997
-4.16536	”	-0.097247235
-5.068526	“what’d	-0.097247235
-3.7606778	miss	-0.1452627
-5.068526	“with	-0.097247235
-3.8320467	due	-0.34900826
-5.068526	respect”	-0.097247235
-5.068526	nowplaying	-0.097247235
-5.068526	blacklivesmatter	-0.097247235
-5.068526	spotify	-0.097247235
-4.16536	pray	-0.15814443
-3.8320467	move	-0.12326473
-4.573497	feet	-0.22899535
-5.068526	legislator	-0.097247235
-4.3763285	accounts	-0.097247235
-3.5979278	tweet	-0.13099386
-4.16536	dallas	-0.097247235
-3.6993985	strength	-0.26957697
-5.068526	world-changing	-0.097247235
-3.2260618	leadership	-0.23319492
-4.3763285	ok	-0.097247235
-4.3763285	'm	-0.097247235
-5.068526	“black	-0.097247235
-5.068526	protests	-0.097247235
-4.16536	held	-0.15814443
-3.36007	across	-0.6293589
-5.068526	country”	-0.097247235
-5.068526	alton	-0.097247235
-5.068526	sterling	-0.097247235
-4.573497	eric	-0.097247235
-4.573497	garner	-0.097247235
-4.3763285	double	-0.097247235
-5.068526	standard	-0.097247235
-4.16536	side	-0.1452627
-5.068526	hustle	-0.097247235
-2.358477	-	-0.27144897
-3.5157325	washington	-0.14138927
-4.0239797	post	-0.097247235
-3.9174955	sick	-0.097247235
-4.0239797	tired	-0.33076596
-5.068526	killings	-0.097247235
-3.6993985	young	-0.17311664
-3.5157325	men	-0.30833152
-3.2457175	women	-0.1905308
-3.8320467	communities	-0.16020223
-4.0239797	board	-0.12662934
-5.068526	bret	-0.097247235
-4.3763285	brings	-0.097247235
-4.573497	class	-0.097247235
-4.16536	experience	-0.23385595
-5.068526	insight	-0.097247235
-4.573497	thoughtfulness	-0.097247235
-3.2879176	around	-0.19610684
-4.0239797	building	-0.1833928
-4.573497	social	-0.097247235
-4.573497	services	-0.097247235
-5.068526	“jesse	-0.097247235
-4.3763285	williams	-0.097247235
-3.9174955	own	-0.097247235
-5.068526	holiday”	-0.097247235
-5.068526	jessewilliamsappreciationday	-0.097247235
-5.068526	jesse	-0.097247235
-3.8320467	–	-0.097247235
-3.7606778	2016	-0.13688232
-4.573497	bet	-0.097247235
-5.068526	humanitarian	-0.097247235
-4.16536	award	-0.097247235
-3.1552856	speech	-0.2373315
-5.068526	“jr	-0.097247235
-3.9174955	takes	-0.12662934
-3.0804772	off	-0.24508676
-4.573497	shirt	-0.097247235
-4.16536	puts	-0.097247235
-2.9610674	back	-0.25035214
-5.068526	on”	-0.097247235
-5.068526	lou	-0.097247235
-5.068526	reed	-0.097247235
-5.068526	yeezus	-0.097247235
-5.068526	radiohead	-0.097247235
-4.16536	encourage	-0.097247235
-3.4466455	use	-0.21083762
-5.068526	phones	-0.097247235
-5.068526	concerts	-0.097247235
-4.16536	ask	-0.1452627
-3.6993985	fans	-0.15094075
-3.8320467	periscope	-0.15273938
-3.6457064	performance	-0.16412848
-5.068526	consequence	-0.097247235
-3.7606778	sound	-0.15094075
-4.3763285	untitled	-0.097247235
-4.3763285	founder	-0.23385595
-5.068526	fugees	-0.097247235
-5.068526	teaching	-0.097247235
-3.8320467	play	-0.1347036
-3.8320467	woman	-0.097247235
-4.573497	cry	-0.097247235
-3.4158292	oh	-0.21157132
-3.171928	going	-0.44089386
-4.573497	.user	-0.103114426
-5.068526	140	-0.097247235
-4.0239797	videos	-0.097247235
-4.573497	vine	-0.097247235
-4.573497	creators	-0.097247235
-4.573497	value	-0.097247235
-4.3763285	deep	-0.18050131
-4.3763285	research	-0.097247235
-3.4466455	keep	-0.17272227
-3.3870552	doing	-0.16228984
-3.4466455	part	-0.3077517
-4.0239797	share	-0.11841688
-5.068526	learnings	-0.097247235
-3.7606778	community	-0.1452627
-4.573497	helps	-0.097247235
-4.3763285	goal	-0.097247235
-3.2663052	making	-0.15055275
-3.36007	place	-0.20675845
-4.3763285	blown	-0.18050131
-3.3870552	away	-0.18987964
-4.573497	accomplished	-0.097247235
-3.9174955	example	-0.2322297
-4.16536	magic	-0.097247235
-5.068526	pony	-0.097247235
-5.068526	technology	-0.097247235
-3.6993985	small	-0.15951523
-5.068526	mighty	-0.097247235
-4.3763285	machine	-0.097247235
-4.0239797	london	-0.18050131
-3.5157325	email	-0.18105887
-3.4798167	senator	-0.18001755
-5.068526	disarmhate	-0.097247235
-5.068526	live📡	-0.097247235
-3.8320467	photo	-0.097247206
-4.16536	bigger	-0.097247235
-3.36007	win	-0.24606314
-4.3763285	likely	-0.097247235
-3.2457175	many	-0.15547602
-5.068526	clevgsw	-0.097247235
-5.068526	sugar	-0.097247235
-3.1392574	tax	-0.23539144
-5.068526	generated	-0.097247235
-5.068526	jazz	-0.097247235
-3.8320467	mr.	-0.1943524
-5.068526	p.c	-0.097247235
-5.068526	mono	-0.097247235
-4.3763285	version	-0.18050131
-5.068526	coltrane	-0.097247235
-5.068526	“fans	-0.097247235
-3.6993985	create	-0.30403516
-3.9174955	kanye	-0.16998982
-5.068526	birthday”	-0.097247235
-4.573497	blocked	-0.097247235
-4.573497	shots	-0.097247235
-5.068526	sportswriter	-0.097247235
-5.068526	dominates	-0.097247235
-4.16536	nyc	-0.12662934
-4.16536	clean	-0.097247235
-3.6457064	think	-0.2045133
-5.068526	أهنئ	-0.097247235
-5.068526	كل	-0.097247235
-5.068526	المسلمين	-0.097247235
-5.068526	حول	-0.097247235
-5.068526	العالم	-0.097247235
-5.068526	بمناسبة	-0.097247235
-5.068526	حلول	-0.097247235
-5.068526	شهر	-0.097247235
-5.068526	رمضان	-0.097247235
-5.068526	المبارك	-0.097247235
-5.068526	رمضان_كريم	-0.097247235
-4.573497	champions	-0.097247235
-5.068526	desiigner	-0.097247235
-4.573497	travis	-0.097247235
-4.3763285	scott	-0.097247235
-3.0804772	big	-0.14210239
-4.3763285	sean	-0.097247235
-5.068526	gucci	-0.097247235
-5.068526	mane	-0.097247235
-4.3763285	celebrating	-0.097247235
-5.068526	muhammad	-0.097247235
-4.573497	ali	-0.097247235
-5.068526	crowdrise	-0.097247235
-4.3763285	fundraiser	-0.097247235
-4.16536	greatest	-0.11266998
-5.068526	fights	-0.097247235
-5.068526	espn	-0.097247235
-3.9174955	others	-0.12326473
-5.068526	rent	-0.097247235
-3.5548885	pay	-0.16878594
-3.7606778	room	-0.097247235
-4.573497	earth	-0.22899535
-4.573497	rip	-0.097247235
-5.068526	thegreatest	-0.097247235
-4.0239797	robert	-0.1452627
-5.068526	irwin	-0.097247235
-5.068526	gswvcle	-0.097247235
-5.068526	dubnation	-0.097247235
-5.068526	neural	-0.097247235
-4.3763285	reveals	-0.097247235
-3.5157325	city	-0.22192247
-3.36007	secret	-0.22818428
-5.068526	patterns	-0.097247235
-4.16536	+	-0.097247235
-4.573497	design	-0.097247235
-5.068526	moderation	-0.097247235
-5.068526	boxer	-0.097247235
-5.068526	remastered	-0.097247235
-4.573497	bob	-0.097247235
-4.573497	dylan	-0.097247235
-3.9174955	supreme	-0.4099472
-5.068526	“tribe	-0.097247235
-5.068526	homecoming	-0.097247235
-5.068526	belonging	-0.097247235
-5.068526	unabridged	-0.097247235
-5.068526	moon	-0.097247235
-4.3763285	view	-0.097247235
-5.068526	telescope	-0.097247235
-5.068526	astronomy	-0.097247235
-4.3763285	scene	-0.097247235
-3.7606778	plane	-0.097247235
-4.573497	crash	-0.097247235
-4.573497	hudson	-0.097247235
-5.068526	river	-0.097247235
-4.0239797	yes	-0.13688232
-5.068526	clevtor	-0.097247235
-5.068526	periscopes	-0.097247235
-3.8320467	forever	-0.22798176
-5.068526	okcvgsw	-0.097247235
-3.2663052	put	-0.15814443
-4.573497	definitely	-0.097247235
-5.068526	intentional	-0.097247235
-3.4466455	@	-0.097247235
-4.573497	emerged	-0.097247235
-4.16536	hack	-0.1452627
-3.1392574	job	-0.17486021
-4.3763285	yeah	-0.15814443
-4.573497	hidden	-0.097247235
-4.16536	rules	-0.097247235
-5.068526	unexpected	-0.097247235
-3.2457175	things	-0.1588293
-4.16536	fixing	-0.097247235
-5.068526	*replies*	-0.097247235
-3.5157325	still	-0.097247235
-5.068526	narrowcasted	-0.097247235
-5.068526	organic	-0.097247235
-4.573497	mentions	-0.097247235
-4.16536	few	-0.12059174
-4.573497	changes	-0.097247235
-4.3763285	easier	-0.097247235
-4.573497	removing	-0.097247235
-5.068526	characters	-0.097247235
-5.068526	images	-0.097247235
-3.7606778	check	-0.16564493
-5.068526	appstore	-0.097247235
-4.573497	store	-0.097247235
-4.0239797	supposed	-0.51281196
-3.7606778	three	-0.12326473
-4.3763285	okay	-0.18050131
-4.573497	humanity	-0.097247235
-5.068526	hunter	-0.097247235
-5.068526	thompson	-0.097247235
-4.573497	finding	-0.097247235
-4.3763285	purpose	-0.097247235
-5.068526	friend’s	-0.097247235
-4.3763285	congrats	-0.097247235
-4.573497	42	-0.097247235
-4.0239797	project	-0.097247235
-5.068526	peer	-0.097247235
-3.8320467	based	-0.476894
-5.068526	bars	-0.097247235
-3.36007	hard	-0.25580487
-4.573497	/	-0.097247235
-5.068526	ai	-0.097247235
-5.068526	gosh	-0.097247235
-5.068526	darn	-0.097247235
-3.4466455	close	-0.19565408
-5.068526	gswvokc	-0.097247235
-4.573497	chair	-0.097247235
-5.068526	nominating/governance	-0.097247235
-4.3763285	committee	-0.097247235
-4.16536	months	-0.097247235
-5.068526	added	-0.097247235
-5.068526	announcing	-0.097247235
-3.6457064	lead	-0.16708228
-5.068526	independent	-0.097247235
-4.16536	director	-0.1452627
-3.6993985	singing	-0.097247206
-5.068526	chapitre2	-0.097247235
-5.068526	merci	-0.097247235
-5.068526	pour	-0.097247235
-5.068526	votre	-0.097247235
-5.068526	presence	-0.097247235
-5.068526	bientot	-0.097247235
-5.068526	hosting	-0.097247235
-4.16536	mother	-0.15814443
-3.6993985	excited	-0.3587947
-3.6457064	album	-0.11841688
-5.068526	colour	-0.097247235
-5.068526	♫	-0.097247235
-5.068526	1976	-0.097247235
-3.0669463	%	-0.24719323
-3.2260618	know	-0.22416662
-3.6993985	save	-0.15814443
-5.068526	title	-0.097247235
-4.3763285	sf	-0.097247235
-4.573497	tidal	-0.097247235
-4.573497	itunes	-0.097247235
-4.3763285	🏀	-0.13099386
-5.068526	houvgsw	-0.097247235
-5.068526	hardrocklover	-0.097247235
-4.3763285	prince	-0.097247235
-4.0239797	mention	-0.13099386
-5.068526	tunes	-0.097247235
-5.068526	2hrs	-0.097247235
-5.068526	beats1	-0.097247235
-5.068526	peer-to-peer	-0.097247235
-4.573497	payment	-0.097247235
-3.4466455	system	-0.21568152
-4.3763285	sweet	-0.097247235
-5.068526	setup	-0.097247235
-3.3870552	stop	-0.1463943
-4.0239797	wo	-0.51281196
-3.9174955	leave	-0.097247235
-4.573497	auto	-0.097247235
-5.068526	updates	-0.097247235
-5.068526	“draymond	-0.097247235
-3.9174955	green	-0.097247235
-4.573497	teaches	-0.097247235
-5.068526	trash	-0.097247235
-5.068526	gswvhou	-0.097247235
-2.7766995	she	-0.33830976
-4.573497	md	-0.097247235
-4.16536	china	-0.097247235
-3.6457064	stand	-0.22006467
-5.068526	teamironman	-0.097247235
-5.068526	tweetme	-0.097247235
-3.7606778	apple	-0.12662934
-5.068526	android	-0.097247235
-5.068526	coachella	-0.097247235
-5.068526	vendor	-0.097247235
-5.068526	additions	-0.097247235
-3.310662	soon	-0.3406369
-4.16536	ones	-0.097247235
-3.5548885	bring	-0.13753444
-5.068526	diversity	-0.097247235
-3.8320467	represent	-0.1943524
-4.16536	matters	-0.15814443
-5.068526	🍿🏀🏀👋🏼	-0.097247235
-5.068526	gswvsas	-0.097247235
-4.0239797	saving	-0.097247235
-4.573497	bunch	-0.22899535
-3.8320467	billion	-0.16020223
-4.573497	devices	-0.097247235
-3.9174955	meet	-0.12551524
-5.068526	correspondents	-0.097247235
-3.2879176	talking	-0.34926867
-5.068526	thirdmonthmania	-0.097247235
-5.068526	“charles	-0.097247235
-5.068526	barkley	-0.097247235
-5.068526	urges	-0.097247235
-4.0239797	nba	-0.097247235
-5.068526	anti-lgbt	-0.097247235
-5.068526	law”	-0.097247235
-3.6993985	ahead	-0.20106347
-5.068526	cs229	-0.097247235
-5.068526	stanford	-0.097247235
-5.068526	exploring	-0.097247235
-5.068526	itunesu	-0.097247235
-4.0239797	private	-0.097247235
-4.3763285	conversation	-0.097247235
-4.0239797	quickly	-0.13688232
-5.068526	✉️	-0.097247235
-3.3870552	next	-0.16910656
-3.9174955	❤️	-0.16998982
-3.8320467	20	-0.12662934
-3.9174955	weeks	-0.12662934
-5.068526	parental	-0.097247235
-4.0239797	thursday	-0.19925423
-3.0944433	night	-0.26905423
-4.16536	games	-0.097247235
-5.068526	twitter…right	-0.097247235
-5.068526	🏈🐦📺	-0.097247235
-5.068526	ios	-0.097247235
-5.068526	9.3	-0.097247235
-5.068526	amazingly	-0.097247235
-5.068526	convenient	-0.097247235
-4.0239797	insane	-0.097247235
-5.068526	nationalchampionship	-0.097247235
-4.573497	minute	-0.097247235
-5.068526	“live	-0.097247235
-5.068526	villanova	-0.097247235
-4.3763285	vs.	-0.097247235
-5.068526	“elon	-0.097247235
-5.068526	musk	-0.097247235
-5.068526	shares	-0.097247235
-4.0239797	details	-0.097247235
-4.573497	model	-0.097247235
-5.068526	3”	-0.097247235
-4.16536	ride	-0.15814443
-5.068526	model3	-0.097247235
-5.068526	developers	-0.097247235
-3.7606778	build	-0.1452627
-5.068526	custom	-0.097247235
-3.9174955	including	-0.097247235
-5.068526	waaaay	-0.097247235
-4.16536	late	-0.13099386
-5.068526	slime	-0.097247235
-4.16536	season	-0.097247235
-3.3346636	3	-0.12940165
-5.068526	api	-0.097247235
-3.8320467	online	-0.097247235
-5.068526	apps	-0.097247235
-4.573497	offline	-0.097247235
-5.068526	👋🏼	-0.097247235
-3.310662	year	-0.19427733
-3.2663052	friends	-0.23327048
-4.573497	nominate	-0.097247235
-5.068526	performed	-0.097247235
-5.068526	extraordinary	-0.097247235
-5.068526	kindness	-0.097247235
-5.068526	a1	-0.097247235
-3.3870552	since	-0.17873752
-5.068526	codecamp	-0.097247235
-4.573497	🎧	-0.097247235
-5.068526	tweetjohn	-0.097247235
-5.068526	broadcasts	-0.097247235
-3.8320467	offers	-0.097247235
-5.068526	flexible	-0.097247235
-5.068526	loans	-0.097247235
-4.3763285	bank	-0.097247235
-3.9174955	visit	-0.16020223
-5.068526	senseless	-0.097247235
-4.573497	heartbreaking	-0.097247235
-5.068526	lahoreblast	-0.097247235
-5.068526	pakistan	-0.097247235
-5.068526	🚲✌🏼️	-0.097247235
-5.068526	yearone	-0.097247235
-3.9174955	asking	-0.097247235
-5.068526	striking	-0.097247235
-4.16536	positive	-0.097247235
-4.16536	impact	-0.097247235
-5.068526	⚡️⚡️⚡️	-0.097247235
-5.068526	…twitter	-0.097247235
-5.068526	democratizes	-0.097247235
-5.068526	shakes	-0.097247235
-5.068526	genteel	-0.097247235
-5.068526	inertia	-0.097247235
-5.068526	modern	-0.097247235
-3.4798167	political	-0.097247235
-4.573497	dialogue	-0.097247235
-3.4798167	worse	-0.27268293
-4.0239797	hearts	-0.12662934
-5.068526	belgium	-0.097247235
-3.8320467	victims	-0.29126242
-3.6457064	terrible	-0.11661278
-3.4798167	families	-0.19551454
-5.068526	ikwilhelpen	-0.097247235
-5.068526	🇧🇪	-0.097247235
-3.5548885	massive	-0.1347036
-4.573497	rainbow	-0.097247235
-5.068526	lovetwitter	-0.097247235
-5.068526	satya	-0.097247235
-5.068526	blacktwitter	-0.097247235
-5.068526	human-written	-0.097247235
-3.7606778	sent	-0.19212663
-5.068526	onward	-0.097247235
-4.573497	marks	-0.22899535
-3.6993985	created	-0.17311664
-4.0239797	chris	-0.097247235
-5.068526	lot	-0.097247235
-4.573497	gratitude	-0.097247235
-4.3763285	journalists	-0.097247235
-3.9174955	especially	-0.097247235
-4.573497	citizen	-0.097247235
-4.0239797	creating	-0.097247235
-5.068526	defining	-0.097247235
-4.573497	stance	-0.097247235
-4.0239797	built	-0.097247235
-5.068526	smartest	-0.097247235
-5.068526	creative	-0.097247235
-4.573497	teams	-0.097247235
-3.9174955	understand	-0.097247235
-5.068526	discovering	-0.097247235
-4.0239797	supporter	-0.097247235
-4.573497	generous	-0.097247235
-3.6993985	voice	-0.16564493
-4.0239797	turning	-0.097247235
-3.0669463	into	-0.24752499
-5.068526	scalable	-0.097247235
-3.5548885	care	-0.11909535
-4.0239797	throughout	-0.097247235
-3.7606778	start	-0.11661278
-5.068526	ff	-0.097247235
-5.068526	sorcery	-0.097247235
-4.3763285	needed	-0.097247235
-4.16536	2008	-0.1452627
-5.068526	creativity	-0.097247235
-4.573497	curiosity	-0.097247235
-5.068526	trends	-0.097247235
-5.068526	summize	-0.097247235
-4.16536	introducing	-0.097247235
-4.3763285	rt	-0.1452627
-4.573497	retweet	-0.097247235
-3.9174955	giving	-0.097247235
-5.068526	machines	-0.097247235
-5.068526	systems	-0.097247235
-4.16536	scale	-0.097247235
-4.573497	engineering	-0.097247235
-4.573497	commitment	-0.097247235
-5.068526	coolest	-0.097247235
-4.573497	scientist	-0.097247235
-3.8320467	bringing	-0.16564493
-4.573497	pair	-0.22899535
-5.068526	programming	-0.097247235
-5.068526	agility	-0.097247235
-5.068526	org	-0.097247235
-4.573497	hashtag	-0.097247235
-3.7606778	name	-0.12326473
-4.16536	brother	-0.15814443
-3.8320467	code	-0.14309143
-3.8320467	helped	-0.097247235
-5.068526	tab	-0.097247235
-5.068526	enabling	-0.097247235
-5.068526	mentorship	-0.097247235
-5.068526	engineers	-0.097247235
-4.573497	odeo	-0.097247235
-5.068526	activism	-0.097247235
-5.068526	brilliance	-0.097247235
-4.3763285	organization	-0.097247235
-3.8320467	early	-0.13099386
-3.9174955	idea	-0.097247235
-3.2663052	real	-0.1502698
-5.068526	jokes	-0.097247235
-3.9174955	official	-0.097247235
-5.068526	employee	-0.097247235
-5.068526	inc	-0.097247235
-5.068526	reminders	-0.097247235
-4.16536	mentor	-0.15814443
-4.573497	constantly	-0.097247235
-4.3763285	encouraging	-0.097247235
-4.3763285	focus	-0.097247235
-3.9174955	driving	-0.097247235
-5.068526	humor	-0.097247235
-5.068526	inspiration	-0.097247235
-4.16536	principles	-0.097247235
-4.3763285	brand	-0.18050131
-5.068526	culture	-0.097247235
-4.0239797	writing	-0.097247235
-4.573497	majority	-0.15814443
-5.068526	hamburg	-0.097247235
-4.16536	drive	-0.097247235
-4.573497	passion	-0.097247235
-5.068526	naming	-0.097247235
-4.3763285	luck	-0.097247235
-4.573497	10th	-0.097247235
-5.068526	tm	-0.097247235
-3.4798167	ready	-0.3844004
-5.068526	“washington	-0.097247235
-4.573497	scotus	-0.097247235
-3.310662	fight	-0.26629746
-5.068526	twitter”	-0.097247235
-4.16536	oppose	-0.097247235
-4.0239797	forms	-0.1452627
-5.068526	veto	-0.097247235
-5.068526	757.	-0.097247235
-3.5157325	proud	-0.3657128
-5.068526	lgbtqally	-0.097247235
-3.7606778	using	-0.17311664
-4.573497	iconic	-0.097247235
-5.068526	pigeons	-0.097247235
-4.0239797	wearing	-0.097247235
-4.573497	tiny	-0.097247235
-5.068526	backpacks	-0.097247235
-3.6993985	air	-0.26957697
-4.573497	pollution	-0.097247235
-4.573497	saint	-0.097247235
-5.068526	150	-0.097247235
-3.7606778	growing	-0.1452627
-5.068526	recommends	-0.097247235
-3.5979278	8	-0.20343348
-5.068526	equivalent	-0.097247235
-5.068526	sleeping	-0.097247235
-4.573497	richard	-0.097247235
-5.068526	linklater	-0.097247235
-4.573497	baseball	-0.097247235
-3.8320467	college	-0.13099386
-4.573497	film	-0.22899535
-5.068526	29-time	-0.097247235
-4.16536	sec	-0.15814443
-5.068526	tournament	-0.097247235
-5.068526	jada	-0.097247235
-5.068526	imani	-0.097247235
-4.3763285	m	-0.097247235
-5.068526	treasures	-0.097247235
-5.068526	buildgala	-0.097247235
-5.068526	boulettes	-0.097247235
-5.068526	larder	-0.097247235
-4.573497	hell	-0.097247235
-5.068526	talmbout	-0.097247235
-5.068526	instrumental	-0.097247235
-5.068526	wondaland	-0.097247235
-4.3763285	records	-0.097247235
-5.068526	strange	-0.097247235
-4.573497	surprising	-0.097247235
-3.36007	history	-0.2879108
-5.068526	daylight	-0.097247235
-5.068526	geographic	-0.097247235
-4.3763285	block	-0.097247235
-4.573497	el-p	-0.097247235
-4.573497	remix	-0.097247235
-5.068526	redux	-0.097247235
-4.16536	camp	-0.097247235
-5.068526	nou	-0.097247235
-4.3763285	storms	-0.18050131
-5.068526	gauge	-0.097247235
-4.573497	damage	-0.097247235
-5.068526	disasters	-0.097247235
-5.068526	study	-0.097247235
-3.5157325	says	-0.11266998
-5.068526	wsj	-0.097247235
-2.930825	america	-0.33871827
-5.068526	classrooms	-0.097247235
-3.5979278	deserve	-0.1620605
-3.9174955	funding	-0.097247235
-4.3763285	projects	-0.097247235
-3.2663052	home	-0.20245187
-3.1237998	state	-0.2244692
-4.0239797	missouri	-0.13099386
-3.2663052	join	-0.40775704
-5.068526	bestschoolday	-0.097247235
-3.5979278	forward	-0.16564493
-5.068526	phenomenal	-0.097247235
-5.068526	iwd2016	-0.097247235
-5.068526	gswvorl	-0.097247235
-5.068526	🇦🇺	-0.097247235
-5.068526	02	-0.097247235
-5.068526	06.23.2014.	-0.097247235
-4.0239797	curry	-0.13099386
-5.068526	cheat	-0.097247235
-5.068526	2k	-0.097247235
-5.068526	lalvgsw	-0.097247235
-4.573497	everywhere	-0.097247235
-5.068526	bananas	-0.097247235
-4.16536	boys	-0.15814443
-4.573497	basketball	-0.097247235
-3.5979278	goes	-0.17989664
-4.3763285	4th	-0.1452627
-5.068526	ot	-0.097247235
-5.068526	full-court	-0.097247235
-3.6993985	shot	-0.17141995
-3.4466455	won	-0.22449504
-5.068526	buzzer-beating	-0.097247235
-5.068526	01	-0.097247235
-5.068526	l	-0.097247235
-5.068526	08.19.2014.	-0.097247235
-3.2457175	look	-0.22009617
-3.5548885	may	-0.16878594
-4.16536	t	-0.097247235
-5.068526	wifi	-0.097247235
-4.0239797	spirit	-0.13688232
-5.068526	broadly	-0.097247235
-4.0239797	companies	-0.13688232
-5.068526	+19	-0.097247235
-4.3763285	lift	-0.13688232
-4.573497	satisfaction	-0.097247235
-3.7606778	seen	-0.15005432
-5.068526	fastest	-0.097247235
-3.8320467	ways	-0.097247235
-4.16536	huge	-0.097247235
-4.3763285	provide	-0.097247235
-5.068526	dms	-0.097247235
-4.573497	seemingly	-0.097247235
-5.068526	tormented	-0.097247235
-4.3763285	inner	-0.18050131
-5.068526	monologue	-0.097247235
-4.16536	park	-0.1452627
-5.068526	cpt	-0.097247235
-5.068526	watts	-0.097247235
-3.8320467	5	-0.097247235
-3.5979278	line	-0.097247235
-5.068526	stephgonnasteph	-0.097247235
-4.0239797	pop	-0.20288022
-3.2072575	does	-0.3107829
-5.068526	5-point	-0.097247235
-3.8320467	via	-0.22798176
-4.573497	option	-0.097247235
-3.0944433	some	-0.23880197
-3.5979278	cash	-0.1833928
-5.068526	instantly	-0.097247235
-5.068526	debit	-0.097247235
-5.068526	whenever	-0.097247235
-5.068526	spacex	-0.097247235
-5.068526	launch	-0.097247235
-3.36007	watching	-0.1712377
-5.068526	oscars	-0.097247235
-5.068526	justiceforflint	-0.097247235
-5.068526	africatv	-0.097247235
-5.068526	launch/landing	-0.097247235
-3.8320467	kids	-0.13099386
-4.16536	sell	-0.097247235
-5.068526	lemonade	-0.097247235
-3.1237998	he	-0.19613425
-4.3763285	starts	-0.097247235
-5.068526	chain	-0.097247235
-4.573497	york	-0.115092054
-3.36007	times	-0.12662934
-5.068526	lede	-0.097247235
-4.573497	steph	-0.22899535
-5.068526	ruthless	-0.097247235
-5.068526	hyper-coordinated	-0.097247235
-5.068526	cyborg	-0.097247235
-4.16536	designed	-0.41590193
-5.068526	wreak	-0.097247235
-5.068526	havoc	-0.097247235
-3.5157325	long	-0.11168982
-5.068526	distances	-0.097247235
-5.068526	🤖🏀☄	-0.097247235
-4.3763285	headline	-0.097247235
-5.068526	uncorks	-0.097247235
-5.068526	game-winner	-0.097247235
-4.16536	sets	-0.097247235
-3.310662	record	-0.1426906
-5.068526	crushes	-0.097247235
-5.068526	thunder’s	-0.097247235
-5.068526	soul	-0.097247235
-5.068526	peers	-0.097247235
-5.068526	awe	-0.097247235
-5.068526	nbatwitter	-0.097247235
-4.573497	visual	-0.097247235
-5.068526	gswatokc	-0.097247235
-5.068526	weezy	-0.097247235
-4.3763285	meets	-0.18050131
-3.1392574	ever	-0.16265166
-5.068526	stephencurry	-0.097247235
-5.068526	february	-0.097247235
-5.068526	halfway	-0.097247235
-5.068526	lupita	-0.097247235
-5.068526	nyong’o	-0.097247235
-5.068526	trevor	-0.097247235
-5.068526	noah	-0.097247235
-4.573497	meaningful	-0.097247235
-5.068526	roles	-0.097247235
-5.068526	⚽️	-0.097247235
-5.068526	premier	-0.097247235
-4.573497	league	-0.097247235
-4.573497	upcoming	-0.097247235
-5.068526	tapping/clicking	-0.097247235
-5.068526	bpl	-0.097247235
-5.068526	tip	-0.097247235
-5.068526	fml	-0.097247235
-5.068526	vines	-0.097247235
-5.068526	doc	-0.097247235
-5.068526	rivers	-0.097247235
-5.068526	pregame	-0.097247235
-3.8320467	press	-0.14067157
-4.16536	conference	-0.097247235
-5.068526	clippers	-0.097247235
-5.068526	nuggets	-0.097247235
-5.068526	◻️	-0.097247235
-4.3763285	newest	-0.097247235
-4.573497	ruth	-0.097247235
-5.068526	simmons	-0.097247235
-3.5979278	joined	-0.30352542
-3.4466455	run	-0.20068295
-4.573497	winners	-0.097247235
-4.573497	fortunately	-0.097247235
-5.068526	archive	-0.097247235
-3.6457064	continues	-0.81384194
-5.068526	developer	-0.097247235
-4.3763285	tools	-0.097247235
-4.0239797	delivered	-0.1452627
-5.068526	settings	-0.097247235
-5.068526	personalized	-0.097247235
-4.3763285	welcoming	-0.18050131
-4.16536	vp	-0.097247235
-4.573497	communications	-0.097247235
-5.068526	warmup	-0.097247235
-3.3346636	him	-0.19799678
-3.9174955	issue	-0.13688232
-3.5548885	give	-0.16334493
-5.068526	nps/csat	-0.097247235
-3.7606778	ratings	-0.16363208
-3.9174955	visiting	-0.2820615
-2.9406736	president	-0.3830577
-5.068526	madam	-0.097247235
-4.3763285	lady	-0.097247235
-4.0239797	works	-0.16758539
-4.573497	copy	-0.097247235
-5.068526	pasting	-0.097247235
-5.068526	gifs	-0.097247235
-5.068526	tweetbox	-0.097247235
-3.4158292	states	-0.14812234
-3.9174955	king	-0.13688232
-3.7606778	hit	-0.18194461
-4.3763285	grammy	-0.097247235
-5.068526	tl	-0.097247235
-5.068526	catching	-0.097247235
-4.0239797	dc	-0.13688232
-4.16536	transition	-0.097247235
-3.4798167	office	-0.22701402
-3.8320467	friend	-0.15439531
-2.8591726	tomorrow	-0.42318088
-4.16536	cincinnati	-0.20288022
-3.171928	indiana	-0.25862145
-4.0239797	afternoon	-0.15314458
-3.8320467	exciting	-0.12059174
-4.16536	announcement	-0.097247235
-2.8429654	trump	-0.24317876
-4.573497	tower	-0.097247235
-4.16536	busy	-0.097247235
-5.068526	announcements	-0.097247235
-3.5979278	already	-0.097247235
-3.4466455	come	-0.21496102
-3.8320467	prayers	-0.24625278
-5.068526	recovering	-0.097247235
-3.3870552	ohio	-0.23560148
-3.5979278	action	-0.17349885
-3.1552856	law	-0.32643518
-4.3763285	enforcement	-0.115092054
-5.068526	saved	-0.097247235
-4.573497	innocent	-0.097247235
-5.068526	restful	-0.097247235
-3.2457175	family	-0.19087431
-4.16536	meetings	-0.097247235
-5.068526	president-elect…	-0.097247235
-5.068526	tyrant	-0.097247235
-4.573497	castro	-0.22899535
-5.068526	dawns	-0.097247235
-5.068526	oppressed	-0.097247235
-4.3763285	cuban	-0.18050131
-4.573497	democratic	-0.097247235
-3.9174955	cuba	-0.15094075
-5.068526	viva	-0.097247235
-5.068526	libre	-0.097247235
-4.3763285	blessings	-0.097247235
-3.5157325	freedom	-0.20357925
-3.5979278	faith	-0.18962151
-5.068526	y…	-0.097247235
-4.573497	difference	-0.097247235
-4.16536	everyday	-0.15814443
-4.3763285	indy	-0.097247235
-4.16536	inspiring	-0.097247235
-3.1088736	w/	-0.16966072
-3.171928	way	-0.2759609
-4.573497	treasure	-0.097247235
-4.3763285	talent	-0.097247235
-4.16536	in…	-0.41590193
-4.0239797	heading	-0.30833152
-3.0944433	again	-0.3287902
-4.16536	productive	-0.1452627
-4.3763285	maga	-0.12410759
-3.8320467	'll	-0.1682173
-3.6457064	et	-0.229931
-3.6457064	policy	-0.097247235
-3.5157325	plans	-0.22979721
-3.6993985	100	-0.27913427
-3.1088736	days	-0.2598331
-4.16536	headquarters	-0.097247235
-4.0239797	9	-0.097247235
-3.8320467	am	-0.10820732
-4.573497	capitol	-0.097247235
-5.068526	hill	-0.097247235
-4.0239797	senate	-0.16998982
-3.2260618	together	-0.32770866
-4.573497	ag…	-0.22899535
-3.5979278	gop	-0.115092054
-5.068526	governors	-0.097247235
-4.16536	discussing	-0.15814443
-3.9174955	president-elect	-0.35716844
-3.0944433	plan	-0.26443523
-4.573497	partner	-0.097247235
-3.5548885	to…	-0.8930232
-3.5157325	honor	-0.21536012
-5.068526	worn	-0.097247235
-4.573497	uniform	-0.097247235
-3.8320467	united	-0.13099386
-3.4466455	veterans	-0.19032128
-3.6457064	grateful	-0.3743123
-4.16536	wife	-0.1452627
-3.9174955	karen	-0.14067157
-4.16536	daughter	-0.13688232
-3.6457064	charlotte	-0.16878594
-5.068526	duties	-0.097247235
-4.573497	wil…	-0.22899535
-4.16536	owe	-0.15814443
-3.9174955	god	-0.15439531
-4.3763285	parents	-0.097247235
-5.068526	fo…	-0.097247235
-5.068526	invitation	-0.097247235
-4.573497	appreciated	-0.097247235
-4.16536	warm	-0.20288022
-4.3763285	reception	-0.097247235
-4.16536	staff	-0.15814443
-3.8320467	spoke	-0.17311664
-5.068526	discussed	-0.097247235
-5.068526	longstanding	-0.097247235
-4.3763285	relationship	-0.097247235
-4.3763285	uk	-0.13688232
-4.573497	eager	-0.22899535
-4.16536	alongside	-0.097247235
-5.068526	strive	-0.097247235
-5.068526	safer	-0.097247235
-5.068526	pr…	-0.097247235
-5.068526	partnering	-0.097247235
-5.068526	boarding	-0.097247235
-4.0239797	force	-0.097247235
-5.068526	depart	-0.097247235
-3.9174955	d.c.	-0.15094075
-3.8320467	vice	-0.25447854
-3.5979278	then	-0.14678515
-5.068526	head…	-0.097247235
-4.16536	father	-0.097247235
-5.068526	marine	-0.097247235
-5.068526	241	-0.097247235
-3.9174955	defending	-0.16020223
-3.6457064	nation	-0.22244245
-5.068526	happybirthdaymarines	-0.097247235
-4.16536	congratulations	-0.13099386
-3.2663052	governor	-0.37806213
-3.7606778	leader	-0.18242678
-4.16536	moving	-0.15814443
-5.068526	returns	-0.097247235
-4.16536	hq	-0.15814443
-5.068526	electionnight	-0.097247235
-5.068526	outcome	-0.097247235
-3.8320467	historic	-0.097247235
-5.068526	rests	-0.097247235
-3.9174955	hands	-0.13688232
-4.3763285	stronger	-0.097247235
-3.9174955	cast	-0.21018285
-4.573497	for…	-0.22899535
-4.0239797	landed	-0.33076596
-5.068526	journey	-0.097247235
-4.573497	crossroads	-0.097247235
-5.068526	.…	-0.097247235
-4.3763285	polling	-0.097247235
-5.068526	will…	-0.097247235
-3.9174955	tune	-0.23385595
-5.068526	bike	-0.097247235
-4.573497	kick	-0.22899535
-5.068526	gt	-0.097247235
-5.068526	booth	-0.097247235
-3.4466455	polls	-0.16644925
-4.3763285	grab	-0.097247235
-4.16536	neighbors	-0.097247235
-3.5979278	each	-0.23988953
-3.9174955	grand	-0.2322297
-4.573497	rapids	-0.18050131
-4.3763285	mi	-0.12662934
-3.0944433	rally	-0.32885748
-3.171928	campaign	-0.20172006
-3.9174955	and…	-0.5919932
-5.068526	hampshire	-0.097247235
-5.068526	mic…	-0.097247235
-3.0287127	crowd	-0.38774738
-4.573497	gathered	-0.097247235
-5.068526	snhu	-0.097247235
-4.16536	arena	-0.13099386
-4.0239797	manchester	-0.1452627
-4.16536	nh	-0.16878594
-4.3763285	solo	-0.18050131
-3.6993985	comes	-0.21429352
-5.068526	makeamericagreatagain	-0.097247206
-4.573497	erie	-0.22899535
-3.9174955	pa	-0.15224169
-3.8320467	a…	-0.65894
-3.6993985	stage	-0.1578572
-4.573497	traverse	-0.22899535
-3.7606778	book	-0.15094075
-2.9610674	clinton	-0.19063282
-3.8320467	corruption	-0.16020223
-5.068526	sending…	-0.097247235
-4.16536	chill	-0.15814443
-5.068526	trumppence16	-0.097247235
-3.310662	supporters	-0.24151237
-4.16536	rallying	-0.1452627
-5.068526	duluth	-0.097247235
-3.7606778	momentum	-0.12326473
-3.9174955	minnesota	-0.097247235
-4.0239797	mn	-0.13688232
-3.8320467	facing	-0.16020223
-4.573497	skyrocketing	-0.097247235
-4.3763285	healthcare	-0.097247235
-3.4798167	costs	-0.16334493
-3.4158292	obamacare	-0.16954301
-3.9174955	repeal	-0.24761347
-4.3763285	lock	-0.18050131
-4.3763285	stock	-0.097247235
-5.068526	barrel	-0.097247235
-4.3763285	airport	-0.097247235
-5.068526	hanger	-0.097247235
-3.4798167	left	-0.14526267
-3.8320467	michigan	-0.24188724
-3.5548885	pennsylvania	-0.20842691
-5.068526	derry-windham	-0.097247235
-5.068526	manche…	-0.097247235
-3.5157325	special	-0.13099386
-4.16536	guest	-0.097247235
-4.573497	hickory	-0.097247235
-3.8320467	nc	-0.15581974
-3.4466455	beautiful	-0.12326473
-3.7606778	potus	-0.16363208
-3.5157325	conservative	-0.17694177
-5.068526	practice	-0.097247235
-5.068526	touched	-0.097247235
-4.3763285	regional	-0.18050131
-4.573497	carolina	-0.11006118
-3.6993985	…	-0.76808447
-4.573497	panama	-0.22899535
-4.0239797	leading	-0.13099386
-3.4466455	future	-0.23069589
-3.4158292	florida	-0.26199418
-4.16536	glad	-0.2322297
-4.0239797	spend	-0.12662934
-4.16536	fl	-0.13099386
-4.16536	district	-0.15814443
-4.3763285	congressman	-0.097247235
-5.068526	neal	-0.097247235
-5.068526	dunn	-0.097247235
-5.068526	lik…	-0.097247235
-4.0239797	stopping	-0.2322297
-5.068526	pier	-0.097247235
-3.8320467	beach	-0.27913427
-3.9174955	folks	-0.1452627
-4.0239797	enjoying	-0.12662934
-4.573497	sunshine	-0.097247235
-5.068526	1pm	-0.097247235
-5.068526	cst	-0.097247235
-3.9174955	doors	-0.13099386
-5.068526	6:30pm	-0.097247235
-4.3763285	3pm	-0.097247235
-3.5979278	tickets	-0.3745881
-4.16536	wheels	-0.2651057
-5.068526	edgewater	-0.097247235
-4.16536	golf	-0.097247235
-5.068526	resort	-0.097247235
-5.068526	11am	-0.097247235
-3.9174955	everybody	-0.097247235
-5.068526	ok.	-0.097247235
-4.16536	swift	-0.097247235
-4.3763285	response	-0.18050131
-5.068526	no…	-0.097247235
-3.6993985	honored	-0.29850492
-4.573497	retired	-0.097247235
-4.3763285	lt.	-0.18050131
-5.068526	col.	-0.097247235
-5.068526	dorfman	-0.097247235
-5.068526	purple	-0.097247235
-4.573497	earned	-0.097247235
-4.573497	combat	-0.097247235
-5.068526	tha…	-0.097247235
-4.573497	george	-0.097247235
-4.573497	mason	-0.097247235
-4.573497	university	-0.097247235
-4.16536	path	-0.097247235
-3.5157325	victory	-0.22137932
-3.3870552	virginia	-0.21892028
-5.068526	day…	-0.097247235
-3.6457064	rallies	-0.15314458
-4.3763285	overflow	-0.18050131
-5.068526	fairfax	-0.097247235
-3.9174955	va	-0.13099386
-4.573497	excitement	-0.097247235
-3.9174955	track	-0.113792844
-5.068526	roy	-0.097247235
-4.573497	nov.	-0.097247235
-5.068526	mosen	-0.097247235
-4.0239797	volunteer	-0.13688232
-3.6457064	calls	-0.115092054
-4.16536	weekend	-0.15814443
-4.3763285	hardworking	-0.097247235
-3.9174955	volunteers	-0.15094075
-4.573497	banking	-0.097247235
-5.068526	richmond	-0.097247235
-3.3346636	call	-0.16724992
-5.068526	closer	-0.097247235
-5.068526	making…	-0.097247235
-4.3763285	va.	-0.13099386
-3.8320467	6pm	-0.21429352
-3.5979278	republicans	-0.12795305
-3.5979278	coming	-0.1821512
-5.068526	nat…	-0.097247235
-3.6993985	wisconsin	-0.18799809
-5.068526	republicans…	-0.097247235
-5.068526	holland	-0.097247235
-3.8320467	wi	-0.13099386
-4.573497	closing	-0.097247235
-4.573497	argument	-0.097247235
-4.16536	miami	-0.16998982
-3.7606778	administration	-0.1393738
-5.068526	hemispher…	-0.097247235
-4.16536	executive	-0.097247235
-4.573497	orders	-0.097247235
-3.6993985	continue	-0.32489178
-4.573497	embargo	-0.097247235
-3.7606778	until	-0.1452627
-4.3763285	religious	-0.18050131
-4.3763285	stopped	-0.1452627
-4.3763285	famous	-0.097247235
-4.3763285	cafe	-0.097247235
-5.068526	versailles	-0.097247235
-3.4466455	little	-0.097247235
-5.068526	havana	-0.097247235
-4.3763285	trail	-0.18050127
-4.573497	greenville	-0.097247235
-5.068526	'women	-0.097247235
-4.3763285	bus	-0.18050131
-5.068526	cris…	-0.097247235
-5.068526	lansing	-0.097247235
-5.068526	wrapping	-0.097247235
-3.9174955	gov	-0.4099472
-4.3763285	sunday	-0.097247235
-4.3763285	tuesday	-0.097247235
-3.310662	government	-0.16553608
-5.068526	stump	-0.097247235
-4.573497	kalamazoo	-0.22899535
-3.7606778	melania	-0.14685997
-3.7606778	promise	-0.18242678
-5.068526	togeth…	-0.097247235
-5.068526	shoulder-to-shoulder	-0.097247235
-5.068526	conserv…	-0.097247235
-4.573497	pa.	-0.097247235
-5.068526	prole	-0.097247235
-4.0239797	ia	-0.15314458
-3.8320467	choose	-0.22798176
-5.068526	defense…	-0.097247235
-3.9174955	campaigning	-0.13688232
-5.068526	bruere	-0.097247235
-4.3763285	farm	-0.097247235
-5.068526	loveland	-0.097247235
-4.3763285	co	-0.097247235
-3.8320467	bold	-0.15094075
-5.068526	lov…	-0.097247235
-5.068526	sporting	-0.097247235
-5.068526	paint	-0.097247235
-5.068526	stop…	-0.097247235
-4.16536	rain	-0.097247235
-4.3763285	las	-0.23385595
-5.068526	cruces	-0.097247235
-4.3763285	nm	-0.15814443
-5.068526	cusp	-0.097247235
-3.36007	incredible	-0.16927287
-5.068526	historic…	-0.097247235
-4.573497	icymi	-0.13688232
-4.0239797	discuss	-0.16564493
-5.068526	catch	-0.097247235
-4.573497	mesa	-0.22899535
-5.068526	az	-0.097247235
-3.2879176	while	-0.115092054
-5.068526	climb	-0.097247235
-5.068526	back…	-0.097247235
-3.5979278	arizona	-0.19430596
-5.068526	fallen	-0.097247235
-3.4798167	iowa	-0.21190721
-3.7606778	officers	-0.124844834
-4.573497	responders	-0.097247235
-3.8320467	mexico	-0.21815489
-3.5979278	colorado	-0.19255613
-4.573497	youngwood	-0.097247235
-3.4466455	choice	-0.20903236
-5.068526	couldn’t	-0.097247235
-5.068526	7.5	-0.097247235
-5.068526	years—more	-0.097247235
-3.5157325	taxes	-0.27964082
-3.3870552	spending	-0.26392868
-5.068526	regulati…	-0.097247235
-3.36007	republican	-0.1600349
-4.3763285	effort	-0.18050131
-5.068526	much-needed	-0.097247235
-4.3763285	market	-0.097247235
-4.3763285	reforms	-0.097247235
-4.573497	h…	-0.22899535
-4.573497	2010	-0.097247235
-4.573497	suffering	-0.097247235
-3.3870552	economic	-0.1597899
-4.573497	burden	-0.097247235
-3.310662	its	-0.097247235
-5.068526	runaway	-0.097247235
-3.8320467	higher	-0.16998982
-3.9174955	premiums	-0.1452627
-4.573497	fewer	-0.22899535
-4.16536	choices	-0.097247235
-4.573497	joint	-0.097247235
-5.068526	stops	-0.097247235
-5.068526	prussia	-0.097247235
-5.068526	adorable	-0.097247235
-5.068526	trick-or-treaters	-0.097247235
-4.573497	clearwater	-0.097247235
-4.3763285	halloween	-0.097247235
-3.9174955	white	-0.25033957
-3.3870552	energy	-0.151103
-5.068526	bullhorn	-0.097247235
-3.5979278	enough	-0.2820615
-5.068526	cl…	-0.097247235
-4.573497	onto	-0.097247235
-3.4798167	fighting	-0.19166082
-5.068526	yearning	-0.097247235
-5.068526	bett…	-0.097247235
-3.7606778	tremendous	-0.13370174
-5.068526	waves	-0.097247235
-4.573497	maitland	-0.097247235
-4.16536	fired	-0.15814443
-3.8320467	space	-0.11661278
-4.3763285	coast	-0.097247235
-5.068526	blasting	-0.097247235
-4.573497	l…	-0.22899535
-4.16536	we’re	-0.13688232
-5.068526	relaunch	-0.097247235
-4.0239797	council	-0.20288022
-4.0239797	headed	-0.2322297
-5.068526	frontier	-0.097247235
-4.573497	expand	-0.097247235
-5.068526	public-private	-0.097247235
-5.068526	partnerships	-0.097247235
-5.068526	nasa	-0.097247235
-4.16536	mission	-0.097247235
-5.068526	exploration	-0.097247235
-3.3870552	convention	-0.1537695
-3.5157325	center	-0.26498634
-5.068526	cocoa	-0.097247235
-5.068526	wishing	-0.097247235
-5.068526	happyhalloween	-0.097247235
-4.3763285	aboard	-0.097247235
-4.573497	2.	-0.097247235
-5.068526	near	-0.097247235
-5.068526	ha…	-0.097247235
-3.8320467	proven	-0.16020223
-3.7606778	success	-0.14685997
-3.36007	knows	-0.19255613
-5.068526	bounds	-0.097247235
-3.4466455	hoosier	-0.22798176
-5.068526	wit…	-0.097247235
-5.068526	rochester	-0.097247235
-4.3763285	voices	-0.2909632
-4.3763285	bright	-0.097247235
-4.573497	nation.…	-0.22899535
-4.573497	participating	-0.22899535
-5.068526	runwiththemarines	-0.097247235
-5.068526	studio	-0.097247235
-5.068526	stretch	-0.097247235
-4.16536	jacksonville	-0.1452627
-5.068526	stepping	-0.097247235
-3.9174955	fall	-0.13099386
-5.068526	bynum	-0.097247235
-4.573497	pumpkin	-0.097247235
-5.068526	farmer	-0.097247235
-4.3763285	raleigh	-0.22899535
-3.6993985	pick	-0.097247235
-5.068526	pumpkins	-0.097247235
-4.3763285	display	-0.097247235
-5.068526	trump…	-0.097247235
-4.573497	tailgate	-0.097247235
-5.068526	bcvsncsu	-0.097247235
-5.068526	carter-finley	-0.097247235
-4.0239797	stadium	-0.13688232
-3.6993985	t…	-0.76808447
-2.7074168	her	-0.16041139
-4.0239797	decades	-0.1452627
-5.068526	self-dealing	-0.097247235
-4.16536	pay-to-play	-0.097247235
-5.068526	outright	-0.097247235
-4.3763285	ensure	-0.12662934
-3.8320467	elected	-0.25093865
-5.068526	commend	-0.097247235
-3.5157325	fbi	-0.12541506
-4.3763285	reopening	-0.18050131
-3.9174955	investigation	-0.16758539
-4.0239797	personal	-0.097247235
-4.3763285	server	-0.097247235
-4.3763285	above	-0.18050131
-4.3763285	traveling	-0.18050131
-5.068526	smithfield	-0.097247235
-3.5548885	millions	-0.4388351
-4.3763285	patriotic	-0.18050131
-5.068526	swirling	-0.097247235
-5.068526	controversies	-0.097247235
-4.573497	ethics	-0.097247235
-3.5157325	donald	-0.50098306
-4.3763285	immediately	-0.097247235
-3.7606778	release	-0.12662934
-3.4798167	emails	-0.17873752
-5.068526	pertinent	-0.097247235
-5.068526	bucks	-0.097247235
-3.2260618	county	-0.25116423
-4.16536	thankful	-0.18050131
-3.5548885	safe	-0.25354868
-5.068526	concern	-0.097247235
-4.0239797	ground	-0.097247235
-4.573497	hold	-0.097247235
-5.068526	laguardia	-0.097247235
-4.16536	led	-0.15814443
-4.3763285	football	-0.097247235
-4.573497	tarmac	-0.097247235
-5.068526	gameon	-0.097247235
-4.16536	fort	-0.20288022
-4.573497	dodge	-0.097247235
-3.5548885	once	-0.28706
-4.573497	omaha	-0.097247235
-5.068526	ne	-0.097247235
-5.068526	nebraska	-0.097247235
-5.068526	springs	-0.097247235
-4.573497	finish	-0.097247235
-5.068526	thi…	-0.097247235
-5.068526	salt	-0.097247235
-5.068526	lake	-0.097247235
-4.16536	utah	-0.097247235
-5.068526	roaring	-0.097247235
-4.573497	fellow	-0.097247235
-5.068526	conservatives	-0.097247235
-5.068526	ut	-0.097247235
-4.3763285	heavy	-0.097247235
-5.068526	beagle	-0.097247235
-3.5979278	13	-0.11661278
-3.6993985	passed	-0.16639851
-5.068526	quietly	-0.097247235
-4.3763285	rest	-0.097247235
-5.068526	maverick	-0.097247235
-5.068526	yo…	-0.097247235
-3.0669463	very	-0.17802472
-4.16536	talented	-0.15814443
-4.3763285	reno	-0.1452627
-5.068526	nv	-0.097247235
-3.7606778	sign	-0.18825266
-5.068526	hung	-0.097247235
-5.068526	tru…	-0.097247235
-3.8320467	elect	-0.20343348
-4.16536	hitting	-0.15814443
-3.5548885	running	-0.17587118
-4.16536	nevada	-0.1962312
-5.068526	colorado.…	-0.097247235
-4.573497	reporters	-0.097247235
-4.573497	rolled	-0.097247235
-5.068526	cabin	-0.097247235
-5.068526	worldseries	-0.097247235
-4.0239797	answer	-0.16758539
-4.573497	marietta	-0.097247235
-5.068526	grassroots	-0.097247235
-5.068526	electing…	-0.097247235
-4.573497	ashland	-0.097247235
-4.573497	determine	-0.097247235
-4.16536	generations	-0.1452627
-4.3763285	e…	-0.2909632
-5.068526	thanking	-0.097247235
-5.068526	airman	-0.097247235
-4.573497	guard	-0.097247235
-5.068526	mansfield	-0.097247235
-3.6457064	war	-0.18194461
-4.0239797	keeping	-0.097247235
-4.573497	saf…	-0.22899535
-4.573497	battleground	-0.097247235
-5.068526	vic…	-0.097247235
-5.068526	swanton	-0.097247235
-4.3763285	greensboro	-0.18050131
-3.6457064	winning	-0.20343348
-4.16536	minds	-0.097247235
-5.068526	him…	-0.097247235
-3.7606778	sitting	-0.23141886
-5.068526	old-fashioned	-0.097247235
-4.573497	barbecue	-0.097247235
-5.068526	stamey	-0.097247235
-3.8320467	competition	-0.097247235
-3.7606778	lie	-0.18242678
-3.5979278	wants	-0.40407303
-5.068526	salisbury	-0.097247235
-5.068526	greens…	-0.097247235
-5.068526	loaded	-0.097247235
-5.068526	revolutionary	-0.097247235
-5.068526	“contract	-0.097247235
-5.068526	voter”	-0.097247235
-5.068526	revitalize	-0.097247235
-3.6457064	america’s	-0.15439531
-3.310662	economy	-0.21149632
-3.6993985	cleveland	-0.27038026
-4.16536	7pm	-0.12326473
-3.4466455	believe	-0.25458604
-5.068526	100-day	-0.097247235
-4.3763285	begins	-0.097247235
-4.16536	restoring	-0.22899535
-4.3763285	honesty	-0.23385595
-4.573497	accountability	-0.18050131
-4.3763285	delaware	-0.23385595
-4.3763285	reach	-0.097247235
-4.573497	vote…	-0.22899535
-4.3763285	pizza	-0.097247235
-5.068526	tommy	-0.097247235
-4.16536	columbus	-0.20288022
-4.3763285	circleville	-0.2909632
-3.6457064	having	-0.26080337
-4.16536	annual	-0.097247235
-5.068526	ohio…	-0.097247235
-4.573497	picking	-0.097247235
-5.068526	hand-dipped	-0.097247235
-5.068526	chocolates	-0.097247235
-5.068526	wittich	-0.097247235
-5.068526	candy	-0.097247235
-4.0239797	owned	-0.33076596
-5.068526	operated…	-0.097247235
-5.068526	autumn	-0.097247235
-5.068526	far-famed	-0.097247235
-3.6457064	committed	-0.50391024
-4.573497	ensuring	-0.097247235
-4.16536	forum	-0.15814443
-5.068526	boundless	-0.097247235
-4.0239797	potential	-0.097247235
-3.7606778	of…	-0.71693194
-4.573497	ag	-0.097247235
-4.16536	sea	-0.22899535
-4.0239797	blue	-0.097247235
-5.068526	jackets	-0.097247235
-5.068526	conven…	-0.097247235
-3.5548885	true	-0.17396742
-5.068526	reagan’s	-0.097247235
-5.068526	doctrine	-0.097247235
-5.068526	“peace	-0.097247235
-4.3763285	rebuild	-0.18050131
-4.3763285	navy	-0.097247235
-5.068526	exeter	-0.097247235
-4.573497	serves	-0.097247235
-5.068526	people—not	-0.097247235
-4.3763285	donors	-0.097247235
-5.068526	special…	-0.097247235
-4.3763285	paying	-0.15814443
-4.573497	epping	-0.22899535
-3.9174955	fire	-0.13099386
-4.3763285	department	-0.12662934
-5.068526	community.…	-0.097247235
-4.573497	grabbing	-0.097247235
-5.068526	bite	-0.097247235
-5.068526	popovers	-0.097247235
-5.068526	nashua	-0.097247235
-5.068526	lend	-0.097247235
-4.16536	hand	-0.097247235
-4.573497	hometown	-0.097247235
-5.068526	christian	-0.097247235
-3.9174955	speak	-0.13818756
-5.068526	fa…	-0.097247235
-4.573497	19	-0.097247235
-4.3763285	vision	-0.1452627
-4.573497	enormous	-0.097247235
-5.068526	groundswell	-0.097247235
-4.573497	albuquerque	-0.15814443
-5.068526	mexico…	-0.097247235
-4.3763285	unveiled	-0.18050131
-3.6993985	trade	-0.16564493
-3.8320467	workers	-0.15814443
-5.068526	americafirst	-0.097247235
-5.068526	thin	-0.097247235
-4.3763285	i…	-0.2909632
-5.068526	heels	-0.097247235
-5.068526	starving	-0.097247235
-5.068526	change.…	-0.097247235
-5.068526	b/t	-0.097247235
-5.068526	whether	-0.097247235
-5.068526	downhill	-0.097247235
-3.4798167	failed	-0.19213583
-3.4798167	policies	-0.16334493
-5.068526	stronger…	-0.097247235
-5.068526	6+	-0.097247235
-5.068526	passage	-0.097247235
-4.3763285	soaring	-0.097247235
-3.0049741	health	-0.5022126
-5.068526	mate	-0.097247235
-3.2879176	media	-0.16266786
-4.573497	recap	-0.097247235
-4.16536	becomes	-0.1452627
-3.9174955	replace	-0.25240415
-5.068526	25m	-0.097247235
-2.9507508	jobs	-0.47098824
-3.8320467	promises	-0.097247235
-3.5979278	agenda	-0.15527456
-4.3763285	harm	-0.097247235
-5.068526	economy—costing	-0.097247235
-5.068526	300,000+	-0.097247235
-4.573497	reducing	-0.097247235
-4.0239797	wages	-0.1452627
-5.068526	abortion	-0.097247235
-3.5979278	address	-0.1625247
-5.068526	ne…	-0.097247235
-4.573497	vegas	-0.097247235
-4.3763285	cheer	-0.097247235
-4.573497	experts	-0.097247235
-5.068526	heaping	-0.097247235
-5.068526	praise	-0.097247235
-4.0239797	defense	-0.097247235
-4.573497	durango	-0.097247235
-5.068526	away—and	-0.097247235
-4.3763285	decide	-0.097247235
-5.068526	rac…	-0.097247235
-5.068526	co.	-0.097247235
-4.3763285	gold	-0.097247235
-4.0239797	star	-0.097247235
-5.068526	staci	-0.097247235
-5.068526	chiomento	-0.097247235
-5.068526	owes	-0.097247235
-4.0239797	husband	-0.16020223
-3.6993985	debt	-0.097247235
-5.068526	rounding	-0.097247235
-4.573497	fayetteville	-0.097247235
-4.573497	f…	-0.22899535
-4.3763285	hard-working	-0.18050131
-4.573497	abandoned	-0.097247235
-3.9174955	politicians	-0.13688232
-5.068526	crowd…	-0.097247235
-3.9174955	relief	-0.13688232
-4.0239797	efforts	-0.097247235
-5.068526	aftermath	-0.097247235
-4.3763285	hurricane	-0.18050131
-5.068526	matthew	-0.097247235
-5.068526	donate	-0.097247235
-5.068526	determined	-0.097247235
-4.573497	carry	-0.097247235
-5.068526	sys…	-0.097247235
-4.3763285	orange	-0.18050131
-5.068526	solemnly	-0.097247235
-4.573497	courageous	-0.097247235
-4.573497	wake	-0.097247235
-5.068526	act…	-0.097247235
-4.3763285	wilmington	-0.23385595
-4.573497	shoutout	-0.097247235
-4.3763285	energetic	-0.2909632
-5.068526	macomb	-0.097247235
-3.9174955	dinner	-0.16998982
-5.068526	amer…	-0.097247235
-3.9174955	opportunity	-0.24550493
-4.0239797	role	-0.33076596
-4.16536	s…	-0.41590193
-5.068526	wave	-0.097247235
-5.068526	corruption…	-0.097247235
-5.068526	differences	-0.097247235
-5.068526	justification	-0.097247235
-3.6457064	violence	-0.19849683
-3.9174955	24	-0.1833928
-5.068526	grea…	-0.097247235
-3.8320467	25	-0.13099386
-5.068526	sends	-0.097247235
-5.068526	wh	-0.097247235
-5.068526	68th	-0.097247235
-5.068526	miami-dade	-0.097247235
-3.8320467	pres	-0.476894
-4.16536	actions	-0.097247235
-5.068526	w/cuba	-0.097247235
-4.16536	maintain	-0.15814443
-5.068526	pensacol…	-0.097247235
-5.068526	chat	-0.097247235
-5.068526	northampton	-0.097247235
-5.068526	bethlehem	-0.097247235
-4.16536	26	-0.097247235
-4.3763285	rise	-0.097247235
-5.068526	el…	-0.097247235
-5.068526	lehigh	-0.097247235
-5.068526	fest	-0.097247235
-5.068526	diners	-0.097247235
-5.068526	jimmie	-0.097247235
-5.068526	kramer	-0.097247235
-5.068526	peanut	-0.097247235
-4.3763285	bar	-0.097247235
-4.573497	restaurant	-0.18050131
-4.573497	reading	-0.097247235
-5.068526	lititz	-0.097247235
-5.068526	idly	-0.097247235
-5.068526	by…	-0.097247235
-4.3763285	urged	-0.097247235
-4.573497	christians	-0.097247235
-4.3763285	sit	-0.097247235
-5.068526	sidelines	-0.097247235
-4.573497	choosing	-0.097247235
-4.3763285	charge	-0.097247235
-5.068526	great…	-0.097247235
-5.068526	cradle	-0.097247235
-5.068526	salem	-0.097247235
-4.573497	bowl	-0.097247235
-5.068526	chili	-0.097247235
-4.0239797	texas	-0.17311664
-5.068526	tavern	-0.097247235
-4.3763285	roanoke	-0.23385595
-4.3763285	students	-0.097247235
-4.573497	represents	-0.097247235
-4.573497	brighter	-0.097247235
-4.573497	o…	-0.22899535
-5.068526	prefer	-0.097247235
-5.068526	'dishonest	-0.097247235
-5.068526	associate	-0.097247235
-5.068526	'honest	-0.097247235
-4.573497	abe	-0.097247235
-3.9174955	reagan	-0.12059174
-5.068526	bettendorf	-0.097247235
-5.068526	holiest	-0.097247235
-4.573497	jewish	-0.097247235
-4.3763285	granted	-0.097247235
-5.068526	yom	-0.097247235
-5.068526	kippur	-0.097247235
-5.068526	atonement	-0.097247235
-5.068526	forgiveness	-0.097247235
-5.068526	inscription	-0.097247235
-5.068526	toured	-0.097247235
-5.068526	talsma	-0.097247235
-5.068526	family-owned-and-operated	-0.097247235
-3.3870552	called	-0.15040095
-4.3763285	70	-0.18050131
-3.9174955	town	-0.34900826
-4.573497	hall	-0.097247235
-5.068526	newton	-0.097247235
-5.068526	futu…	-0.097247235
-4.3763285	28	-0.097247235
-5.068526	revive	-0.097247235
-3.9174955	dream	-0.12059174
-3.9174955	citizens	-0.097247235
-5.068526	thank…	-0.097247235
-4.3763285	honest	-0.097247235
-4.573497	delicious	-0.097247235
-4.3763285	tony	-0.097247235
-4.0239797	ice	-0.1452627
-5.068526	cream	-0.097247235
-4.3763285	downtown	-0.097247235
-5.068526	gastonia	-0.097247235
-5.068526	coup…	-0.097247235
-4.573497	duty	-0.097247235
-4.573497	candidates	-0.15814443
-5.068526	futures.…	-0.097247235
-3.6457064	yet	-0.15005432
-3.8320467	terror	-0.13099386
-5.068526	jerusalem—a	-0.097247235
-5.068526	grave	-0.097247235
-5.068526	dangers	-0.097247235
-5.068526	cherished	-0.097247235
-4.573497	ally	-0.097247235
-3.7606778	israel	-0.12059174
-3.9174955	statement	-0.14309143
-4.573497	below	-0.097247235
-5.068526	rossford	-0.097247235
-4.573497	legendary	-0.097247235
-5.068526	packo	-0.097247235
-4.3763285	toledo	-0.2909632
-5.068526	sandusky	-0.097247235
-5.068526	deli	-0.097247235
-5.068526	amherst	-0.097247235
-5.068526	chicken	-0.097247235
-5.068526	paprikash	-0.097247235
-5.068526	buckeye	-0.097247235
-5.068526	strongsville	-0.097247235
-5.068526	gaining	-0.097247235
-5.068526	johns…	-0.097247235
-5.068526	—you	-0.097247235
-5.068526	loathe	-0.097247235
-4.573497	slice	-0.097247235
-5.068526	pie	-0.097247235
-5.068526	laughs	-0.097247235
-4.16536	valley	-0.097247235
-4.573497	spring	-0.097247235
-3.6993985	surprise	-0.11841688
-5.068526	share…	-0.097247235
-4.16536	gettysburg	-0.15814443
-5.068526	reminded	-0.097247235
-3.7606778	price	-0.12662934
-5.068526	servicemembers	-0.097247235
-5.068526	veteran…	-0.097247235
-5.068526	battlefield	-0.097247235
-5.068526	cemetery	-0.097247235
-3.8320467	which	-0.14890434
-4.573497	abraham	-0.22899535
-5.068526	immortal	-0.097247235
-5.068526	gettysbur…	-0.097247235
-5.068526	lay	-0.097247235
-5.068526	wreath	-0.097247235
-5.068526	wing	-0.097247235
-5.068526	27th	-0.097247235
-5.068526	advanced	-0.097247235
-5.068526	gettysbu…	-0.097247235
-5.068526	touring	-0.097247235
-5.068526	battlefield—the	-0.097247235
-5.068526	site	-0.097247235
-4.3763285	civil	-0.097247235
-5.068526	bloodiest	-0.097247235
-3.9174955	battle	-0.097247235
-5.068526	bracing	-0.097247235
-4.573497	east	-0.097247235
-4.573497	seek	-0.097247235
-5.068526	shelter	-0.097247235
-3.9174955	enthusiastic	-0.097247235
-5.068526	grantville	-0.097247235
-4.0239797	the…	-0.51281196
-5.068526	pa…	-0.097247235
-5.068526	bar-b-q	-0.097247235
-5.068526	ranch	-0.097247235
-5.068526	harrisonburg	-0.097247235
-5.068526	locally	-0.097247235
-5.068526	sa…	-0.097247235
-4.3763285	kicking	-0.18050131
-3.7606778	four	-0.18242678
-5.068526	stop—harrisonburg	-0.097247235
-4.573497	sat	-0.097247235
-5.068526	winner	-0.097247235
-3.7606778	happen	-0.14067157
-4.573497	text	-0.097247235
-5.068526	88022	-0.097247235
-4.573497	judged	-0.097247235
-4.573497	treats	-0.097247235
-5.068526	prouder	-0.097247235
-5.068526	pro-life	-0.097247235
-3.9174955	candidate	-0.13099386
-4.0239797	raised	-0.097247235
-3.7606778	politics	-0.15273938
-5.068526	favored	-0.097247235
-3.9174955	weakness	-0.13099386
-5.068526	arouses	-0.097247235
-4.16536	evil	-0.097247235
-3.5979278	kaine	-0.117474675
-4.0239797	borders	-0.2820615
-3.2260618	--	-0.13429923
-4.0239797	amnesty	-0.097247235
-4.16536	ronald	-0.41590193
-5.068526	bor…	-0.097247235
-4.573497	’s	-0.097247235
-5.068526	forward-looking	-0.097247235
-3.8320467	increase	-0.12326473
-5.068526	incomes	-0.097247235
-4.3763285	opportunities	-0.18050131
-4.573497	clinton’s	-0.097247235
-5.068526	tailspin	-0.097247235
-5.068526	bigleaguetruth	-0.097247235
-4.3763285	there’s	-0.20288022
-4.0239797	grow	-0.16412848
-5.068526	7+	-0.097247235
-3.6457064	foreign	-0.26957697
-4.3763285	emboldened	-0.15814443
-4.3763285	enemies	-0.1452627
-5.068526	couple	-0.097247235
-5.068526	9pm	-0.097247235
-5.068526	impactful	-0.097247235
-4.3763285	lifetime	-0.097247235
-5.068526	walks	-0.097247235
-5.068526	oval	-0.097247235
-5.068526	cybersecurity	-0.097247235
-5.068526	cyber-crime	-0.097247235
-4.0239797	security	-0.13209727
-5.068526	threats	-0.097247235
-5.068526	roshhashanah	-0.097247235
-4.0239797	wish	-0.1943524
-4.0239797	joy	-0.097247235
-4.573497	happiness	-0.097247235
-5.068526	globalist	-0.097247235
-4.3763285	decimated	-0.18050131
-3.9174955	manufacturing	-0.18050131
-4.573497	politico	-0.097247235
-4.16536	gives	-0.15814443
-4.3763285	sanders	-0.120167166
-4.3763285	leaked	-0.097247235
-5.068526	fundraising	-0.097247235
-5.068526	recording	-0.097247235
-3.8320467	anniversary	-0.29917648
-4.3763285	tribute	-0.2909632
-4.3763285	henry	-0.097247235
-5.068526	hyde—a	-0.097247235
-5.068526	plac…	-0.097247235
-3.9174955	40	-0.1833928
-4.0239797	ago	-0.29444247
-5.068526	hydeamendment	-0.097247235
-5.068526	enacted—a	-0.097247235
-5.068526	milestone	-0.097247235
-4.573497	unborn	-0.097247235
-5.068526	coney	-0.097247235
-4.573497	wayne	-0.097247235
-3.171928	hoosiers	-0.22315699
-3.9174955	supporting	-0.097247235
-4.573497	12pm	-0.15814443
-4.3763285	greatly	-0.18050131
-4.0239797	appreciate	-0.260051
-5.068526	g…	-0.097247235
-4.573497	tragic	-0.097247235
-5.068526	jersey	-0.097247235
-4.16536	train	-0.097247235
-4.16536	brave	-0.097247235
-5.068526	droves	-0.097247235
-3.8320467	friday	-0.14685997
-5.068526	clintons	-0.097247235
-5.068526	perfected	-0.097247235
-5.068526	profit	-0.097247235
-5.068526	followthemoney	-0.097247235
-5.068526	freespeechfairness	-0.097247235
-4.3763285	johnson	-0.097247235
-4.3763285	amendment	-0.12662934
-5.068526	pastors	-0.097247235
-5.068526	faith-based	-0.097247235
-5.068526	orgs	-0.097247235
-4.573497	leetonia	-0.097247235
-3.5157325	high	-0.113792844
-5.068526	sc…	-0.097247235
-5.068526	contrasts	-0.097247235
-4.573497	pro-growth	-0.097247235
-4.573497	job-killing	-0.097247235
-5.068526	girard	-0.097247235
-3.8320467	can’t	-0.13099386
-5.068526	fulfilling	-0.097247235
-5.068526	prophet	-0.097247235
-5.068526	joel	-0.097247235
-3.8320467	old	-0.12326473
-4.573497	shall	-0.097247235
-4.0239797	dreams	-0.18242678
-4.573497	shimon	-0.22899535
-4.573497	peres	-0.097247235
-3.9174955	showed	-0.1833928
-5.068526	equal	-0.097247235
-3.3346636	lost	-0.14805135
-5.068526	visionary	-0.097247235
-4.573497	statesman	-0.22899535
-5.068526	personified	-0.097247235
-3.8320467	face	-0.12059174
-5.068526	pursuit	-0.097247235
-4.573497	madison	-0.097247235
-3.6457064	far	-0.18657999
-5.068526	again…	-0.097247235
-5.068526	debates2016	-0.097247235
-5.068526	matthews	-0.097247235
-5.068526	presidentialdebate	-0.097247235
-5.068526	filters	-0.097247235
-5.068526	parsing	-0.097247235
-5.068526	milford	-0.097247235
-4.3763285	union	-0.097247235
-4.16536	representing	-0.097247235
-5.068526	5,000	-0.097247235
-3.6457064	immigration	-0.12662934
-5.068526	endorses	-0.097247235
-4.573497	cup	-0.097247235
-4.573497	iowans	-0.097247235
-4.3763285	des	-0.2909632
-5.068526	moines	-0.097247235
-5.068526	coalition	-0.097247235
-4.573497	banquet	-0.097247235
-5.068526	resonating	-0.097247235
-4.573497	receiving	-0.097247235
-4.573497	briefing	-0.097247235
-4.573497	flooding	-0.097247235
-5.068526	congressman…	-0.097247235
-5.068526	so…	-0.097247235
-4.573497	pleased	-0.22899535
-5.068526	nat'l	-0.097247235
-4.573497	asheville	-0.22899535
-5.068526	ticket	-0.097247235
-5.068526	championing	-0.097247235
-4.16536	school	-0.1452627
-5.068526	p…	-0.097247235
-4.16536	foundation	-0.12059174
-3.5157325	cut	-0.21465878
-4.3763285	opposite	-0.097247235
-4.573497	revival	-0.097247235
-3.6457064	lower	-0.15951523
-4.16536	rates	-0.097247235
-5.068526	controlled	-0.097247235
-5.068526	re…	-0.097247235
-5.068526	soldier	-0.097247235
-4.573497	knock	-0.22899535
-5.068526	maga…	-0.097247235
-3.6993985	truly	-0.11661278
-3.9174955	endorsement	-0.13099386
-5.068526	tog…	-0.097247235
-4.573497	gain	-0.097247235
-4.573497	turnout	-0.097247235
-5.068526	thrilled	-0.097247235
-4.573497	preparing	-0.097247235
-4.573497	roundtable	-0.097247235
-5.068526	na…	-0.097247235
-5.068526	embodies	-0.097247235
-5.068526	deeply	-0.097247235
-5.068526	inspirin…	-0.097247235
-5.068526	challenging	-0.097247235
-5.068526	unites	-0.097247235
-5.068526	divides	-0.097247235
-4.3763285	chief	-0.097247235
-3.9174955	among	-0.097247235
-4.573497	tulsa	-0.097247235
-5.068526	650	-0.097247235
-4.573497	pouring	-0.097247235
-4.573497	williamsburg	-0.22899535
-5.068526	storm	-0.097247235
-5.068526	aroun…	-0.097247235
-5.068526	pierce	-0.097247235
-5.068526	pitt	-0.097247235
-5.068526	bar-b-que	-0.097247235
-5.068526	virginians	-0.097247235
-3.6457064	enjoy	-0.34212762
-4.573497	pulled	-0.097247235
-5.068526	pork	-0.097247235
-5.068526	sandwich	-0.097247235
-4.0239797	inspired	-0.097247235
-5.068526	deck	-0.097247235
-5.068526	uss	-0.097247235
-3.6993985	served	-0.12326473
-2.9935744	should	-0.2671677
-4.3763285	seven	-0.097247235
-4.573497	weakened	-0.097247235
-5.068526	rebuilding	-0.097247235
-4.3763285	norfolk	-0.2909632
-5.068526	ame…	-0.097247235
-3.6993985	evening	-0.29638556
-5.068526	dubuque	-0.097247235
-5.068526	family-owned	-0.097247235
-5.068526	giese	-0.097247235
-4.16536	terrorist	-0.097247235
-3.6993985	attacks	-0.1452627
-4.3763285	packed	-0.13688232
-3.6993985	feel	-0.17349885
-5.068526	comfort	-0.097247235
-5.068526	adversaries	-0.097247235
-3.6457064	interview	-0.115092054
-5.068526	worship	-0.097247235
-4.16536	loss	-0.23385595
-4.0239797	result	-0.1833928
-4.16536	horrific	-0.097247235
-5.068526	prayer	-0.097247235
-5.068526	vigilance	-0.097247235
-4.0239797	injured	-0.1452627
-5.068526	investigating	-0.097247235
-4.3763285	acts	-0.18050131
-5.068526	tailgating	-0.097247235
-4.573497	swamp	-0.097247235
-5.068526	gogators	-0.097247235
-5.068526	bucket	-0.097247235
-3.9174955	list	-0.097247235
-5.068526	item	-0.097247235
-4.573497	arrived	-0.18050131
-5.068526	gatorville	-0.097247235
-5.068526	villages	-0.097247235
-5.068526	constitutionday2016	-0.097247235
-5.068526	uphold	-0.097247235
-5.068526	hispanicheritage	-0.097247235
-4.3763285	month	-0.097247235
-4.573497	recognize	-0.22899535
-4.573497	contributions	-0.097247235
-4.3763285	hispanic	-0.097247235
-5.068526	latino	-0.097247235
-5.068526	identity	-0.097247235
-5.068526	introduce	-0.097247235
-4.573497	club	-0.097247235
-4.573497	ny	-0.097247235
-5.068526	laid	-0.097247235
-5.068526	55	-0.097247235
-4.16536	scranton	-0.20288022
-5.068526	troopers	-0.097247235
-5.068526	outrageous	-0.097247235
-5.068526	quotes	-0.097247235
-5.068526	context	-0.097247235
-4.16536	15	-0.1452627
-4.16536	yrs	-0.097247235
-5.068526	pause	-0.097247235
-5.068526	neverforget	-0.097247235
-5.068526	9–11	-0.097247235
-4.16536	offer	-0.097247235
-4.573497	respects	-0.22899535
-5.068526	pentagon	-0.097247235
-4.573497	memorial	-0.097247235
-5.068526	eve	-0.097247235
-5.068526	15th	-0.097247235
-5.068526	9/11	-0.097247235
-5.068526	valuesvoters	-0.097247235
-4.573497	summit	-0.097247235
-5.068526	vvs16	-0.097247235
-3.7606778	low	-0.30833152
-5.068526	opinion	-0.097247235
-4.573497	highest	-0.097247235
-5.068526	land	-0.097247235
-5.068526	'basket	-0.097247235
-4.573497	deplorables	-0.097247235
-3.7606778	respect	-0.12662934
-5.068526	memory	-0.097247235
-3.6993985	different	-0.14067157
-4.0239797	challenges	-0.2322297
-5.068526	styles	-0.097247235
-5.068526	fundamentally	-0.097247235
-4.573497	similar	-0.097247235
-4.573497	toughness	-0.097247235
-4.573497	optimism	-0.097247235
-4.3763285	justices	-0.097247235
-4.573497	court	-0.097247235
-5.068526	mold	-0.097247235
-3.5979278	justice	-0.15951523
-5.068526	antonin	-0.097247235
-5.068526	scalia	-0.097247235
-4.0239797	1st	-0.097247235
-3.8320467	order	-0.11841688
-5.068526	burdening	-0.097247235
-4.573497	believes	-0.097247235
-5.068526	ingenuity	-0.097247235
-4.573497	unleash	-0.097247235
-3.6457064	7	-0.19849683
-3.8320467	living	-0.22798176
-3.5979278	poverty	-0.2296189
-5.068526	weaker	-0.097247235
-4.3763285	either	-0.097247235
-5.068526	truth-teller	-0.097247235
-3.6993985	dishonest	-0.18242678
-4.573497	command	-0.097247235
-4.16536	belief	-0.15814443
-4.573497	greatness	-0.097247235
-5.068526	2/2	-0.097247235
-5.068526	impatience	-0.097247235
-5.068526	dissatisfaction	-0.097247235
-4.3763285	status	-0.18050131
-4.573497	quo	-0.097247235
-4.573497	1/2	-0.097247235
-5.068526	honesty/bluntness	-0.097247235
-4.573497	confront	-0.097247235
-4.16536	entire	-0.13688232
-3.7606778	become	-0.21637522
-5.068526	resting	-0.097247235
-4.573497	40th	-0.097247235
-5.068526	chesterfield	-0.097247235
-3.5979278	looks	-0.44663423
-5.068526	obstruction	-0.097247235
-4.3763285	springfield	-0.23385595
-4.16536	word	-0.097247235
-4.0239797	mind	-0.097247235
-5.068526	deleting	-0.097247235
-5.068526	18k	-0.097247235
-5.068526	emails-'obstruction'	-0.097247235
-4.16536	allies	-0.13688232
-5.068526	88	-0.097247235
-5.068526	generals	-0.097247235
-5.068526	admirals	-0.097247235
-4.16536	endorsed	-0.15814443
-4.3763285	commander	-0.097247235
-5.068526	amateur	-0.097247235
-3.9174955	defend	-0.13099386
-4.16536	despite	-0.12059174
-5.068526	miles	-0.097247235
-5.068526	sos	-0.097247235
-4.0239797	dangerous	-0.097247235
-3.5979278	set	-0.18050131
-4.16536	straight	-0.097247235
-4.573497	saddened	-0.22899535
-4.16536	passing	-0.15814443
-4.3763285	phyllis	-0.18050131
-5.068526	schlafly	-0.097247235
-4.573497	inspire	-0.097247235
-5.068526	canfield	-0.097247235
-4.0239797	unbelievable	-0.13688232
-5.068526	youngstown	-0.097247235
-5.068526	brook	-0.097247235
-5.068526	laborday	-0.097247235
-5.068526	goody	-0.097247235
-4.573497	lunch	-0.097247235
-4.16536	local	-0.097247235
-5.068526	thx	-0.097247235
-5.068526	legion	-0.097247235
-5.068526	610	-0.097247235
-4.3763285	labor	-0.18050131
-4.16536	honoring	-0.097247235
-5.068526	teresa	-0.097247235
-5.068526	calcutta	-0.097247235
-5.068526	greek	-0.097247235
-5.068526	festival	-0.097247235
-5.068526	baklava	-0.097247235
-4.573497	sept	-0.097247235
-3.8320467	means	-0.12662934
-5.068526	100k	-0.097247235
-4.16536	'the	-0.097247235
-5.068526	610wtvn	-0.097247235
-4.3763285	approach	-0.18050131
-5.068526	kickoff	-0.097247235
-5.068526	'16	-0.097247235
-5.068526	osuvsbg	-0.097247235
-3.9174955	perfect	-0.12662934
-4.0239797	ran	-0.1452627
-4.573497	racing	-0.097247235
-5.068526	icon	-0.097247235
-5.068526	petty	-0.097247235
-3.6993985	event	-0.15814443
-5.068526	boise	-0.097247235
-5.068526	idaho	-0.097247235
-5.068526	enforcement-	-0.097247235
-5.068526	dogs-	-0.097247235
-4.16536	enjoyed	-0.12326473
-5.068526	temple	-0.097247235
-5.068526	sen	-0.097247235
-5.068526	orrin	-0.097247235
-5.068526	hatch	-0.097247235
-5.068526	gary	-0.097247235
-5.068526	herbert	-0.097247235
-3.5157325	education	-0.18009815
-5.068526	involves	-0.097247235
-4.3763285	teachers	-0.097247235
-5.068526	function	-0.097247235
-4.573497	stunning	-0.097247235
-4.16536	thousands	-0.23385595
-4.0239797	phoenix	-0.29917648
-4.16536	secure	-0.1452627
-3.4466455	reform	-0.124844834
-4.573497	delivers	-0.097247235
-4.573497	sarasota	-0.18050131
-5.068526	braving	-0.097247235
-4.573497	mccain	-0.097247235
-4.573497	offered	-0.097247235
-5.068526	congratulating	-0.097247235
-4.0239797	nomination	-0.1452627
-4.3763285	venue	-0.097247235
-4.573497	winston-salem	-0.22899535
-4.0239797	rep.	-0.1452627
-4.3763285	tom	-0.097247235
-5.068526	graves	-0.097247235
-3.9174955	front	-0.13099386
-5.068526	dalton	-0.097247235
-5.068526	ga.	-0.097247235
-4.3763285	atlanta	-0.097247235
-5.068526	frosted	-0.097247235
-4.3763285	georgia	-0.097247235
-5.068526	ga	-0.097247235
-5.068526	perry	-0.097247235
-4.3763285	farmers	-0.097247235
-4.573497	humbled	-0.097247235
-3.7606778	former	-0.12326473
-5.068526	sonny	-0.097247235
-4.573497	perdue	-0.097247235
-3.5157325	cnn	-0.12758501
-4.573497	noon	-0.097247235
-4.16536	played	-0.15814443
-4.3763285	critical	-0.097247235
-4.573497	founding	-0.097247235
-5.068526	energized	-0.097247235
-3.6993985	party	-0.229931
-5.068526	millie	-0.097247235
-5.068526	diner	-0.097247235
-4.573497	institution	-0.097247235
-3.9174955	wait	-0.15814443
-5.068526	dig	-0.097247235
-5.068526	devil	-0.097247235
-3.8320467	mess	-0.17141995
-4.573497	trump-pence	-0.097247235
-4.3763285	carmel	-0.097247235
-4.3763285	common	-0.097247235
-4.3763285	sense	-0.097247235
-4.0239797	leaving	-0.097247235
-4.0239797	serious	-0.097247235
-5.068526	tornados	-0.097247235
-5.068526	winnie	-0.097247235
-5.068526	burger	-0.097247235
-5.068526	pipe	-0.097247235
-4.573497	foundry	-0.097247235
-5.068526	recycle	-0.097247235
-4.573497	metal	-0.097247235
-5.068526	components	-0.097247235
-4.0239797	shut	-0.33076596
-4.3763285	prosecutor	-0.097247235
-3.7606778	met	-0.11841688
-3.8320467	seeing	-0.12326473
-5.068526	factories	-0.097247235
-4.3763285	haircut	-0.097247235
-4.573497	jones	-0.097247235
-5.068526	norristown	-0.097247235
-5.068526	pipersville	-0.097247235
-3.2879176	had	-0.22548836
-4.16536	visited	-0.15814443
-4.3763285	cedar	-0.2909632
-5.068526	terry	-0.097247235
-5.068526	branstad	-0.097247235
-3.7606778	la	-0.11661278
-4.16536	showing	-0.13688232
-5.068526	castyourkernel	-0.097247235
-5.068526	stays	-0.097247235
-3.6993985	terrorists	-0.12326473
-4.3763285	drugs	-0.097247235
-4.573497	sun	-0.097247235
-4.573497	10am	-0.097247235
-4.3763285	henderson	-0.18050131
-5.068526	roswell	-0.097247235
-4.573497	focused	-0.22899535
-3.9174955	safety	-0.13688232
-4.573497	rsvp	-0.1452627
-4.16536	defeat	-0.22899535
-3.5157325	radical	-0.4727874
-4.573497	islamic	-0.097247235
-5.068526	terorrism	-0.097247235
-5.068526	outline	-0.097247235
-5.068526	replay	-0.097247235
-3.7606778	speaking	-0.15814443
-5.068526	wallace	-0.097247235
-4.573497	milwaukee	-0.097247235
-5.068526	crosse	-0.097247235
-4.573497	cambridge	-0.097247235
-4.16536	latest	-0.097247235
-3.9174955	scandal	-0.16020223
-4.3763285	later	-0.097247235
-4.573497	dayton	-0.22899535
-5.068526	thu	-0.097247235
-5.068526	congratulated	-0.097247235
-3.8320467	speaker	-0.15094075
-4.573497	pittsburgh	-0.18050131
-4.573497	djt	-0.097247235
-4.3763285	lancaster	-0.2909632
-4.0239797	events	-0.097247235
-5.068526	bluffs	-0.097247235
-4.573497	deserves	-0.097247235
-4.16536	rep	-0.097247235
-5.068526	steve	-0.097247235
-5.068526	trumppence	-0.097247235
-4.573497	sioux	-0.22899535
-4.573497	4pm	-0.097247235
-4.573497	food	-0.097247235
-5.068526	cincy	-0.097247235
-5.068526	dearborn	-0.097247235
-4.0239797	lets	-0.2825714
-5.068526	teamusa	-0.097247235
-5.068526	openingceremony	-0.097247235
-5.068526	rio2016	-0.097247235
-5.068526	foreignpolicy	-0.097247235
-4.0239797	roll	-0.097247235
-4.3763285	bay	-0.097247235
-5.068526	bts	-0.097247235
-5.068526	desmoines	-0.097247235
-5.068526	trumptrain	-0.097247235
-4.573497	support-	-0.097247235
-4.3763285	departing	-0.13688232
-4.16536	question	-0.097247235
-3.5979278	absolutely	-0.11266998
-5.068526	coastguardday	-0.097247235
-5.068526	8/4	-0.097247235
-5.068526	10a	-0.097247235
-5.068526	3p	-0.097247235
-4.573497	7p	-0.097247235
-4.573497	weston	-0.097247235
-5.068526	jefferson	-0.097247235
-5.068526	kidsfortrump	-0.097247235
-4.3763285	strongly	-0.097247235
-3.6457064	paul	-0.3362935
-4.16536	ryan	-0.13099386
-4.573497	endorse	-0.097247235
-5.068526	re-election	-0.097247235
-4.573497	..	-0.13688232
-4.16536	amount	-0.41590193
-3.8320467	denver	-0.1943524
-4.573497	talked	-0.097247235
-4.573497	longtime	-0.097247235
-5.068526	ship	-0.097247235
-5.068526	denver-	-0.097247235
-4.573497	2pm	-0.22899535
-5.068526	springs-	-0.097247235
-4.573497	townhall	-0.097247235
-5.068526	evening-	-0.097247235
-4.0239797	kind	-0.16998982
-5.068526	tucson	-0.097247235
-4.3763285	extremely	-0.18050131
-5.068526	colorado-	-0.097247235
-4.573497	2pm-	-0.097247235
-5.068526	6pm-	-0.097247235
-5.068526	lesm	-0.097247235
-4.573497	carson	-0.22899535
-5.068526	arriving	-0.097247235
-4.573497	captain	-0.097247235
-5.068526	humayun	-0.097247235
-4.3763285	khan	-0.15814443
-4.16536	hero	-0.1452627
-5.068526	cont	-0.097247235
-4.3763285	quick	-0.097247235
-4.3763285	indianapolis	-0.097247235
-4.573497	lima	-0.22899535
-5.068526	ines	-0.097247235
-5.068526	alecindy	-0.097247235
-5.068526	proceeds	-0.097247235
-4.3763285	fund	-0.097247235
-4.573497	san	-0.22899535
-5.068526	diego	-0.097247235
-5.068526	oakland	-0.097247235
-5.068526	5pm	-0.097247235
-5.068526	michigan-	-0.097247235
-5.068526	importance	-0.097247235
-3.9174955	hrc	-0.13099386
-5.068526	airing	-0.097247235
-4.573497	bottom	-0.097247235
-3.6457064	behind	-0.18825266
-5.068526	hacking	-0.097247235
-3.9174955	russia	-0.1452627
-4.573497	interfering	-0.097247235
-5.068526	117th	-0.097247235
-5.068526	vfwconvention	-0.097247235
-4.3763285	flying	-0.097247235
-5.068526	mtp	-0.097247235
-4.573497	hateful	-0.097247235
-5.068526	rhetoric	-0.097247235
-4.0239797	breaking	-0.12662934
-5.068526	appalling	-0.097247235
-4.573497	munich	-0.22899535
-3.8320467	officially	-0.097247235
-5.068526	party’s	-0.097247235
-5.068526	makeamericaworkagain	-0.097247235
-5.068526	rncincle	-0.097247235
-5.068526	jane	-0.097247235
-4.573497	horton	-0.097247235
-4.3763285	whose	-0.097247235
-5.068526	spc	-0.097247235
-5.068526	christopher	-0.097247235
-4.3763285	army	-0.097247235
-4.573497	sniper	-0.097247235
-5.068526	afghanistan	-0.097247235
-5.068526	humbling	-0.097247235
-3.4466455	such	-0.33560646
-5.068526	welcomed	-0.097247235
-5.068526	sweethomeindiana	-0.097247235
-5.068526	zionsville	-0.097247235
-5.068526	commonsense	-0.097247235
-5.068526	teampence	-0.097247235
-5.068526	burgeoning	-0.097247235
-4.3763285	silicon	-0.18050131
-5.068526	prairie	-0.097247235
-5.068526	agriculture	-0.097247235
-5.068526	fairgrounds	-0.097247235
-5.068526	agroundtable	-0.097247235
-4.573497	behind-the-scenes	-0.097247235
-4.573497	mike.pence	-0.097247235
-4.16536	lots	-0.33076596
-3.5157325	mike	-0.25642523
-3.6993985	pence	-0.12059174
-4.573497	corn	-0.097247235
-4.16536	shop	-0.15814443
-4.573497	pleasure	-0.097247235
-4.3763285	resolve	-0.097247235
-4.16536	unite	-0.097247235
-4.573497	careless	-0.097247235
-5.068526	awaits	-0.097247235
-5.068526	weighing	-0.097247235
-3.9174955	children	-0.12662934
-5.068526	grandchildren	-0.097247235
-3.6993985	told	-0.097247235
-3.6993985	gets	-0.12059174
-4.0239797	balanced	-0.20288022
-4.573497	budgets	-0.22899535
-4.3763285	investments	-0.2909632
-4.16536	infrastructure	-0.097247235
-5.068526	119	-0.097247235
-5.068526	tuned	-0.097247235
-4.573497	tweeting	-0.18050131
-5.068526	westfield	-0.097247235
-3.6457064	spent	-0.097247235
-4.16536	4-hers	-0.097247235
-5.068526	tn	-0.097247235
-4.3763285	bartholomew	-0.2909632
-5.068526	gosmoke	-0.097247235
-4.16536	loving	-0.097247235
-5.068526	fairs	-0.097247235
-4.573497	dedication	-0.097247235
-4.3763285	raise	-0.097247235
-4.3763285	animals	-0.18050131
-4.573497	decatur	-0.22899535
-5.068526	stations	-0.097247235
-5.068526	southeast	-0.097247235
-5.068526	fried	-0.097247235
-5.068526	fish	-0.097247235
-5.068526	cooked	-0.097247235
-5.068526	letts	-0.097247235
-5.068526	4-h	-0.097247235
-3.8320467	fantastic	-0.13489759
-5.068526	🍕	-0.097247235
-4.3763285	editorial	-0.15814443
-3.7606778	major	-0.12866065
-3.8320467	general	-0.15094075
-5.068526	martin	-0.097247235
-5.068526	umbarger	-0.097247235
-4.16536	vets	-0.097247235
-4.3763285	regard	-0.097247235
-4.573497	piece	-0.097247235
-4.16536	supports	-0.097247235
-4.3763285	friendship	-0.097247235
-4.573497	lemon	-0.097247235
-5.068526	shake-up	-0.097247235
-4.573497	shelby	-0.22899535
-5.068526	shelbycounty4hfair	-0.097247235
-4.0239797	heritage	-0.1452627
-5.068526	fishers	-0.097247235
-5.068526	blastonthebridge2016	-0.097247235
-5.068526	blast	-0.097247235
-5.068526	bridge	-0.097247235
-4.3763285	largest	-0.097247235
-5.068526	fireworks	-0.097247235
-5.068526	displays	-0.097247235
-4.573497	🎉	-0.18050131
-4.573497	noblesville	-0.097247235
-3.9174955	independence	-0.1833928
-4.0239797	parade	-0.2322297
-4.3763285	thoroughly	-0.18050131
-4.573497	linton	-0.097247235
-4.16536	celebrate	-0.097247235
-4.573497	blessing	-0.097247235
-5.068526	fourth	-0.097247235
-4.573497	july	-0.097247235
-5.068526	independenceday	-0.097247235
-5.068526	aaa	-0.097247235
-5.068526	rating	-0.097247235
-5.068526	proved	-0.097247235
-5.068526	know-	-0.097247235
-5.068526	cylinders	-0.097247235
-4.3763285	moves	-0.097247235
-4.3763285	principled	-0.097247235
-4.573497	values	-0.097247235
-4.573497	gregg	-0.097247206
-4.3763285	himself	-0.097247235
-4.573497	200k	-0.097247235
-5.068526	taxpayer-funded	-0.097247235
-3.6457064	insurance	-0.12758501
-5.068526	perk	-0.097247235
-4.3763285	bear	-0.18050131
-4.573497	arms	-0.15814443
-5.068526	proponent	-0.097247235
-5.068526	shoot	-0.097247235
-5.068526	indianagunclub	-0.097247235
-4.0239797	gun	-0.097247235
-5.068526	sherman	-0.097247235
-5.068526	edinburgh	-0.097247235
-5.068526	nearby	-0.097247235
-4.573497	article	-0.097247235
-4.3763285	indiana’s	-0.15814443
-5.068526	supersaturday	-0.097247235
-3.8320467	fun	-0.097247235
-4.573497	signing	-0.097247235
-3.5157325	coal	-0.181463
-4.573497	miners	-0.097247235
-3.9174955	message	-0.12662934
-5.068526	swarens	-0.097247235
-4.573497	adding	-0.097247235
-5.068526	sector	-0.097247235
-4.573497	continuing	-0.097247235
-4.0239797	hot	-0.097247235
-5.068526	streak	-0.097247235
-5.068526	siliconprairie	-0.097247235
-4.573497	invest	-0.097247235
-5.068526	score	-0.097247235
-4.16536	involved	-0.23385595
-4.3763285	chosen	-0.097247235
-4.3763285	meaning	-0.097247235
-3.8320467	ads	-0.097247235
-5.068526	booming	-0.097247235
-4.573497	dads	-0.097247235
-4.573497	opponent	-0.097247235
-5.068526	california’s	-0.097247235
-5.068526	ingop2016	-0.097247235
-4.0239797	nominee	-0.16998982
-5.068526	attorney	-0.097247235
-4.3763285	experienced	-0.097247235
-4.573497	benefit	-0.097247235
-5.068526	-our	-0.097247235
-5.068526	supt	-0.097247235
-5.068526	instruction	-0.097247235
-4.3763285	improve	-0.097247235
-4.573497	parties	-0.097247235
-4.573497	futures	-0.097247235
-4.573497	effective	-0.097247235
-5.068526	compassionate	-0.097247235
-4.573497	treatment	-0.097247235
-3.9174955	caught	-0.097247235
-5.068526	scourge	-0.097247235
-3.9174955	drug	-0.097247235
-4.3763285	test	-0.097247235
-3.3870552	other	-0.14866328
-5.068526	istep	-0.097247235
-5.068526	pences	-0.097247235
-5.068526	game-changer	-0.097247235
-4.3763285	became	-0.097247235
-4.3763285	investment	-0.097247235
-4.16536	large	-0.15814443
-5.068526	rated	-0.097247235
-4.3763285	invested	-0.18050131
-4.573497	billions	-0.097247235
-4.3763285	able	-0.2909632
-4.573497	maintained	-0.097247235
-5.068526	reserves	-0.097247235
-5.068526	deficits	-0.097247235
-5.068526	ratified	-0.097247235
-5.068526	indianaconstitution	-0.097247235
-5.068526	high-wage	-0.097247235
-5.068526	high-skill	-0.097247235
-5.068526	3x	-0.097247235
-4.3763285	sacrifice	-0.097247235
-4.573497	wwii	-0.097247235
-5.068526	d-day	-0.097247235
-5.068526	dday	-0.097247235
-5.068526	deputy	-0.097247235
-5.068526	mngr	-0.097247235
-4.3763285	updated	-0.097247235
-4.16536	progress	-0.15814443
-4.573497	graduates	-0.097247235
-5.068526	spoken	-0.097247235
-5.068526	commencement	-0.097247235
-5.068526	firearms	-0.097247235
-5.068526	abiding	-0.097247235
-5.068526	1500	-0.097247235
-4.573497	knife	-0.097247235
-5.068526	refrigerated-warehousing	-0.097247235
-5.068526	firm	-0.097247235
-5.068526	13.6m	-0.097247235
-4.16536	expansion	-0.097247235
-4.3763285	65	-0.097247235
-4.16536	access	-0.41590193
-3.9174955	quality	-0.097247235
-4.16536	pre-k	-0.23385595
-5.068526	hiring	-0.097247235
-4.3763285	begin	-0.097247235
-4.573497	august	-0.097247235
-4.3763285	pilot	-0.097247235
-4.0239797	program	-0.097247235
-4.573497	we’ve	-0.097247235
-5.068526	2,300	-0.097247235
-4.3763285	five	-0.097247235
-4.573497	counties	-0.097247235
-5.068526	burwell	-0.097247235
-4.573497	express	-0.097247235
-4.3763285	interest	-0.097247235
-4.573497	expanding	-0.097247235
-5.068526	disadvantaged	-0.097247235
-4.0239797	reasons	-0.097247235
-5.068526	remarkable	-0.097247235
-4.573497	recovery	-0.097247235
-4.3763285	belongs	-0.2909632
-4.573497	elkhart	-0.097247235
-5.068526	rebounded	-0.097247235
-5.068526	spite	-0.097247235
-4.573497	attracts	-0.097247235
-5.068526	connecticut-based	-0.097247235
-5.068526	pet	-0.097247235
-5.068526	manufacturer	-0.097247235
-5.068526	150+	-0.097247235
-5.068526	mw	-0.097247235
-5.068526	reduced	-0.097247235
-4.573497	corporate	-0.097247235
-4.573497	regs	-0.097247235
-5.068526	skilled	-0.097247235
-4.573497	workforce	-0.097247235
-4.3763285	rich	-0.097247235
-4.573497	maintains	-0.097247235
-5.068526	reputation	-0.097247235
-5.068526	concentration	-0.097247235
-5.068526	scores	-0.097247235
-4.573497	graduation	-0.097247235
-4.3763285	beginning	-0.097247235
-5.068526	excel	-0.097247235
-5.068526	-user	-0.097247235
-3.9174955	priority	-0.097247235
-5.068526	-first	-0.097247235
-3.9174955	ad	-0.097247235
-5.068526	100th	-0.097247235
-5.068526	indy500	-0.097247235
-5.068526	60+	-0.097247235
-5.068526	🏁	-0.097247235
-5.068526	carbday	-0.097247235
-5.068526	raceweekend	-0.097247235
-5.068526	pedal	-0.097247235
-5.068526	sparking	-0.097247235
-4.16536	innovation	-0.097247235
-5.068526	tomorrow’s	-0.097247235
-5.068526	prez	-0.097247235
-4.3763285	jim	-0.097247235
-5.068526	schellinger	-0.097247235
-5.068526	hale	-0.097247235
-5.068526	spirited	-0.097247235
-3.8320467	growth	-0.12326473
-4.3763285	econ	-0.097247235
-5.068526	astatethatworks	-0.097247235
-4.573497	unfair	-0.097247235
-5.068526	practices	-0.097247235
-5.068526	asks	-0.097247235
-5.068526	feds	-0.097247235
-5.068526	investigate	-0.097247235
-5.068526	steelmakers	-0.097247235
-5.068526	2019	-0.097247235
-4.573497	gathering	-0.097247235
-5.068526	freedom-loving	-0.097247235
-4.573497	willing	-0.18050131
-3.7606778	cause	-0.14067157
-4.3763285	podium	-0.097247235
-5.068526	infringed	-0.097247235
-5.068526	law-abiding	-0.097247235
-5.068526	hunting	-0.097247235
-5.068526	fishing	-0.097247235
-5.068526	camping	-0.097247235
-4.573497	hiking	-0.097247235
-5.068526	riding	-0.097247235
-5.068526	parks	-0.097247235
-5.068526	reservoirs	-0.097247235
-4.3763285	commercial	-0.097247235
-4.573497	playbook	-0.097247235
-5.068526	nets	-0.097247235
-4.3763285	100,000	-0.097247235
-5.068526	confident	-0.097247235
-5.068526	plays	-0.097247235
-5.068526	vital	-0.097247235
-5.068526	pursue	-0.097247235
-4.573497	selection	-0.22899535
-4.573497	alone	-0.097247235
-3.6457064	saw	-0.13099386
-5.068526	4.7	-0.097247235
-3.7606778	dollars	-0.12326473
-4.3763285	lobbyist	-0.097247235
-3.6457064	wrong	-0.15314458
-5.068526	fooled	-0.097247235
-5.068526	attempts	-0.097247235
-4.573497	rewrite	-0.097247235
-5.068526	therealjohngregg	-0.097247235
-5.068526	gregg’s	-0.097247235
-4.3763285	attempt	-0.2909632
-4.573497	deny	-0.097247235
-5.068526	salesforce’s	-0.097247235
-5.068526	ancmnt	-0.097247235
-5.068526	monstrous	-0.097247235
-4.3763285	development	-0.097247235
-5.068526	worthy	-0.097247235
-4.573497	attention	-0.097247235
-5.068526	garnered.”	-0.097247235
-4.16536	six	-0.097247235
-4.3763285	salesforce	-0.097247235
